// Neural Network File Format by Kyle Julian, Stanford 2016
8,2,1,64,
2,64,64,64,64,1,1,4,1,
0,
-3.4028235e+38,-3.4028235e+38,
3.4028235e+38,3.4028235e+38,
0.0,0.0,0.0,
1.0,1.0,1.0,
1.62319e-01,8.89280e-02,
-1.57351e-01,-3.13891e-02,
2.66371e-01,2.26820e-01,
-1.96862e-01,-2.56973e-01,
1.35732e-01,-1.52957e-01,
-2.97483e-01,-7.07873e-02,
4.38401e-02,-4.31318e-01,
-8.14942e-02,2.76412e-01,
1.24689e-01,-1.38946e-01,
-4.48887e-01,1.15061e-01,
-1.94843e-01,-1.90831e-01,
-7.46336e-03,-9.74082e-02,
2.42737e-01,4.28642e-02,
-1.46448e-01,-3.23880e-02,
-1.28202e-01,-3.79519e-01,
-1.14851e-02,-2.41499e-01,
-4.23117e-01,-1.02888e-01,
-1.80182e-01,9.55808e-02,
1.79780e-01,4.11335e-02,
-1.17685e-01,1.29799e-01,
-6.67591e-02,-4.33128e-02,
-2.63056e-01,2.44613e-03,
-1.26726e-01,2.93847e-01,
1.81888e-01,-1.12082e-01,
2.91403e-02,1.57662e-01,
9.77785e-02,-4.70224e-02,
6.52399e-03,-2.11878e-01,
-9.78894e-02,-7.05099e-03,
-1.51982e-01,-2.41538e-01,
-2.66184e-01,2.93010e-01,
1.81838e-02,1.60092e-02,
-6.81185e-02,4.36201e-01,
-8.54261e-02,-1.78153e-01,
5.71139e-02,-3.31327e-01,
-1.10252e-01,1.10829e-03,
2.88163e-02,-9.01058e-02,
8.44452e-02,1.63668e-01,
-2.99341e-02,-1.18261e-01,
2.66878e-01,1.73574e-01,
-1.25084e-02,9.56989e-04,
-1.42970e-01,-2.29646e-01,
-3.73040e-02,2.71438e-02,
1.25417e-02,-7.82465e-02,
-2.14489e-01,2.11562e-01,
-8.00435e-02,-8.20120e-02,
1.52535e-01,-1.86737e-01,
1.83791e-01,-1.12176e-01,
1.42717e-01,1.09968e-01,
6.43899e-02,-2.56891e-02,
7.51030e-02,8.29499e-02,
-8.30700e-02,2.30936e-01,
-2.23961e-01,-5.49363e-02,
1.40102e-01,6.49587e-02,
-2.33596e-02,-6.42888e-02,
-1.09427e-01,2.62470e-01,
1.02335e-02,1.13985e-01,
-1.05301e-01,-2.99183e-02,
-3.81535e-02,3.06425e-02,
-2.23913e-01,-9.42020e-02,
6.70728e-02,-2.15643e-01,
8.63421e-02,-7.44542e-02,
1.86629e-01,1.05515e-01,
1.61939e-01,9.71146e-02,
-7.67343e-02,-1.31301e-01,
-3.60674e-03,
-1.63616e-04,
-3.25967e-02,
4.23779e-03,
-6.16231e-02,
-5.35697e-03,
-5.49052e-02,
-4.19146e-02,
3.71243e-02,
1.31681e-03,
2.47910e-03,
-4.71883e-02,
6.31009e-04,
-1.24830e-02,
-2.69556e-02,
-3.54394e-02,
-3.78204e-03,
-4.51256e-04,
-2.65438e-03,
1.40859e-02,
-1.92837e-02,
-3.15377e-03,
-1.19116e-02,
-3.69933e-02,
-4.27853e-02,
-2.67732e-03,
-2.88260e-02,
-1.26406e-03,
2.44869e-02,
1.08073e-02,
1.94057e-02,
-7.22740e-02,
-3.02254e-03,
-6.71705e-02,
-6.78364e-03,
-5.13801e-02,
-5.45261e-02,
-8.17639e-04,
3.62663e-02,
-1.52496e-03,
1.50137e-02,
9.12385e-03,
-1.70294e-02,
-2.11194e-03,
6.99488e-03,
1.55679e-02,
-2.69711e-02,
2.67522e-02,
-4.21577e-02,
6.59912e-02,
-5.98836e-02,
-1.58333e-03,
2.45997e-02,
-7.03724e-03,
-1.82070e-02,
-1.08412e-02,
6.09573e-03,
-5.46509e-03,
-8.37094e-03,
-4.11715e-02,
7.04059e-02,
2.70338e-02,
-2.30347e-02,
-8.27917e-03,
1.68027e-01,-9.32555e-02,1.00174e-01,-4.72888e-03,1.05868e-01,-1.87424e-01,2.35173e-01,1.63215e-02,2.39525e-01,-3.05533e-01,-5.10515e-02,3.25019e-02,9.82528e-02,-1.61623e-01,-2.47564e-03,-4.54360e-02,-2.02916e-01,-1.36969e-01,2.22775e-01,6.69299e-02,1.51355e-01,9.46146e-03,-1.00967e-01,1.95304e-01,8.10598e-02,-3.18289e-02,-1.95214e-01,-9.63239e-02,9.71150e-02,-1.28433e-03,3.21760e-01,-1.13869e-01,-1.99802e-01,2.63837e-01,2.00388e-02,-1.49371e-01,1.74861e-01,2.44880e-01,4.33668e-02,1.95754e-01,2.40167e-01,-1.21643e-02,1.12870e-01,4.41592e-02,-2.23429e-01,-1.47736e-01,6.90463e-02,-3.95375e-02,-1.71013e-01,2.17026e-01,3.80784e-01,3.38982e-02,-3.35927e-01,7.74305e-03,2.83554e-01,1.12869e-02,1.04446e-02,-1.99489e-02,4.17548e-01,-1.54002e-01,-1.78680e-01,-1.85058e-01,-3.20616e-01,-9.64938e-02,
1.14663e-01,3.58578e-02,7.85147e-02,7.74992e-02,-7.76892e-03,5.31179e-02,2.31628e-01,-4.79374e-02,-1.89779e-01,2.46845e-01,1.68783e-01,1.78181e-01,1.15578e-01,-4.47198e-02,-3.11264e-02,8.97810e-03,-7.76478e-02,1.65352e-01,-2.89857e-01,2.24754e-01,-1.66326e-01,1.99405e-02,5.40323e-02,-2.26333e-01,1.85186e-01,-3.70364e-02,1.27532e-01,-1.22474e-01,-3.56210e-01,1.65182e-01,-2.39596e-02,3.27207e-01,-4.45853e-02,1.63592e-01,1.95143e-01,1.32330e-02,2.06287e-01,3.72944e-02,5.67208e-02,2.67914e-01,8.31469e-02,2.06640e-01,-1.13173e-01,1.52620e-01,-4.14661e-01,-4.15625e-02,7.82166e-02,1.73077e-02,4.45751e-02,-3.48039e-03,-1.15344e-01,-1.58302e-02,4.43683e-02,1.74302e-01,-4.05718e-01,2.22609e-01,1.19192e-01,2.46278e-01,4.77911e-01,2.10377e-01,-7.96283e-02,-1.85687e-01,2.01619e-01,6.76379e-03,
-6.46129e-02,-1.19511e-01,2.46754e-01,1.17504e-01,-5.65223e-01,-2.19204e-01,3.37345e-02,1.29910e-01,-1.76253e-01,-5.05863e-02,-1.53564e-01,3.22478e-03,-6.86006e-02,4.47798e-02,-1.05286e-01,1.16924e-01,9.23735e-02,-2.67202e-02,-1.66301e-01,-1.72387e-01,-3.59498e-02,-9.55982e-02,-2.00917e-01,-6.46295e-02,2.09217e-01,2.36672e-01,-3.37284e-01,-1.91894e-01,1.67884e-01,-3.83144e-01,6.14614e-02,3.59747e-01,6.55347e-02,1.68932e-01,5.39457e-02,-6.33775e-02,3.24264e-02,-4.51697e-02,-1.84069e-01,9.93860e-02,-1.23374e-01,-2.89585e-01,-2.17383e-01,2.04392e-02,-2.39555e-02,1.67849e-01,-6.57840e-02,-1.86479e-01,-1.45144e-01,-2.50785e-01,-3.87708e-02,-7.78505e-02,-5.07067e-02,-2.06079e-01,-1.70438e-01,-3.60360e-01,6.59593e-03,-1.04447e-01,1.57266e-01,-1.29538e-01,1.25218e-01,2.22462e-01,4.42986e-03,-2.36296e-01,
-1.30130e-01,1.57912e-01,-4.63935e-02,-2.00327e-01,3.90810e-02,-6.19679e-02,-1.82554e-01,-1.26820e-01,-8.73981e-02,-1.31638e-01,6.25996e-02,2.91876e-01,4.36929e-02,4.43636e-01,-8.72466e-02,2.73923e-01,-3.29054e-01,1.06862e-01,2.64398e-01,-2.10619e-01,4.39806e-02,-2.39115e-01,9.59092e-02,2.59295e-01,2.61480e-01,-6.94558e-04,6.43760e-02,-2.31886e-01,2.28645e-03,5.29368e-02,-2.17342e-01,-4.31553e-01,3.40558e-03,-1.49590e-01,3.32773e-01,4.37777e-02,3.27457e-01,-1.80348e-02,9.61811e-02,3.10003e-02,-1.56640e-01,7.47457e-02,-1.65195e-01,-2.67548e-01,9.06529e-02,9.30372e-02,-2.25947e-01,-7.24289e-02,-9.56689e-03,-1.11257e-02,1.93430e-02,-8.98032e-02,-7.44569e-02,-9.02709e-02,-7.24466e-02,-1.69008e-01,1.40731e-01,-2.89585e-02,3.26494e-01,1.88920e-01,4.66621e-02,4.89080e-02,1.16019e-01,1.98739e-01,
-6.82247e-02,8.09944e-02,3.34477e-01,3.18024e-02,2.19770e-02,9.75310e-02,2.64958e-01,-1.32632e-01,8.09628e-02,-1.64493e-01,8.03053e-02,1.05853e-01,-3.54484e-01,-1.85259e-01,4.23006e-02,2.57014e-01,7.82991e-02,-2.47920e-01,2.46860e-03,-1.95056e-01,7.69442e-02,-7.74409e-02,-4.15486e-01,-1.45812e-01,-2.46934e-02,2.53283e-03,3.78850e-01,-8.31974e-02,3.02037e-01,3.58895e-01,-1.85250e-01,3.78300e-02,-7.36872e-02,1.63755e-01,-2.63699e-01,-1.72102e-01,-1.85646e-02,4.70231e-02,-5.15937e-02,1.03789e-01,2.63609e-02,-7.64121e-02,4.03094e-02,-1.19351e-01,1.68314e-01,1.41764e-01,-3.37589e-02,7.54891e-02,6.27410e-03,-7.87903e-02,-4.62070e-02,3.99817e-01,-1.29535e-01,-3.92397e-02,-1.69894e-01,-1.37247e-01,5.21006e-02,1.14603e-01,-2.48934e-02,-1.53670e-02,-4.20807e-01,-8.20828e-02,3.74906e-01,2.77403e-01,
-1.31746e-02,3.41261e-02,-3.09223e-01,1.55400e-01,-1.06449e-01,1.50942e-02,1.21464e-01,5.55177e-02,4.86033e-01,-2.51778e-01,2.48603e-02,2.16613e-01,-1.10415e-01,-3.77601e-02,-4.84026e-02,-1.27673e-01,2.12958e-01,6.58533e-02,-2.55447e-01,-1.66183e-01,1.63574e-01,-9.35566e-02,1.69627e-01,-1.59809e-01,1.94498e-01,3.56529e-02,2.01708e-01,1.34490e-01,1.04330e-01,2.85010e-02,-2.04361e-01,3.88110e-01,-1.34771e-01,-1.75917e-01,-1.55799e-01,9.98789e-02,3.54190e-02,6.33416e-02,2.00284e-01,1.80996e-01,-7.61913e-02,-1.96622e-01,1.07048e-01,-3.46188e-01,9.45213e-05,1.27642e-01,-1.27275e-01,2.99811e-01,-9.41282e-02,-5.52360e-02,6.53349e-02,-2.61581e-01,-2.38627e-01,-1.25335e-01,9.18546e-02,2.55521e-01,-9.53097e-03,-1.15151e-03,1.05173e-01,2.35255e-01,3.06847e-01,-2.39307e-02,-2.07360e-01,2.19747e-01,
-1.51919e-01,9.04476e-02,1.54692e-01,2.75286e-01,-1.84328e-01,-3.80630e-01,-2.63562e-01,-2.12270e-01,-9.49222e-02,1.21014e-01,-9.31420e-02,2.21920e-01,-2.73521e-01,-1.39016e-01,9.56902e-02,3.98063e-01,2.72175e-01,1.65690e-01,6.10747e-02,-1.85220e-01,-2.64027e-01,1.09735e-01,4.35810e-01,3.82494e-03,7.31806e-02,-1.34552e-01,-3.64850e-02,-1.18825e-01,-9.76197e-02,-1.86813e-02,-3.83356e-02,-4.03333e-02,4.37551e-02,5.73423e-03,1.48213e-01,-1.06135e-01,-3.09227e-01,1.67899e-02,3.63479e-02,1.37837e-01,3.71214e-01,1.40707e-01,-6.39144e-02,-5.50659e-02,-5.91273e-02,3.00375e-02,-1.61587e-01,1.07223e-01,-1.21130e-01,1.59606e-01,-1.42366e-01,6.31541e-02,-3.01601e-01,-9.51890e-03,1.07272e-01,2.25519e-01,-8.73462e-02,-7.99028e-02,-1.02171e-01,-2.05934e-01,-2.74831e-01,-1.76270e-02,-2.27826e-01,8.95017e-03,
-1.30568e-01,-2.73247e-01,-1.46874e-01,-1.59298e-01,-1.93257e-01,3.29847e-01,-2.28174e-01,1.61749e-02,-4.03956e-02,1.04447e-01,4.58487e-01,-2.35094e-02,4.35816e-02,1.67842e-01,1.27839e-01,-6.32781e-02,-4.86323e-02,4.17888e-03,-3.02260e-01,7.56468e-02,2.21021e-02,-3.06816e-01,7.30998e-02,1.48934e-01,1.32657e-01,3.65212e-01,3.03848e-02,-9.92917e-02,8.49753e-02,1.21219e-01,4.20414e-02,-2.36945e-02,4.23410e-02,1.07082e-01,3.42510e-03,1.73367e-01,-5.55452e-02,-2.36287e-01,3.40392e-02,2.18278e-01,-1.15176e-01,-9.95109e-02,-3.37871e-01,5.30094e-02,2.01924e-02,1.39704e-01,1.42687e-01,1.59342e-01,-1.45300e-01,9.85717e-02,2.39347e-01,8.52324e-02,-1.92989e-01,5.22912e-02,3.44616e-01,1.26022e-01,1.42048e-01,1.54255e-01,-2.26250e-01,-2.11213e-01,-3.85681e-01,-1.90360e-01,-6.28488e-02,-1.91790e-01,
-1.25495e-02,-8.56004e-02,-2.24475e-01,3.89328e-01,3.21867e-02,-1.46784e-01,-4.95792e-02,1.91089e-01,2.65869e-02,3.64843e-01,2.57149e-02,-1.23407e-01,-2.67173e-02,7.90851e-02,-1.45056e-01,-9.20067e-03,3.13238e-02,1.58347e-01,1.63308e-01,1.35545e-02,-1.99700e-02,9.85565e-03,-1.11854e-01,-1.07105e-01,-2.00602e-01,1.71766e-01,5.16449e-02,-3.54992e-02,-2.58739e-02,2.26462e-01,-1.01343e-02,-6.95335e-02,1.94469e-01,-3.62043e-02,2.48668e-01,2.01990e-01,-1.05416e-01,1.86222e-01,2.40347e-01,3.22671e-01,-4.66142e-02,-2.67159e-01,3.52282e-01,-1.42114e-01,-4.83151e-02,1.03537e-01,-2.18089e-01,-5.31126e-02,1.16956e-01,8.10975e-02,1.70679e-01,2.93804e-01,7.23110e-02,-2.59870e-01,6.54707e-02,8.39022e-03,2.53675e-02,-3.79950e-01,5.01304e-02,-2.80764e-02,1.64174e-02,-2.09901e-01,3.75350e-01,-3.13809e-01,
-7.04331e-02,2.66595e-01,-1.22684e-01,-4.25249e-01,-9.32427e-02,4.32451e-02,2.45485e-01,2.40264e-02,1.60038e-02,2.98759e-01,3.31455e-01,-7.46171e-02,-2.07923e-01,8.88650e-02,-2.58502e-02,2.15871e-02,1.24925e-01,-3.00451e-01,7.56017e-03,-1.36565e-01,-1.81619e-02,8.28408e-02,2.12637e-01,9.61231e-02,-7.02198e-02,-1.18918e-01,6.75775e-02,2.07627e-01,9.73224e-02,-1.70255e-01,1.03446e-01,-1.77426e-01,4.74262e-02,3.06947e-01,-2.37814e-01,-5.60158e-02,-2.51877e-01,8.92015e-02,2.73292e-01,4.15534e-01,2.07148e-01,-1.38521e-02,-2.97793e-01,9.90580e-03,-2.04525e-01,-2.08085e-01,-2.72881e-01,-1.70289e-01,-1.16929e-01,-1.12423e-01,3.67626e-02,-1.76336e-01,-1.01719e-01,-3.15319e-02,-1.69729e-01,-1.77005e-01,-1.29414e-02,-1.01924e-01,-1.00037e-01,-6.81656e-02,3.01795e-01,-1.08260e-01,1.44081e-01,-5.36945e-04,
1.80140e-01,3.71184e-01,-2.37303e-01,9.84197e-02,-1.74858e-01,-1.16495e-01,-4.62025e-03,-1.16242e-01,1.24442e-01,-6.25383e-02,-1.46893e-01,-2.20692e-01,4.29706e-01,-4.08832e-02,-2.08273e-01,-1.90263e-01,4.26947e-02,3.67055e-02,1.19317e-01,4.50474e-02,5.46951e-02,-4.16500e-02,-2.07031e-01,-1.63388e-01,1.55838e-01,-5.44445e-02,2.24071e-01,-2.24727e-01,-7.71417e-02,1.80783e-02,-3.48070e-01,-2.23892e-01,-9.12672e-02,1.78697e-01,2.71449e-01,-2.33051e-01,-1.93950e-01,-1.86241e-02,-2.11608e-02,-4.58422e-02,-2.70931e-02,-3.16208e-02,-8.52337e-02,1.52303e-02,-8.38113e-02,1.84155e-01,-1.73979e-01,1.46157e-01,1.31673e-02,-1.95765e-01,2.91815e-01,-1.31915e-01,-1.20977e-01,2.29967e-01,-2.05826e-01,-4.35916e-02,-2.22607e-01,2.56697e-01,-2.72745e-01,-4.08583e-01,2.38761e-02,-8.27425e-02,-7.17997e-03,-1.53701e-01,
4.74136e-02,-1.70765e-01,3.00249e-02,6.63256e-02,1.33083e-01,1.18195e-01,1.02399e-02,1.84906e-01,-9.15795e-02,1.70452e-01,1.08540e-01,-4.46108e-02,-1.62307e-01,-1.48057e-01,-1.18430e-03,5.42336e-02,2.97221e-02,-1.10508e-01,-1.31892e-01,-8.75800e-02,-1.77635e-01,5.78327e-02,-1.18682e-01,2.19044e-02,4.00986e-01,2.76283e-02,-2.56904e-01,2.41384e-01,-2.09354e-01,5.45602e-02,-1.92013e-01,-2.14535e-01,-1.85825e-01,1.78097e-01,-1.19156e-01,-1.91833e-01,-2.44935e-01,5.68706e-02,1.21134e-01,-1.66557e-01,-2.47484e-01,3.04831e-01,8.58107e-02,-1.19457e-01,1.40697e-01,4.62835e-01,2.39889e-02,3.00702e-01,1.44945e-01,3.58063e-01,-4.29225e-02,-2.16307e-01,1.45135e-01,-9.31130e-02,1.57083e-02,-3.30615e-01,-7.80650e-02,-5.45855e-02,3.18822e-01,-1.12784e-01,1.10949e-01,-2.37136e-01,-1.35403e-01,-1.03797e-01,
6.72707e-03,-9.05095e-02,-1.87533e-01,-3.81837e-01,2.33220e-02,-2.66424e-01,1.10206e-01,3.26879e-01,-3.23238e-01,-2.58925e-01,9.04684e-02,2.15229e-01,-1.39182e-01,-2.25917e-02,-4.16343e-02,7.39453e-02,1.54587e-01,-3.35671e-02,-1.28784e-01,1.89794e-01,6.67121e-03,-4.00973e-02,2.03210e-02,-4.70234e-02,-1.46546e-01,1.83699e-01,2.05302e-01,3.22900e-02,-8.25042e-02,-1.58193e-01,7.80556e-03,1.43767e-02,-1.29770e-01,-5.39115e-03,2.40461e-01,-2.99175e-01,2.82447e-01,4.51443e-02,4.70272e-02,1.30198e-02,-2.18340e-01,2.21336e-02,3.18487e-01,3.56212e-01,-5.66343e-02,9.07549e-02,-2.56048e-01,2.98072e-02,2.48209e-01,1.83613e-01,-8.71857e-02,1.31409e-01,-3.89900e-01,-3.73469e-02,-1.26440e-01,-1.32370e-01,3.54253e-02,-1.41514e-01,-4.09449e-01,1.03063e-01,-1.71858e-02,-9.02140e-02,-1.85358e-01,-5.84837e-02,
-7.51690e-02,1.54307e-01,-1.72302e-01,1.20541e-01,-3.91928e-01,1.89858e-01,-1.18666e-01,1.79795e-01,-7.68480e-03,2.63680e-01,-5.00749e-02,1.08455e-01,4.41258e-02,7.89304e-02,2.31592e-01,1.41364e-01,-1.06165e-01,-1.22511e-01,9.28688e-02,5.08003e-02,-2.10026e-01,-1.63115e-01,-4.52484e-01,1.14955e-02,2.41712e-01,-4.66428e-02,-1.51323e-01,3.04278e-01,2.58507e-01,1.97759e-01,3.26401e-01,8.19324e-03,-1.03035e-01,-8.18986e-02,6.86687e-02,9.78057e-02,-2.72773e-02,2.13295e-01,-1.33445e-01,-1.12305e-01,4.93420e-02,-3.51833e-02,6.08611e-02,1.45195e-01,8.13740e-02,-3.20964e-01,-2.95939e-01,6.92729e-02,3.42533e-01,1.59555e-01,5.99559e-02,-2.07262e-01,-2.02507e-01,-4.79858e-04,-2.38104e-01,2.75565e-01,1.36541e-01,2.98610e-02,-1.11499e-02,-1.60471e-01,1.57271e-02,6.56181e-02,-6.10963e-02,2.59397e-01,
-1.56413e-02,3.32565e-01,-1.74620e-01,-1.18038e-01,1.08619e-02,9.11679e-02,4.55760e-02,-1.23949e-01,-5.25948e-02,-1.38717e-01,-4.50697e-01,-3.92629e-03,-2.44502e-02,1.21549e-01,-1.34527e-01,-2.00251e-01,3.72279e-01,-1.31748e-01,-5.37353e-02,1.43917e-01,-1.39061e-01,-1.29375e-01,3.39592e-02,2.42385e-01,-5.18490e-03,2.30084e-01,-1.85368e-01,1.45545e-01,-3.27272e-01,2.37810e-01,2.94957e-01,1.20915e-01,5.60358e-02,-1.49409e-02,1.27700e-01,-1.63195e-01,-4.12569e-02,1.91902e-01,-8.84578e-02,1.56953e-01,2.96196e-01,7.32258e-02,-1.63770e-01,-1.90576e-01,2.13479e-01,1.36544e-01,1.18457e-01,1.25750e-01,3.22319e-01,-2.46466e-01,8.14427e-02,-1.09939e-01,1.68117e-02,-1.99403e-02,1.77889e-01,-2.34801e-01,1.36658e-01,-4.96802e-02,-1.36338e-02,3.07725e-01,-3.11094e-01,1.09049e-03,1.19074e-01,-6.07117e-02,
1.27521e-01,-2.54829e-01,2.06819e-01,-1.61056e-01,5.45451e-02,-1.94557e-01,-5.97916e-02,-9.38386e-02,6.62933e-02,-1.29973e-01,6.77160e-02,-1.09812e-01,-1.16732e-01,1.25003e-01,-4.80976e-02,-3.20571e-01,4.33219e-01,9.45954e-03,-3.80475e-01,-3.50201e-01,-2.46334e-01,2.21732e-02,-3.46704e-01,-1.74371e-02,6.22658e-03,1.65425e-02,1.80771e-01,-2.35868e-01,9.61441e-04,-1.66699e-02,1.79385e-01,-3.85363e-01,1.15239e-01,-2.28673e-01,8.21758e-02,2.17732e-01,-1.50545e-02,1.15265e-01,2.50562e-01,-1.33887e-01,1.52018e-01,-1.63986e-01,-2.00582e-01,1.98572e-01,8.60708e-02,6.43523e-02,-6.54175e-02,-1.69585e-01,2.13204e-01,-3.19133e-02,8.81752e-02,1.75629e-03,7.25934e-02,1.97314e-01,-1.44981e-01,2.24287e-01,-1.34242e-01,-1.47749e-01,2.59082e-01,3.11524e-02,2.24931e-02,-9.17481e-02,-1.98599e-01,8.38876e-02,
3.52927e-01,1.95979e-01,8.63055e-02,1.30034e-01,6.48048e-02,-1.69685e-01,1.32626e-01,1.18527e-01,2.59079e-01,1.78420e-01,1.54772e-01,1.52892e-01,8.50308e-02,-1.91677e-01,1.83516e-01,2.30479e-01,4.35478e-02,-9.81909e-02,-7.80717e-02,1.51041e-01,-5.23998e-02,-1.57742e-01,-6.59654e-02,9.06367e-02,1.76308e-01,1.96175e-01,3.42890e-01,3.76309e-01,-7.34857e-02,-8.66577e-02,7.58242e-02,-5.03979e-02,1.19027e-01,1.36474e-01,2.06919e-01,3.92833e-02,-8.26216e-02,1.62417e-01,1.03972e-01,-3.39932e-01,-9.52596e-02,1.59974e-01,-8.34273e-02,-3.34448e-02,3.30256e-01,1.79277e-01,-2.59876e-03,-4.20929e-01,-3.32580e-01,-2.25268e-01,-1.16885e-01,1.54220e-01,-1.59210e-01,-5.97686e-03,1.48862e-01,2.74195e-01,2.26782e-01,1.21650e-01,2.30890e-02,1.95072e-01,1.51616e-02,2.02110e-01,-1.62602e-02,-2.33154e-01,
-1.45453e-01,1.97602e-01,7.62481e-02,-1.79302e-01,9.30088e-02,-1.30291e-01,-2.14624e-01,1.51490e-01,7.64477e-02,6.13822e-02,5.56786e-01,-3.12631e-01,1.92283e-01,-1.05978e-01,1.94904e-01,-1.63331e-01,1.55589e-01,2.67265e-01,9.75743e-02,-3.28694e-01,-2.45515e-02,-3.47644e-01,7.30555e-03,-1.39638e-01,1.74965e-01,-3.13469e-01,-7.83289e-02,6.66315e-02,4.19713e-02,-3.03694e-01,-1.13469e-01,2.71316e-01,-1.48756e-01,-9.50498e-02,1.98490e-02,-8.85991e-02,1.49909e-02,-3.85822e-03,-2.31323e-01,5.68271e-02,3.30290e-01,1.68477e-01,1.08079e-01,-3.92266e-02,1.12978e-01,-9.59008e-04,1.37502e-03,-1.55265e-02,3.79985e-01,-7.31581e-02,-1.27485e-02,2.58960e-01,-1.11882e-01,-2.22411e-02,7.50983e-02,-9.79050e-02,9.88946e-02,1.88389e-02,3.88109e-02,5.35183e-02,-5.70204e-02,6.07897e-03,6.42283e-03,-6.59770e-02,
1.83986e-02,-3.88294e-02,3.24364e-01,2.68432e-01,4.23800e-01,1.78391e-01,1.53342e-01,-2.00630e-01,1.22497e-01,-1.73012e-02,7.50374e-02,6.22820e-02,1.22413e-01,1.10515e-01,-1.63086e-01,2.83615e-01,3.51967e-02,-1.77314e-01,-2.95415e-01,-3.14565e-02,6.50028e-02,-1.76017e-01,1.90547e-02,5.64044e-02,8.59867e-02,2.69000e-01,5.01795e-02,-1.01533e-01,4.14815e-02,-1.67565e-01,-5.83905e-03,1.09019e-01,-7.69692e-02,-2.35716e-01,2.42159e-01,-4.23089e-02,-2.88052e-01,4.67648e-02,6.25914e-02,-1.12003e-01,1.15677e-03,-1.01477e-02,3.90039e-02,6.53842e-03,-1.77571e-01,-5.60935e-01,-3.58165e-01,2.70455e-01,1.51543e-01,1.39713e-02,3.38769e-03,-1.10767e-02,1.61550e-01,1.65979e-01,1.35715e-01,-3.17567e-01,1.57684e-01,6.19030e-02,-1.16289e-01,-1.24983e-02,8.01812e-02,4.42938e-02,-5.80931e-02,-2.21484e-01,
-2.13615e-01,-2.93421e-02,-8.42024e-02,-2.29749e-01,2.26711e-01,-1.69034e-01,1.16925e-01,1.18670e-01,-1.64364e-02,-4.85485e-02,-3.22031e-02,2.35086e-01,6.45366e-02,1.62707e-01,3.77041e-01,1.45449e-01,4.78465e-02,5.92650e-02,9.18075e-02,-2.60187e-01,-3.51234e-01,2.76758e-01,-2.54362e-01,-1.32718e-01,-4.09630e-02,5.66484e-02,-4.02086e-01,-1.26505e-01,-1.60486e-01,1.55539e-01,-4.90649e-02,1.64444e-01,-3.27260e-01,9.97120e-02,-2.15208e-02,1.67494e-01,-7.14917e-02,-1.09166e-01,3.27419e-01,-3.02968e-01,4.74844e-03,-1.76385e-01,1.66683e-01,-2.70250e-01,-1.42493e-01,-5.31555e-02,8.40954e-02,-1.16938e-01,-1.10929e-01,-2.44244e-01,1.29292e-01,-7.68998e-02,-1.39402e-01,2.73076e-01,1.18497e-01,4.50708e-04,1.35714e-01,1.96918e-01,-2.05125e-01,2.10334e-02,2.51291e-02,-7.72182e-02,2.11855e-01,-1.37647e-01,
-1.30615e-01,1.85264e-01,2.34339e-01,1.26991e-01,-1.46064e-01,1.09425e-01,1.44350e-01,-8.43722e-02,-7.10967e-02,-2.91598e-01,2.47465e-01,6.11119e-03,1.72388e-01,-7.64745e-02,-1.12954e-01,-2.16020e-01,-2.75231e-01,-2.45576e-01,6.89287e-02,-2.39902e-01,-2.61175e-01,2.14316e-01,-1.76708e-02,8.12689e-02,1.92095e-01,1.86718e-01,1.19656e-01,-5.59120e-02,-3.17372e-01,-9.90472e-03,1.18635e-01,2.97346e-01,3.28968e-01,-1.64986e-01,-1.66080e-02,9.10577e-02,1.47661e-01,1.49078e-02,1.47129e-01,-1.66689e-01,7.59375e-02,3.04017e-01,5.80471e-02,-9.63571e-02,4.10214e-03,9.90763e-02,-1.17214e-02,-1.61301e-01,-9.46208e-02,4.09840e-01,2.39039e-01,-2.01744e-01,7.26007e-02,-1.78477e-01,-7.92844e-02,5.48001e-02,-1.87749e-01,-1.35417e-01,-4.40308e-01,-2.18561e-03,-2.68446e-02,-3.62022e-02,1.20970e-01,3.20041e-02,
-3.93252e-01,-3.01165e-01,2.96991e-01,-8.05864e-02,6.24417e-02,-6.24727e-02,-2.04326e-01,1.21840e-02,-9.76485e-02,1.67512e-01,1.07849e-02,3.95547e-02,4.08599e-01,-6.68598e-02,1.52563e-01,-8.95619e-02,8.67995e-02,-5.67233e-03,-4.53130e-02,9.70732e-02,-8.96839e-02,8.37012e-02,-7.46170e-02,6.19773e-02,-1.52447e-03,9.68552e-02,7.64775e-02,2.20404e-01,-4.14435e-02,-6.12395e-02,-1.84835e-01,-1.98434e-02,3.17409e-01,8.25325e-02,2.15799e-01,-2.74864e-01,-1.16252e-01,2.77875e-01,9.21303e-02,2.26502e-01,-9.39543e-02,-9.43407e-02,2.75677e-01,7.81736e-02,1.76025e-01,-1.58748e-01,2.18202e-01,2.08725e-01,-2.92216e-01,-2.05826e-01,2.94491e-01,-1.16342e-01,-1.25486e-01,2.38040e-02,-3.84168e-02,-1.15115e-01,-1.84330e-01,1.16354e-01,8.84671e-02,2.17499e-01,2.94672e-02,9.71795e-02,3.73242e-02,4.17023e-01,
-7.43786e-02,-1.10991e-01,-8.34022e-02,3.14323e-01,-2.30400e-01,8.45241e-02,-1.84277e-01,-2.95856e-01,5.43129e-02,-1.00279e-01,-2.18528e-02,-2.91397e-01,-2.85689e-01,-2.21490e-01,9.19067e-02,8.70831e-02,-4.84303e-02,-2.62194e-01,-2.61438e-02,6.50319e-03,-1.10016e-01,9.25795e-02,-1.13698e-01,3.23556e-02,-3.81915e-02,-1.14010e-01,-1.12755e-01,9.61681e-02,-4.91110e-02,-4.27685e-01,-2.14829e-02,-1.07233e-01,-2.11137e-01,8.88086e-02,2.28867e-01,-2.56201e-01,3.57684e-01,-2.55900e-01,2.53407e-01,2.25098e-01,-1.93915e-01,6.66079e-02,-6.63924e-02,3.08610e-02,7.49347e-02,-6.93750e-02,-3.08802e-03,6.07694e-02,1.97433e-01,1.28969e-02,1.06000e-01,-6.90429e-02,-1.55536e-02,3.44889e-01,2.56508e-01,2.74350e-01,-3.32510e-02,-2.83910e-02,-5.15348e-02,2.85043e-01,8.52983e-02,5.51995e-02,3.65275e-01,-6.39182e-02,
1.48806e-01,1.22209e-01,1.78448e-01,2.46868e-02,-5.64727e-02,7.56735e-02,1.49522e-02,7.07101e-02,-2.06104e-01,1.24281e-01,-1.13161e-01,-4.06065e-02,5.81009e-02,3.03532e-02,6.58526e-02,2.28172e-01,6.98600e-02,1.07010e-01,2.16984e-01,9.38689e-02,-2.19415e-01,3.48757e-02,-8.02131e-02,-2.14818e-01,-2.03682e-01,2.87689e-02,2.25553e-01,-2.56725e-01,-9.53269e-02,4.89122e-02,1.61472e-01,3.46114e-03,-2.10925e-01,-3.25279e-01,-3.66050e-01,2.17395e-01,1.63180e-03,5.24967e-02,2.26248e-02,4.02297e-01,-1.84664e-01,3.58407e-01,-5.74315e-02,2.16303e-01,1.91833e-01,2.44655e-01,-7.13923e-02,1.86513e-01,-1.15447e-01,-5.87769e-02,3.54826e-01,-4.26912e-02,5.40281e-03,2.71350e-01,2.14800e-01,-1.67494e-01,1.95260e-01,1.02270e-02,-2.52466e-02,3.57640e-02,2.55519e-01,2.19236e-01,-2.47950e-01,4.05467e-02,
4.85068e-02,6.19668e-02,1.13315e-01,-2.36448e-01,3.65361e-02,-9.35832e-02,-1.03363e-01,9.19189e-02,-3.91519e-01,1.41981e-01,1.32458e-02,1.71386e-02,-2.62555e-02,-2.94487e-02,-3.87808e-01,-1.42154e-01,-1.60558e-01,-4.02805e-01,-1.28275e-01,-1.15846e-01,-3.75280e-02,-3.58187e-02,2.06075e-04,1.77604e-02,-9.22784e-02,-9.59613e-02,-9.16882e-02,7.61238e-02,1.21729e-01,4.20883e-02,-2.66438e-01,3.77795e-02,-3.70757e-01,1.27861e-01,1.89759e-01,2.05855e-01,-1.35480e-01,1.53425e-01,-2.78299e-01,-6.49795e-02,1.64263e-01,-1.39336e-01,9.49231e-02,1.15098e-01,-1.68356e-01,2.08119e-01,-3.06676e-01,1.91662e-01,-2.42428e-01,-2.30564e-02,7.11903e-02,-1.17624e-01,2.36725e-01,-5.58206e-03,3.07874e-01,4.01846e-01,-5.88327e-02,-1.16877e-01,-4.71151e-02,1.77933e-01,-1.77095e-01,2.64905e-01,2.40472e-02,9.47385e-02,
2.65339e-01,1.04576e-01,-2.09953e-01,-4.39532e-02,-1.83265e-01,-1.21476e-01,-3.44845e-02,4.32938e-02,1.90436e-02,1.99031e-01,-1.23796e-01,2.17141e-01,2.06490e-01,-1.78839e-01,2.88934e-01,1.23853e-01,-2.45849e-02,1.16022e-02,-1.36288e-01,-3.86703e-01,-1.27631e-01,-2.05571e-01,-1.03129e-01,-1.16119e-02,-3.55457e-01,2.10115e-01,2.73951e-01,1.47362e-01,-4.86081e-02,4.86008e-02,-2.31598e-01,5.26692e-03,-2.46878e-02,-1.69766e-01,-1.45750e-01,-3.17612e-01,1.04724e-01,-3.80115e-01,-1.78889e-01,-1.31221e-01,1.45189e-01,-2.32150e-02,-8.26982e-02,1.53089e-01,-2.15415e-01,-2.08548e-01,5.22232e-02,-7.57090e-02,-5.77730e-02,1.21802e-01,2.15552e-01,-2.28146e-01,1.48056e-01,-1.14895e-01,2.56836e-01,-1.93446e-01,-1.20456e-01,-2.98209e-01,2.53631e-01,5.03767e-02,-1.21530e-01,-1.54777e-01,1.10096e-01,6.08416e-03,
9.15957e-02,-1.79477e-01,-3.38904e-01,-1.32249e-01,8.36322e-02,-1.79688e-03,-3.87102e-01,-1.82451e-01,-4.73775e-02,-1.86770e-01,3.95579e-02,-6.93307e-02,1.35831e-01,-2.89787e-01,3.41304e-02,8.82429e-02,3.13880e-01,-1.22536e-01,2.11473e-01,1.75721e-01,-1.91393e-01,8.34711e-02,-2.02527e-01,4.39282e-01,4.74040e-02,-6.79944e-02,1.42701e-01,7.09445e-03,-1.22651e-01,-8.73442e-03,5.70185e-02,4.30118e-01,3.91314e-02,1.02143e-01,1.10867e-04,2.72415e-01,1.10607e-01,-1.15966e-01,-1.45687e-02,-3.50402e-02,1.37743e-02,-2.72967e-02,-5.17445e-02,2.12896e-02,3.12312e-02,-3.10920e-02,-4.91644e-01,1.03352e-01,-3.02735e-01,-2.31825e-02,-2.24885e-01,1.79368e-01,1.55415e-01,2.05615e-02,-1.19477e-02,-1.98585e-01,-2.69469e-02,3.91578e-02,1.82287e-01,-1.95106e-01,9.14253e-02,-2.43053e-01,2.69587e-02,1.61721e-01,
6.54147e-02,-1.41602e-01,-1.26773e-01,1.22621e-01,1.21757e-01,-5.31858e-03,2.42554e-02,-2.53964e-02,-3.67569e-01,-5.61069e-02,-3.17300e-03,2.38184e-01,7.96432e-02,-1.83373e-01,-1.11194e-02,2.86197e-02,-3.39406e-01,7.45273e-02,-1.09686e-01,2.54690e-01,1.79900e-01,-2.71022e-02,-4.64998e-02,-2.74326e-01,2.38985e-01,4.72644e-03,-1.00195e-03,1.90302e-01,2.25979e-01,-2.26399e-01,2.67006e-02,8.20798e-02,-1.88499e-01,-2.19773e-01,2.95133e-02,1.14647e-02,-1.25611e-01,1.21208e-02,3.17469e-01,1.40951e-01,4.05707e-01,-3.15181e-02,-1.48759e-01,-1.04684e-01,1.56961e-01,2.01898e-01,-6.72038e-02,-4.20801e-01,1.36940e-01,-2.99221e-01,9.09336e-03,-1.35544e-02,1.28611e-01,1.60366e-01,1.87872e-01,-1.52029e-01,-1.25673e-01,-1.84614e-01,-9.61678e-02,-1.75097e-01,-7.78904e-02,-2.96803e-01,2.76671e-03,3.47882e-01,
-1.33263e-01,1.49085e-01,-2.25904e-01,-7.88289e-02,1.19015e-01,3.03653e-01,-7.50061e-02,-2.99901e-02,3.27668e-01,8.45027e-02,7.02214e-02,-1.37345e-02,-4.55629e-02,6.19294e-03,-2.38937e-01,2.45071e-01,-4.18047e-02,2.08079e-01,-3.71916e-01,3.39745e-02,-2.99648e-01,2.12733e-01,-3.77035e-04,2.23125e-01,2.51867e-01,-2.12798e-02,-5.40780e-02,3.74963e-03,-6.29418e-02,1.75436e-01,6.06706e-02,2.41315e-02,-3.58966e-01,-8.46119e-02,5.80183e-02,-2.06940e-01,1.01035e-01,-2.76470e-02,-8.94331e-02,1.11578e-01,-1.81548e-02,-3.93320e-02,1.11542e-01,1.29734e-01,-5.76733e-02,4.08751e-03,1.49583e-01,-2.60714e-01,-1.38722e-01,-1.00450e-01,2.12342e-01,4.05633e-01,6.38551e-02,-6.89547e-03,-1.03164e-01,-7.44437e-02,-3.61921e-01,-3.55320e-01,-5.18056e-02,-1.54385e-01,1.88656e-02,4.24411e-01,-1.05959e-01,7.63921e-02,
4.50409e-02,1.28594e-01,1.11756e-02,-9.28452e-02,-1.22808e-01,4.03473e-01,-1.35030e-01,7.74695e-03,-2.13722e-01,4.18063e-02,-1.27561e-01,-1.09308e-01,-2.77195e-01,-1.04002e-01,6.18463e-02,-2.44555e-01,-1.50431e-01,1.35702e-02,1.67931e-01,-2.33143e-01,-5.77817e-02,3.50941e-02,3.32886e-02,-1.26994e-01,2.53016e-01,3.12062e-01,4.60029e-02,-1.79313e-01,-3.04009e-02,5.01345e-02,6.45028e-02,-1.37949e-01,3.25059e-02,-1.24341e-02,1.00270e-01,-4.24866e-01,4.16209e-02,-1.04479e-01,1.37604e-01,-1.23542e-01,3.42253e-01,-1.08538e-01,2.42556e-01,1.33653e-01,4.01107e-02,-1.00223e-01,-2.51551e-02,1.54382e-01,-2.73887e-01,-2.89962e-01,-1.03243e-01,3.11575e-01,1.17956e-01,-1.65209e-01,5.22324e-02,1.44689e-01,3.24874e-01,4.84710e-02,1.73346e-02,4.24808e-02,4.06991e-01,-2.39824e-01,-2.22171e-01,-2.44473e-02,
-6.11931e-02,-3.78753e-01,4.01860e-02,1.00426e-02,2.62119e-02,6.40938e-02,2.28069e-01,1.14222e-01,-1.70947e-01,-1.26798e-01,-1.35637e-01,4.64224e-02,2.07679e-01,-2.00050e-01,-2.56752e-01,3.35558e-02,1.75954e-01,2.57212e-02,2.25068e-01,-6.55734e-02,-3.04090e-01,-1.22225e-01,1.27752e-01,4.36685e-01,-1.25392e-01,1.92248e-01,3.80111e-02,1.46895e-01,9.48150e-02,-1.21728e-01,-1.64813e-01,-9.51375e-02,-2.56906e-01,-3.07276e-01,-1.23348e-01,-2.02757e-01,-1.80149e-01,9.38097e-03,-1.60974e-01,1.45039e-01,-1.07543e-01,8.90923e-02,-1.22043e-01,-2.93400e-01,-1.27580e-01,-1.53600e-02,1.62127e-01,-1.93391e-01,1.64281e-01,-4.10078e-02,1.41215e-01,1.19091e-01,5.04783e-02,-1.42338e-01,-2.63834e-01,4.43599e-01,2.25371e-01,1.70275e-01,-3.83114e-02,-1.72259e-01,1.76275e-01,-1.24158e-01,9.77512e-02,-2.59215e-02,
2.17438e-01,2.04365e-01,-6.05810e-02,-1.35853e-01,5.16418e-03,1.58090e-01,3.71853e-01,-2.75263e-01,-4.95187e-02,-7.39341e-02,7.81291e-02,1.59622e-01,-1.09276e-01,-2.80789e-01,2.95568e-01,-7.62440e-02,1.10889e-01,2.79420e-01,-1.57538e-02,4.98145e-02,-1.84094e-01,-3.00669e-01,-4.28600e-02,1.56981e-01,1.30583e-01,-1.90669e-01,-3.60214e-01,-3.27496e-01,2.39535e-01,-2.27481e-02,-1.93858e-01,5.71929e-04,3.41873e-01,-2.46351e-02,4.25356e-02,-1.75802e-02,-1.24306e-01,3.91400e-01,-1.00594e-01,8.21655e-02,-4.39423e-01,7.44038e-02,1.24094e-01,1.43563e-01,-9.86294e-02,-3.41183e-02,-4.86082e-02,-9.27476e-02,-4.56495e-02,-1.25728e-01,-3.37510e-02,-4.89532e-02,1.09840e-01,8.34998e-03,2.91904e-01,1.32349e-01,-6.68014e-02,-2.34764e-01,-1.19437e-01,3.45215e-02,2.13621e-02,-1.74142e-01,1.10973e-01,1.00198e-01,
-2.10974e-01,-7.47698e-02,-6.19582e-02,-3.40655e-03,1.96890e-01,-1.22485e-02,1.25554e-01,-9.28723e-02,1.07485e-01,3.41181e-01,-4.70534e-02,-3.00419e-02,2.51307e-01,-6.20143e-02,-1.00062e-01,-1.30543e-01,1.68848e-01,-2.52235e-02,1.32207e-01,5.53573e-02,2.04755e-01,2.65575e-01,-1.41893e-01,3.86959e-03,1.52543e-01,2.80217e-01,-8.19259e-02,-2.01965e-01,-5.69449e-02,-1.12049e-01,-3.02435e-01,-8.36073e-04,-7.29836e-02,-5.62694e-02,-2.75911e-01,-4.27363e-02,3.69218e-01,1.11274e-01,2.58269e-01,-8.62693e-02,2.95472e-02,2.45473e-01,-1.73566e-01,2.31805e-01,7.29242e-02,-8.53183e-02,-2.18582e-02,1.58378e-01,2.79918e-02,-1.66346e-01,-2.79609e-01,-2.23302e-01,-1.74726e-01,-2.13039e-01,7.09709e-02,2.03541e-01,2.97191e-01,-4.19254e-01,2.39746e-03,-2.56632e-01,-2.73155e-01,2.24341e-01,5.61364e-02,1.01377e-02,
-1.69962e-01,-1.64670e-01,1.13900e-01,-1.89551e-01,-2.69172e-02,2.83836e-01,-3.58761e-02,1.11836e-01,-1.55542e-01,-1.51080e-01,-1.91614e-01,-2.91809e-01,2.50270e-01,-3.56893e-01,2.85984e-01,4.84993e-02,-2.16621e-01,1.58956e-01,-1.16714e-01,-4.40990e-02,-3.24437e-02,-8.33308e-02,6.82080e-02,-1.28206e-01,-1.83551e-02,1.15200e-01,1.92266e-01,-9.23158e-02,-1.04156e-01,1.70880e-01,1.74954e-01,-1.95216e-01,-3.98360e-02,6.47648e-02,-1.73566e-01,8.95427e-03,5.01007e-02,1.86237e-01,3.55373e-02,8.52882e-02,-1.28629e-02,-1.13859e-03,-3.65736e-02,-3.74041e-01,-1.56353e-01,-4.15941e-02,-4.62367e-01,-5.02110e-02,1.38349e-01,-1.25182e-01,-3.02848e-01,-9.09883e-02,-1.59012e-01,-1.04491e-01,1.14317e-01,7.79737e-02,-4.55440e-01,1.17372e-02,9.11456e-02,1.06727e-01,-7.01921e-02,2.80293e-01,-1.24154e-02,-3.25213e-01,
5.46135e-02,5.93004e-02,-1.03357e-02,1.20357e-01,2.72803e-01,8.30435e-03,-1.13538e-01,4.43825e-01,1.57182e-01,9.00338e-02,9.04417e-02,-1.06286e-01,-7.95170e-02,-2.70738e-01,-1.34942e-01,-1.38490e-01,-3.12566e-02,-1.17203e-01,1.64465e-01,5.20833e-02,-1.78785e-01,9.45245e-02,-2.17645e-01,-1.09955e-01,-4.06030e-02,1.88787e-03,-1.46176e-01,-3.41807e-01,-3.99767e-03,1.08618e-01,-1.00668e-01,2.69338e-02,1.07975e-01,1.20100e-01,1.85750e-01,-1.40618e-01,-1.75185e-01,-3.97003e-01,-7.19784e-02,3.16258e-01,-1.69371e-01,-4.33800e-02,-2.76276e-01,-2.12638e-01,2.80042e-02,-2.05426e-01,-1.58032e-01,-3.27141e-01,3.24965e-02,6.37719e-02,-5.17303e-02,-1.49042e-01,2.07789e-02,-1.00294e-01,-1.58687e-02,-4.12242e-02,1.55464e-01,-2.70370e-02,-1.24201e-01,3.51730e-01,-1.98540e-01,3.65644e-02,-4.43921e-01,2.69484e-01,
-1.96795e-01,2.88684e-01,-1.16635e-01,2.44092e-01,2.95366e-02,2.40572e-01,5.74536e-02,-6.22261e-04,-2.39241e-01,-5.04696e-03,2.59238e-01,3.08342e-01,4.60095e-01,-1.23284e-01,-1.03247e-01,1.79852e-02,1.86951e-01,-1.66063e-01,-7.13414e-02,-3.99243e-01,1.28293e-01,3.15363e-01,5.39600e-02,-1.54600e-01,-1.83780e-01,-3.19316e-01,-3.85146e-03,6.84582e-03,-6.94040e-02,-1.24299e-01,4.54049e-01,-1.47399e-01,-8.63809e-02,-3.31846e-02,7.67048e-02,-1.42971e-01,8.36042e-02,1.02703e-01,-1.79565e-01,3.13661e-02,-3.54172e-01,-3.41367e-01,-1.26706e-01,-3.68471e-02,1.13104e-01,1.24242e-01,3.79015e-03,4.85665e-02,-5.79396e-02,-5.88758e-02,-1.60399e-01,1.31315e-01,1.89973e-02,-2.74390e-02,1.17992e-01,3.29458e-02,1.25491e-01,-4.01402e-02,1.20032e-01,-5.56116e-02,-6.24918e-02,-2.02482e-01,-8.54806e-02,-5.43895e-02,
-4.58150e-01,9.30010e-02,1.14592e-01,9.29473e-02,-2.80730e-01,-9.98075e-02,2.49743e-01,-8.02686e-02,1.56110e-02,-1.50921e-01,6.77529e-02,1.92599e-02,1.60952e-01,-2.52162e-01,-2.60859e-01,-6.29691e-02,-1.43972e-01,3.11530e-01,-2.81594e-01,1.20430e-01,9.61707e-02,-8.29414e-02,-2.88327e-01,2.20686e-01,-1.98922e-01,-1.26292e-01,-1.28660e-01,7.24003e-02,-3.85755e-02,2.30565e-01,-1.78157e-01,-1.91909e-01,-6.32447e-02,1.06936e-01,-6.43252e-02,2.27819e-01,-1.39850e-01,-2.22544e-01,-1.25104e-01,-1.21177e-03,2.83650e-01,1.14755e-01,1.34004e-02,1.01817e-01,2.32346e-01,-6.00666e-02,-1.44654e-01,-2.66922e-02,-1.64030e-01,8.40322e-02,-8.34001e-02,1.10173e-01,-2.24378e-01,1.48143e-01,4.67551e-02,-1.04754e-01,2.67034e-01,-2.34505e-01,-8.08914e-04,2.74372e-01,3.41525e-01,-1.86284e-01,-1.03031e-02,-1.46986e-01,
1.67123e-01,1.17251e-01,3.62502e-01,-3.37317e-01,-1.34898e-02,8.68353e-02,-3.56473e-01,-1.57363e-01,1.36350e-01,4.07683e-02,-1.25975e-01,-1.47267e-01,2.54497e-02,1.16087e-01,-4.95707e-02,2.33400e-01,-1.62499e-01,1.70192e-01,-2.15879e-01,-3.76644e-02,3.55334e-01,8.59502e-02,-2.80563e-01,2.15647e-01,-1.44594e-01,-8.66491e-02,6.12031e-02,-5.55927e-03,-2.82281e-01,-5.82621e-02,1.81134e-01,1.79542e-01,1.40243e-02,-3.95605e-02,2.68675e-02,-1.79281e-01,-2.75881e-01,-1.28809e-01,1.91092e-02,1.79880e-01,-1.63428e-01,-5.42918e-02,3.36036e-01,-1.29238e-01,-1.21136e-01,2.12547e-01,4.37229e-02,-1.49709e-01,9.64599e-02,-5.38013e-02,-1.54933e-01,-3.45795e-01,-7.42887e-02,-3.02716e-02,-3.27949e-02,2.47212e-01,2.80475e-01,-2.07839e-01,-6.34966e-02,-2.04257e-01,-1.68140e-02,-2.38922e-01,-1.19708e-02,8.60061e-02,
-8.76787e-04,1.12311e-01,-2.32085e-01,-2.44238e-01,-1.79314e-01,-3.26922e-01,8.51492e-02,-2.71876e-01,-2.36030e-01,2.38440e-01,4.99375e-02,-3.88920e-02,-1.51260e-02,-2.50598e-01,-8.21290e-02,5.26012e-02,-2.97405e-01,-2.58031e-01,-1.34444e-01,1.41262e-01,-4.95499e-02,-1.07144e-02,-1.57117e-01,1.62319e-03,-5.84385e-02,9.04652e-03,1.01139e-01,-3.29336e-01,-1.95184e-01,-8.12701e-02,3.47901e-02,1.02372e-01,4.26424e-02,-7.42925e-02,2.76669e-02,1.07987e-01,-2.32430e-01,2.96551e-03,1.15131e-01,-1.62925e-01,-1.06439e-01,-1.50685e-01,-1.30182e-01,-3.30573e-01,-1.72923e-03,-1.77931e-01,3.83197e-01,2.45149e-01,3.42992e-01,6.60971e-02,-1.91072e-02,3.47913e-01,-1.86008e-01,-2.29920e-01,1.62157e-01,3.21845e-03,-3.67841e-02,2.61298e-03,1.10093e-01,-9.07503e-02,2.46238e-01,1.81158e-01,-1.68320e-01,1.85986e-01,
5.75117e-02,-3.49516e-03,1.99404e-01,1.57123e-03,3.48385e-02,-2.24496e-01,-2.52888e-01,4.22896e-02,1.26032e-01,6.14572e-03,-1.29991e-01,7.45968e-02,1.04772e-01,6.92965e-03,-1.27444e-01,8.39567e-02,-4.47547e-02,-1.43570e-01,2.46812e-04,3.31533e-02,3.31736e-02,-2.99797e-02,-4.53396e-02,-1.54152e-01,2.75445e-01,-5.96330e-02,-2.22218e-01,2.33084e-01,-9.33229e-02,-3.08212e-03,1.91274e-01,-2.30187e-01,8.95980e-02,-9.70193e-02,-2.49733e-01,1.68283e-01,1.84561e-02,-2.15195e-01,-9.98178e-02,-6.69007e-02,-2.43852e-01,2.27412e-01,-2.09615e-01,7.35674e-02,-3.78764e-01,-9.23517e-02,-4.48798e-02,2.85493e-01,2.44564e-02,-4.60496e-01,1.47670e-01,3.30150e-01,-1.45191e-01,-2.52678e-01,-6.41844e-02,5.81282e-02,-2.44947e-01,-2.06735e-01,-2.40027e-01,2.85341e-01,-9.74045e-05,-4.25488e-01,6.96983e-03,4.08877e-02,
5.95081e-02,1.42943e-01,-1.21665e-01,5.01368e-02,6.70445e-02,1.46964e-01,-1.36303e-02,-1.44476e-02,-4.88126e-02,3.81582e-02,9.05973e-02,-1.59795e-01,2.07708e-02,-8.43863e-02,-3.60822e-01,1.68747e-01,6.33620e-02,8.35136e-02,2.39005e-01,-5.05531e-02,-1.88705e-01,-6.41638e-02,1.11753e-01,-1.19470e-01,1.61489e-01,4.72828e-01,4.02708e-02,-9.10487e-02,1.77664e-01,-1.61739e-01,1.06984e-01,-8.99208e-02,2.46690e-02,3.21092e-03,-1.42770e-01,1.81748e-01,-1.65477e-01,-5.58031e-02,-2.83891e-01,-1.03037e-01,4.36044e-02,-2.58909e-01,2.06198e-01,8.18615e-02,-5.38465e-02,9.52436e-03,2.54331e-01,-5.95106e-02,-6.34357e-02,9.58052e-02,-3.68255e-01,-1.88199e-01,-4.91158e-01,4.59914e-01,-1.21133e-02,-4.18967e-02,-2.02909e-01,-1.41919e-01,1.14509e-01,2.19427e-01,-3.06691e-02,-2.15411e-01,1.63490e-01,1.90020e-01,
1.25816e-01,5.09141e-02,-8.83935e-02,-1.19450e-02,-3.75079e-02,1.78683e-01,2.05405e-01,-4.26829e-02,1.08280e-01,-2.42976e-01,1.95487e-02,-7.69088e-02,3.19589e-01,1.09954e-01,3.40076e-01,4.22939e-01,1.26546e-01,-9.84999e-02,-4.05027e-02,9.14293e-02,8.93491e-02,-1.72994e-01,-4.12476e-02,-1.97287e-01,-1.45053e-01,1.77982e-01,-3.44487e-01,-1.80067e-01,-1.63714e-01,-2.29847e-01,-8.72512e-02,-1.26935e-01,-1.94995e-01,2.97283e-02,1.16334e-01,1.74638e-01,-1.31127e-01,-5.81906e-02,9.15197e-02,1.77587e-01,2.91673e-01,-6.85388e-02,2.46176e-02,1.52693e-01,2.64093e-01,9.29824e-02,4.79624e-02,1.28929e-01,-1.50464e-01,1.81022e-01,-7.79669e-02,8.01177e-02,2.18893e-01,-4.09714e-01,-3.48207e-01,2.33892e-01,-1.49512e-01,-3.57316e-03,-6.08953e-02,1.87700e-01,-6.42874e-02,-7.70383e-02,-4.86988e-02,1.54043e-01,
-1.63266e-01,3.68253e-01,-1.07341e-02,-4.32517e-02,1.54192e-01,8.85151e-02,-5.84032e-02,1.27786e-01,-2.52323e-02,8.58807e-02,-1.93705e-01,9.91845e-02,1.20845e-01,-1.27471e-01,2.69487e-01,-4.09353e-02,6.15153e-02,-8.87451e-02,-2.31184e-01,2.67845e-01,-6.51881e-02,1.31074e-01,-1.20148e-01,1.99048e-01,-4.24260e-02,-5.27954e-02,-4.33933e-02,-4.38383e-02,6.27868e-01,-1.90231e-01,5.54107e-03,-6.55411e-02,3.01127e-01,-2.74114e-01,2.35904e-02,-6.00986e-02,5.25621e-02,-2.37684e-01,2.11573e-01,-5.26173e-02,1.71045e-01,1.19981e-02,2.30388e-02,-1.99003e-01,-3.81120e-01,4.17318e-01,3.69413e-02,2.12349e-01,-8.61433e-02,1.85398e-01,-3.28154e-02,1.04660e-01,-2.37188e-02,1.56166e-01,-2.53452e-01,6.84250e-04,9.50483e-02,-2.46052e-03,7.13212e-02,1.15028e-01,-5.75993e-02,8.07310e-02,-6.16684e-02,-1.78436e-01,
-1.69827e-02,-2.24017e-01,-9.45877e-02,-2.52657e-01,-1.93316e-01,6.54564e-02,-2.08376e-01,-6.83388e-02,6.35561e-02,-7.17687e-02,-1.55906e-02,2.74593e-02,1.92620e-01,-3.74652e-01,-3.66606e-01,3.70210e-01,1.88273e-01,-8.97261e-02,2.80235e-02,-1.24216e-01,-2.67587e-02,-2.26798e-01,1.47610e-01,-3.48548e-01,-2.26386e-02,-2.00059e-01,1.79948e-02,-2.53075e-02,3.66206e-01,3.73070e-01,1.14436e-01,3.19027e-02,8.48418e-02,1.83765e-01,2.30855e-01,6.38498e-02,1.40587e-01,8.76240e-02,3.43513e-01,-9.94003e-02,2.29194e-02,2.33273e-01,8.13909e-02,-3.76835e-02,-5.04069e-03,-1.15443e-01,3.61375e-01,-1.85223e-02,1.06151e-03,-2.44211e-02,3.88830e-03,-2.44588e-01,2.40411e-01,7.39494e-03,-8.34579e-02,-9.89641e-02,1.88680e-01,-1.37124e-01,-1.59113e-01,2.81099e-02,9.12047e-03,1.40221e-02,-1.24368e-01,-1.70956e-01,
-6.60661e-02,3.30334e-01,9.30245e-02,1.75438e-01,3.49059e-01,3.04012e-02,1.56661e-01,-1.52320e-01,-4.71832e-01,-6.32300e-02,-6.13031e-02,-2.92982e-01,-7.89145e-02,-4.47808e-02,-3.36610e-02,4.88460e-02,1.56185e-01,1.96549e-01,-1.36833e-01,-8.34786e-02,-2.17197e-02,-1.39117e-01,1.71854e-01,4.47419e-02,-1.25491e-01,7.14928e-02,-4.48571e-02,2.25250e-01,1.77149e-01,1.28681e-01,5.47469e-02,9.34440e-02,2.51488e-02,3.15072e-01,8.53883e-02,2.01128e-01,1.33886e-01,-4.90534e-01,2.09778e-01,-1.18884e-01,-1.97643e-01,3.39998e-02,1.16390e-01,1.11162e-01,1.26540e-01,-8.80626e-02,-7.97903e-02,-5.77143e-02,1.21017e-01,-1.89796e-01,3.04344e-01,-1.45323e-01,-2.03791e-01,-3.14344e-01,-2.21271e-02,1.34422e-01,-1.08019e-01,6.84643e-02,1.84186e-01,-2.60560e-01,-8.22958e-03,3.39650e-02,-1.48163e-01,1.64665e-01,
-5.97024e-01,1.29009e-01,-2.98391e-01,-1.59420e-02,9.37030e-02,-2.43404e-01,-6.63315e-02,-2.64527e-01,-9.05348e-02,-1.11476e-01,-5.15691e-02,-2.51272e-01,-1.59788e-01,7.51209e-02,9.63748e-02,-7.84341e-02,1.25064e-01,-2.70112e-01,4.45809e-02,7.29121e-02,8.42950e-02,-3.69924e-01,-1.44238e-01,-3.74399e-01,1.59134e-01,1.05525e-01,1.59645e-01,7.08100e-03,-5.01142e-02,-1.58129e-01,1.78878e-01,-4.28656e-02,-1.30379e-01,-7.88777e-02,-8.70272e-02,1.45849e-02,-2.19411e-01,1.27025e-02,-1.99606e-01,5.83679e-02,-1.90552e-01,2.19584e-01,2.31168e-01,-5.52273e-02,-3.17289e-01,6.54017e-03,-8.09630e-03,-3.27311e-01,-3.05370e-01,6.74513e-02,1.01138e-01,2.38776e-02,1.92455e-01,-1.97064e-02,-6.02966e-02,5.98101e-02,1.84663e-01,-1.30037e-01,2.02486e-01,-1.63724e-02,-9.83723e-02,-1.39803e-03,-9.01919e-02,-5.64778e-02,
8.43021e-02,-3.55906e-02,7.59448e-02,7.30507e-02,-5.75559e-02,-6.94873e-02,7.92501e-02,-3.52065e-01,4.83468e-04,1.56825e-01,2.77451e-01,-1.03850e-01,-6.51767e-02,1.40392e-02,-1.99161e-01,-6.85566e-02,-1.57872e-01,-3.19497e-02,1.24444e-01,2.49382e-01,-4.56093e-01,-2.46183e-01,-8.51633e-02,3.62182e-02,-7.14799e-02,-3.12447e-01,-2.73946e-02,1.27053e-01,-9.68644e-02,-3.67317e-02,4.19478e-02,-1.12800e-01,-1.06749e-01,-4.04223e-01,-2.03035e-01,-8.67844e-02,1.72324e-01,-7.82551e-02,1.94730e-01,3.36350e-02,5.94682e-02,-4.53032e-01,2.51509e-01,3.45028e-02,-1.27528e-02,5.41413e-02,-1.93031e-02,4.83288e-02,-1.70314e-01,-1.94059e-01,-1.27951e-01,-2.95434e-01,-7.59333e-02,-3.17240e-01,-9.79034e-02,-2.06736e-01,-3.06629e-04,1.78816e-01,-7.22554e-02,8.27624e-02,-2.96086e-01,-1.50511e-02,-2.26521e-01,-2.56136e-01,
5.07212e-03,3.22304e-03,3.08138e-02,-7.89659e-02,-1.33151e-01,2.88394e-01,-1.78163e-01,-2.48162e-01,8.22571e-02,1.73875e-01,-4.97434e-01,9.93412e-02,1.84120e-01,-4.47241e-02,-3.48444e-02,-3.09863e-01,-1.33403e-01,-1.91184e-01,3.02129e-02,-2.80188e-01,-1.32840e-02,-9.62390e-02,2.55120e-01,-1.56962e-02,-4.61691e-02,-9.18776e-02,-9.81041e-02,7.44221e-02,-5.15291e-02,-1.41990e-01,-2.48533e-01,1.61393e-01,-1.20690e-01,2.24304e-02,-9.95451e-02,2.01924e-01,-2.40522e-01,4.45805e-02,3.57219e-01,9.26026e-03,-2.46032e-01,-5.37350e-02,7.55553e-02,2.88966e-01,3.49010e-02,7.70752e-03,-1.39837e-01,-3.63780e-01,1.27521e-01,2.41612e-01,4.08853e-02,3.67637e-01,-2.81652e-01,3.96900e-02,-1.41580e-01,-2.13753e-01,9.67042e-02,6.47114e-02,8.23951e-02,1.62246e-01,-2.19535e-01,-2.90454e-02,-1.52946e-01,-3.17520e-02,
-3.99951e-02,3.54406e-01,1.04259e-01,2.79423e-02,-2.76351e-01,3.21341e-02,-2.00804e-01,2.19779e-01,-4.09465e-05,-2.30166e-01,8.17984e-02,-3.65183e-01,-8.15494e-02,-9.86525e-02,4.56960e-02,1.50662e-01,1.20030e-01,-1.39447e-01,-1.69190e-01,8.33633e-02,-4.22683e-03,4.09536e-01,2.95882e-02,3.86559e-02,-4.56282e-02,1.30069e-01,-5.33787e-03,9.83358e-02,7.27779e-02,4.85308e-02,-3.81151e-01,-1.68049e-01,-1.47741e-01,-3.15783e-01,1.79500e-01,3.39943e-01,1.05336e-01,3.30258e-01,1.52900e-03,7.94068e-02,-2.81239e-02,3.82412e-02,1.91582e-02,1.13363e-01,-2.77099e-01,-1.43522e-01,2.02996e-01,-2.38669e-01,6.58756e-02,-1.02231e-01,-1.11004e-01,-3.87146e-02,-4.02005e-02,-2.58227e-01,2.68571e-01,-2.36002e-01,9.72550e-02,2.93284e-01,1.10736e-01,-9.45994e-02,-4.71581e-02,-2.38957e-01,-3.20569e-02,7.06117e-02,
1.08198e-01,1.25856e-01,1.88975e-02,2.19813e-01,1.37534e-01,2.07817e-01,-2.38884e-01,6.67765e-02,-1.83422e-01,-7.55486e-02,1.77644e-01,2.03318e-01,-2.61193e-01,-1.37040e-01,7.53322e-02,-8.94344e-02,-1.09033e-02,-1.75769e-01,1.14881e-01,-1.85277e-01,2.31392e-01,-4.02200e-01,-2.39672e-01,6.10516e-02,-3.48530e-01,1.05339e-01,-2.45964e-01,1.98019e-01,-3.50990e-01,5.07961e-02,-2.40040e-01,-3.52634e-03,8.23841e-02,-5.94457e-02,5.89354e-02,1.65545e-01,1.72630e-01,2.10933e-01,5.55914e-02,1.38667e-01,6.98353e-02,2.20134e-02,-7.42066e-02,-1.62692e-01,-1.96349e-01,-4.08327e-02,2.31100e-01,4.06251e-02,-1.24073e-01,-1.81219e-01,-9.46072e-02,6.46078e-02,-1.78732e-01,3.18427e-01,-3.24769e-01,-3.66342e-02,-1.62081e-01,-2.13337e-01,-4.04628e-02,-2.34883e-01,1.08574e-01,1.59104e-01,-2.62444e-01,-1.03941e-01,
-2.87697e-01,8.85294e-02,-1.17738e-01,-2.36123e-01,1.13817e-02,-2.35917e-01,2.34904e-01,-1.97078e-01,1.81535e-01,2.11587e-01,8.24185e-04,9.32971e-02,-2.22055e-01,-2.92834e-01,3.84521e-02,8.88170e-02,-2.75628e-01,1.84922e-01,2.16490e-01,-3.30710e-01,2.04625e-01,2.34110e-01,-1.05082e-01,1.20738e-01,1.59131e-03,3.66589e-01,-2.12347e-03,2.10737e-01,1.61934e-01,6.67515e-03,6.00660e-02,1.39769e-01,3.59186e-02,-1.72077e-01,2.22310e-01,1.71775e-01,1.45068e-03,2.44059e-03,-1.34232e-01,2.49113e-01,-1.01620e-01,1.53160e-02,-4.01083e-02,1.96390e-01,1.83606e-01,6.24157e-02,-3.76610e-02,1.10454e-01,1.16033e-01,-1.44887e-01,-4.33267e-02,-4.58386e-02,3.14134e-01,1.45641e-01,-1.64777e-01,6.68377e-02,-2.56017e-01,2.59722e-01,4.30889e-03,8.68641e-02,-1.68049e-01,-1.96503e-01,-3.31200e-01,-2.54157e-01,
-1.83529e-01,1.76751e-01,-1.31560e-01,1.14935e-01,1.98470e-01,-2.27337e-01,1.50969e-04,2.35313e-01,-1.53225e-02,-3.03470e-01,-1.82221e-01,-2.35325e-01,1.04810e-01,2.02967e-01,6.97737e-02,3.14193e-01,-3.86589e-01,-1.14826e-01,-1.68802e-01,-8.62661e-02,-3.68517e-01,-1.32518e-01,7.84673e-02,3.58961e-02,1.06138e-01,-1.19079e-01,1.48518e-01,1.14825e-01,-4.11051e-04,3.34741e-04,-2.73299e-01,1.10420e-01,3.28727e-01,2.31553e-01,-3.40258e-01,-9.11852e-02,7.44825e-02,2.41392e-01,4.86397e-02,1.52154e-01,-1.34713e-02,-3.17765e-01,-1.55671e-01,1.84085e-01,1.80838e-01,-6.49916e-02,1.02275e-01,8.48721e-02,8.75222e-02,-4.29170e-02,-1.59676e-01,7.00183e-02,1.98304e-01,2.57822e-01,-6.23433e-03,2.08543e-01,1.86593e-01,-1.81370e-01,-5.51554e-03,-9.61858e-02,-3.84791e-02,-2.04085e-01,-2.16355e-01,-1.00866e-01,
7.64867e-02,-7.32952e-02,1.64536e-01,9.96555e-02,-2.16389e-01,-1.48572e-01,1.62613e-02,-4.36625e-01,-5.54271e-03,-1.42132e-01,3.21071e-01,-1.65623e-01,2.26189e-01,1.47898e-01,2.37771e-01,-7.14972e-02,4.38528e-02,6.29323e-02,2.15567e-01,1.33324e-01,1.11308e-03,1.65095e-01,1.67478e-01,-7.36187e-02,-6.00886e-02,3.06015e-01,-1.45504e-01,2.87482e-01,8.14949e-02,4.66170e-01,-6.79206e-02,7.15458e-02,-9.42994e-02,6.91393e-02,-4.48873e-03,-2.59269e-01,-3.75271e-02,1.27678e-02,2.82806e-02,-1.11608e-01,-1.36066e-01,-1.92656e-01,-1.88314e-01,-1.00928e-03,-3.59206e-01,2.34527e-01,-1.49057e-01,-6.66534e-02,1.98686e-01,2.06491e-02,-8.69776e-02,1.24176e-01,1.36983e-01,1.67771e-01,-2.39741e-03,-2.76464e-02,1.97836e-01,-2.29148e-01,-4.12575e-02,1.17079e-01,9.25020e-02,1.63899e-01,-2.76135e-01,2.13878e-01,
2.11689e-01,-7.60284e-02,-2.63481e-01,3.75129e-01,-9.51990e-02,-2.46286e-01,4.76765e-02,1.03054e-02,-3.01654e-01,2.51916e-01,2.97174e-02,-2.34032e-01,5.43941e-02,-6.03519e-02,2.35358e-01,6.30853e-02,4.11788e-02,1.45949e-02,-3.01359e-01,-2.95255e-01,3.27718e-01,1.18362e-02,9.75387e-02,4.91526e-01,2.34211e-01,-2.68763e-02,7.52126e-02,-2.64444e-01,9.99888e-02,7.29078e-02,7.31057e-02,-9.22538e-02,-1.74015e-01,1.27268e-01,-2.60941e-01,7.78398e-02,1.20132e-01,1.84646e-01,-3.78762e-02,-6.95533e-03,5.30445e-02,4.64796e-02,2.79087e-01,-1.83246e-01,-2.19003e-03,-8.87827e-02,5.62609e-02,-8.88179e-02,-8.91437e-02,-1.22689e-01,6.20660e-02,-2.58178e-02,8.12611e-02,1.41218e-01,-2.89839e-01,-1.30102e-01,1.30408e-01,4.95970e-02,-3.02741e-01,3.65885e-01,-1.60887e-01,-8.91662e-02,-1.49525e-01,1.24098e-01,
2.70994e-01,1.82032e-01,9.55410e-02,-1.52050e-01,2.09495e-01,-3.17939e-01,-2.80919e-01,-2.93990e-01,-3.49845e-02,9.87964e-02,-1.29796e-01,-1.79098e-02,1.08817e-01,4.01238e-04,-6.00275e-02,-2.74819e-01,-4.74887e-02,1.29469e-01,-3.29177e-01,-3.36736e-02,-1.85644e-01,2.30757e-02,-2.74556e-02,-2.97995e-01,-3.81845e-02,2.80760e-01,-2.58161e-01,1.90707e-01,1.86439e-01,3.09379e-02,9.56371e-02,-1.16928e-01,-1.34897e-01,-1.25624e-02,-5.57403e-02,-6.82591e-02,3.13288e-01,1.35756e-01,-1.11627e-01,3.24276e-01,-1.03387e-01,3.85753e-02,-7.57530e-02,-3.15045e-01,2.55453e-01,-2.28311e-01,-4.60707e-02,9.88041e-03,-2.69288e-01,4.29619e-01,-1.60316e-01,7.32600e-02,-9.12180e-03,-4.46797e-02,-5.82139e-02,-4.61790e-02,5.56480e-02,1.31945e-01,-1.90499e-01,-1.99411e-01,1.69958e-01,-5.91283e-02,1.30628e-01,2.26806e-02,
-1.23323e-01,-4.85968e-02,-1.16760e-01,2.29850e-01,4.33678e-03,-1.97721e-01,1.56640e-02,1.09075e-01,3.45204e-01,-1.01435e-02,5.80154e-02,2.29621e-01,1.14031e-01,-1.13446e-01,-5.98761e-02,-6.92590e-02,-1.68545e-01,-1.73056e-01,-2.14184e-01,-1.84141e-01,-1.35137e-01,-2.68405e-01,1.08410e-01,9.64886e-02,-1.80862e-01,1.88779e-01,-1.77766e-01,-1.53092e-01,-4.74778e-02,7.37225e-02,2.17969e-01,-1.79442e-01,2.07528e-01,1.09815e-01,-1.20236e-01,8.58291e-03,6.67588e-02,-9.98174e-02,5.12284e-02,1.56241e-01,9.49815e-02,2.03416e-01,3.37705e-01,2.49570e-01,-1.87182e-01,3.15218e-01,-1.05880e-01,-6.20681e-02,1.91296e-01,-2.25358e-01,-3.05850e-01,1.50592e-02,1.12620e-01,2.13396e-02,1.69719e-01,-5.44223e-02,8.26290e-02,4.36704e-01,-2.29122e-02,-2.50165e-01,1.20123e-01,1.74640e-01,1.22699e-01,3.86534e-01,
-2.21452e-01,2.59895e-01,2.56943e-01,1.16496e-01,-8.36344e-02,-1.39747e-01,-6.37909e-02,3.00717e-01,4.61288e-02,4.99922e-02,-5.19755e-02,-2.60553e-02,2.26765e-02,9.03478e-02,-5.20934e-02,-1.99989e-01,6.13376e-02,2.44145e-01,1.66505e-01,1.35007e-01,6.91743e-02,-3.43751e-01,-3.01690e-02,2.84963e-01,-1.41462e-01,7.28002e-02,1.16131e-01,-1.11576e-01,6.90730e-03,7.37710e-02,2.40683e-01,1.28969e-01,-4.72284e-01,1.66814e-02,3.58280e-02,-2.03083e-01,-8.09571e-02,1.13710e-01,5.63455e-01,-1.89560e-01,-2.46311e-01,1.56472e-02,-2.75186e-01,1.18547e-01,-3.35342e-02,-7.68707e-02,1.95841e-01,1.28097e-01,-1.64765e-01,1.90465e-01,-2.86997e-01,-2.03853e-02,2.75904e-01,-1.92547e-02,9.57134e-02,1.82399e-02,-3.39480e-01,2.39822e-02,-6.09359e-02,6.16800e-02,3.29896e-04,-1.05539e-01,1.10800e-01,1.58748e-01,
2.64928e-01,-3.40344e-02,-1.08926e-01,5.02819e-02,-1.82134e-01,-2.95734e-02,1.06898e-01,-4.56670e-03,-2.12397e-01,-2.66250e-01,4.83644e-02,1.40779e-01,1.96273e-01,4.63719e-01,-1.06450e-02,-2.17865e-01,6.91340e-03,-7.11834e-02,8.17912e-02,-1.63362e-01,-1.22810e-01,1.87706e-01,-2.74882e-01,8.66812e-02,1.42419e-01,-6.56082e-02,1.48314e-01,1.57249e-01,2.28563e-01,4.53117e-02,-4.37352e-02,2.12936e-02,-2.39504e-02,4.60596e-02,6.41975e-02,3.58829e-02,-2.88918e-01,-3.01993e-01,1.50632e-01,3.94669e-01,-7.68291e-02,3.95242e-01,2.79846e-01,-4.06629e-02,1.15988e-02,-2.47239e-01,2.09732e-01,9.10284e-02,-2.13364e-02,-1.27186e-01,-4.57375e-01,1.05394e-01,-1.91816e-03,-3.24740e-02,1.43388e-01,3.58571e-02,-1.80072e-01,-9.61575e-02,8.71768e-02,3.31134e-03,-1.19791e-01,2.01851e-01,-8.55999e-02,-2.03979e-01,
-8.90779e-02,7.76515e-02,2.40488e-01,-5.45960e-02,9.33783e-02,-1.44526e-01,-5.12659e-02,1.06555e-02,-9.02074e-02,7.53534e-02,-7.62002e-02,2.17778e-01,1.01430e-01,-1.49414e-01,2.22605e-01,-6.05300e-02,2.91418e-01,-4.14092e-01,7.16523e-02,2.03669e-01,2.55475e-01,-9.24176e-02,1.55359e-01,8.96054e-02,4.86598e-01,-8.26192e-02,-4.89961e-04,-1.17229e-01,-1.49518e-01,4.36556e-01,-1.18774e-01,-8.02242e-02,-6.33669e-02,-2.04159e-01,-7.00250e-02,1.25850e-02,7.75370e-02,-3.29266e-01,-6.80209e-02,2.57746e-01,-1.11508e-02,-3.43277e-01,1.00716e-01,2.02028e-01,1.76934e-01,-6.77846e-02,1.33397e-01,-2.32661e-01,1.48838e-01,1.58168e-01,-8.70441e-02,-1.37523e-01,5.90679e-02,6.09108e-02,9.48491e-02,9.78955e-02,-1.89993e-01,2.30336e-02,-5.82023e-02,-9.25187e-02,3.00563e-01,4.54274e-02,1.00798e-01,-2.46595e-01,
-7.34862e-02,8.68506e-03,-2.28623e-02,2.26238e-01,2.04664e-01,-2.62124e-03,-2.87755e-01,-1.47758e-01,1.22516e-01,-2.21484e-01,6.79747e-02,3.42369e-01,-1.58653e-01,-1.74299e-01,4.01027e-01,-2.71897e-01,-2.60894e-01,3.60857e-02,-6.06486e-02,8.01580e-02,-2.41177e-01,1.06312e-01,1.26546e-01,4.28813e-02,-7.75267e-02,4.59159e-02,3.58717e-01,-1.85774e-01,2.06091e-01,-6.01599e-02,7.51063e-02,-5.61833e-02,-3.30383e-01,3.06714e-01,1.02632e-01,2.22951e-01,-2.45444e-01,1.37513e-01,-2.75691e-01,3.64107e-02,3.19518e-02,-3.06867e-02,-5.94294e-02,1.84583e-01,3.15579e-02,2.38190e-02,1.85346e-01,7.40931e-02,1.47247e-01,-2.23244e-01,6.27703e-03,-2.59363e-01,-7.67282e-02,-2.86556e-01,-2.75735e-01,-1.43321e-01,1.90753e-01,-2.54927e-01,-6.23717e-02,2.87803e-02,9.65643e-02,-5.83023e-02,9.77489e-02,-1.39216e-01,
9.85410e-02,-5.92992e-02,6.09232e-02,-1.18361e-01,-8.35589e-02,-6.17938e-02,3.04598e-01,2.16343e-01,2.12061e-02,-1.64086e-01,-1.77760e-01,-1.60122e-01,-2.55710e-02,-3.20491e-01,1.28241e-01,-1.64616e-01,-3.61342e-02,2.02163e-01,4.36415e-02,-1.26303e-01,-2.61986e-03,-2.69625e-02,1.49726e-01,-2.52562e-02,2.84839e-01,-9.61543e-02,7.10460e-02,3.07359e-01,-3.10803e-01,-7.61198e-02,1.44065e-01,-2.67886e-01,-9.48908e-03,-1.74265e-01,2.82840e-01,2.62610e-01,-8.17793e-02,-2.28638e-01,1.04091e-01,9.93462e-02,-1.25428e-01,-2.43644e-01,-4.23129e-02,-2.01022e-02,-1.34040e-01,-9.29869e-02,7.62514e-02,3.15616e-01,-1.73751e-01,1.07185e-01,-4.27320e-02,6.91951e-03,1.20668e-01,1.27784e-01,-8.55669e-02,-1.94826e-01,3.73223e-01,-2.05937e-01,-8.21363e-02,-2.45591e-01,-2.63267e-01,3.23231e-01,1.96142e-01,2.66075e-01,
-1.90595e-01,6.07802e-02,2.24790e-01,3.12632e-02,-1.75771e-01,2.04242e-01,1.43867e-01,-6.21457e-02,7.79150e-02,2.30657e-01,-1.68357e-01,3.26992e-01,-1.72420e-02,1.19305e-01,1.41569e-02,-6.58772e-03,2.51392e-01,1.82707e-01,6.34327e-02,1.36366e-01,-1.40444e-01,-7.65706e-02,-1.64031e-01,-3.09543e-02,8.47244e-02,1.58200e-02,3.12385e-01,8.54027e-02,-7.81312e-02,-3.46298e-01,-1.49730e-01,-1.69186e-01,-2.26238e-02,4.99880e-01,-3.89386e-02,2.92069e-01,3.59062e-01,-1.79602e-02,-1.60216e-01,3.02278e-02,1.01203e-01,-1.21730e-01,2.00729e-01,-3.24337e-01,-1.83711e-01,-4.16989e-02,4.60432e-02,-1.04313e-01,1.89003e-01,4.75689e-02,-4.71801e-02,7.86256e-02,2.98482e-01,1.96375e-02,2.15386e-01,-3.49275e-02,-1.72979e-02,-2.61648e-03,-2.22637e-01,-4.90482e-02,-2.56149e-02,-1.65911e-01,-3.73946e-01,1.24840e-01,
-1.17198e-01,-2.82975e-01,-1.37139e-01,1.60977e-01,3.06274e-01,9.50058e-02,2.75262e-01,-1.42718e-01,-1.47024e-02,2.09065e-01,-2.89382e-01,-2.48507e-01,-2.20116e-02,1.78812e-01,1.78481e-01,9.71450e-02,-2.95865e-02,-1.95484e-02,-1.46728e-02,-3.04846e-01,-2.45104e-02,-1.30498e-01,-2.47670e-01,-2.85130e-03,5.15317e-02,-2.74464e-01,1.79212e-01,8.94603e-02,1.03219e-01,1.49559e-01,2.54365e-02,1.43503e-01,1.94985e-02,-5.71746e-02,3.79950e-01,2.22643e-02,8.49538e-02,9.98464e-02,-2.22060e-01,1.02629e-01,1.63008e-01,3.25562e-02,-3.08859e-01,1.78821e-01,-2.52446e-01,2.83881e-01,1.73771e-01,-9.99892e-02,-1.49553e-01,1.09049e-01,-2.73053e-01,-2.44703e-02,-3.51184e-01,-2.02869e-01,1.94739e-01,-1.19516e-01,-2.27917e-02,8.18713e-02,-2.95449e-01,7.00221e-02,3.03204e-01,-1.33880e-01,-8.05231e-02,1.07884e-01,
3.74724e-02,6.88266e-02,-2.18373e-01,6.90152e-02,1.59202e-01,1.69859e-02,-3.04027e-01,-1.05478e-01,-2.49634e-01,-2.45855e-01,3.65514e-02,2.32226e-01,-6.82942e-02,-1.38950e-01,-2.10059e-01,1.23931e-01,9.48034e-02,4.39571e-01,5.25170e-02,-9.25806e-02,2.00385e-01,8.41556e-02,-3.76676e-01,-2.04859e-02,2.33237e-01,2.02137e-02,-7.59825e-03,1.56557e-01,-1.18446e-01,-7.81393e-02,-8.74441e-03,-1.02175e-01,1.66915e-01,9.95079e-02,-3.38028e-01,-7.35314e-02,-1.83117e-01,1.15288e-01,1.65487e-01,7.29342e-02,8.20619e-02,-1.99375e-01,-1.69227e-01,2.90818e-01,-2.74560e-01,-5.48277e-02,5.08211e-02,-4.86582e-02,7.06993e-02,2.72380e-01,1.15078e-01,-4.70055e-02,8.60602e-02,-2.38918e-01,1.20946e-01,4.94486e-02,1.05945e-01,3.73532e-01,-1.12503e-01,2.29625e-01,7.78194e-03,3.60276e-01,9.22160e-02,-8.64348e-02,
-4.84442e-02,
-4.76199e-02,
-3.34839e-02,
-2.39963e-02,
-5.27339e-02,
-7.14440e-03,
1.31320e-02,
-7.37943e-03,
-1.37131e-02,
-4.12985e-03,
0.00000e+00,
4.49344e-02,
8.11336e-03,
-1.98287e-05,
-2.81345e-02,
2.89410e-03,
4.17091e-03,
-3.62607e-02,
-8.99023e-03,
-3.22998e-02,
3.24154e-03,
9.02785e-03,
1.24698e-02,
2.74709e-02,
-6.52446e-02,
1.11267e-02,
-2.02920e-03,
9.86282e-03,
-3.84050e-03,
-2.86862e-04,
-3.46583e-02,
-4.78819e-03,
2.18054e-02,
3.77951e-03,
-2.04917e-06,
-3.74730e-03,
1.06351e-02,
-1.97836e-02,
-6.00405e-03,
-1.03179e-02,
-1.05690e-02,
9.56811e-03,
-7.95361e-03,
-2.30478e-02,
-8.00034e-02,
0.00000e+00,
-5.36599e-04,
-1.34416e-02,
-1.28163e-03,
-3.53011e-03,
-7.80424e-03,
-1.79409e-02,
2.81088e-02,
3.47262e-05,
2.17850e-02,
4.75054e-02,
3.85042e-02,
-7.53459e-03,
-1.79295e-02,
-3.72280e-02,
1.62419e-02,
-5.98922e-02,
-1.54392e-03,
2.14958e-02,
-9.81739e-02,-1.40670e-02,-3.53321e-02,1.31989e-01,1.44549e-01,1.45439e-01,9.36819e-02,4.46570e-01,1.75564e-01,2.27264e-02,-3.05549e-01,9.54155e-02,-2.55832e-01,2.06374e-01,-1.67068e-01,8.58532e-02,1.13934e-02,-6.60879e-02,2.00119e-01,7.09819e-02,8.46198e-02,6.84422e-02,-2.20902e-01,-2.00334e-01,9.74306e-02,9.78560e-02,-3.35603e-02,1.09387e-01,1.85952e-01,1.14089e-01,-1.44566e-01,-1.55841e-01,9.99162e-02,3.23467e-01,2.11467e-01,1.26763e-01,3.23451e-01,-2.34048e-01,-1.32385e-02,-1.07214e-01,4.42409e-03,5.97859e-02,2.02619e-01,1.29830e-01,6.17777e-02,-1.98160e-01,3.52182e-01,-4.91863e-02,-1.19334e-01,-3.43460e-01,1.14089e-01,7.86371e-02,2.00192e-02,-2.02144e-01,2.43997e-01,-4.33505e-01,-7.41364e-02,-5.64178e-02,3.94418e-02,-7.89498e-02,-2.65583e-01,-1.03996e-01,-2.50756e-01,-3.28732e-02,
-2.52094e-01,1.00554e-01,6.64875e-02,-1.67671e-01,-9.32083e-02,2.14292e-02,-1.04521e-01,-8.26015e-02,4.78834e-03,2.33791e-01,5.86116e-02,2.75722e-01,9.17574e-04,-1.61991e-01,2.39787e-01,3.28303e-01,-3.75452e-01,1.05362e-01,-1.44897e-01,3.09073e-01,-1.46238e-02,1.00277e-01,1.62898e-01,-2.30373e-01,-1.69196e-01,2.91747e-02,1.15100e-01,4.15120e-01,2.18849e-01,2.15529e-01,2.41673e-01,-1.28244e-01,-5.21168e-02,2.30358e-01,6.30089e-02,-9.55438e-02,-9.48078e-02,-1.05828e-02,1.08906e-01,1.18806e-01,3.27740e-02,1.60759e-01,-2.36306e-01,3.71574e-03,6.51995e-02,9.40254e-02,-1.90083e-01,3.45197e-01,-1.45031e-01,5.55620e-04,1.84376e-01,1.78981e-01,-1.05789e-01,-3.61237e-01,-9.10750e-02,5.41386e-02,-3.86343e-02,2.48484e-01,1.25365e-01,-1.97448e-01,-2.39201e-01,1.04402e-01,2.64337e-03,-8.63452e-03,
2.56840e-01,3.70496e-01,-8.85664e-02,6.66702e-02,-3.27316e-01,2.10437e-01,-3.37558e-01,4.83792e-02,-3.22624e-02,-3.40679e-01,-3.57622e-01,3.14833e-02,1.01420e-01,-1.84762e-01,3.00688e-02,-6.98720e-02,1.69785e-01,1.49812e-01,-2.65070e-01,1.73308e-02,-1.90259e-01,3.44273e-01,-1.03836e-01,5.27054e-02,5.26525e-03,3.27319e-01,2.39124e-02,8.10419e-02,-2.55875e-01,-1.50590e-01,-2.65383e-02,1.64103e-01,-1.20234e-02,-5.34189e-02,-1.40927e-01,-1.04625e-01,7.53484e-02,1.67644e-01,5.57088e-02,-4.94893e-02,-1.28292e-01,1.24000e-01,3.19137e-01,1.21750e-01,-5.36434e-02,1.14453e-01,1.32383e-01,2.47416e-01,-1.18920e-01,1.36809e-01,1.89205e-01,-2.04276e-01,4.81673e-02,-2.61227e-01,-1.26266e-01,-1.31586e-01,-1.16853e-01,2.06806e-01,-1.54819e-01,9.16606e-02,1.06841e-01,2.21744e-02,-2.49551e-01,6.21248e-02,
-3.39493e-01,-1.68809e-01,-4.64200e-02,-3.36224e-01,-1.19327e-01,1.57152e-01,-1.33565e-02,4.25972e-02,1.74102e-01,7.36295e-02,6.71074e-02,-8.89406e-02,1.33698e-01,1.06513e-01,1.38286e-02,7.47565e-02,-1.65930e-01,1.27871e-01,2.83987e-02,1.32418e-01,-4.71421e-01,1.35210e-01,9.74791e-02,3.20177e-01,1.71939e-02,3.93179e-01,-5.99644e-03,1.00736e-02,-4.12833e-02,-1.09811e-01,-3.26064e-02,-1.92991e-01,-8.90208e-02,-2.15367e-01,-4.00406e-01,2.48083e-01,2.95583e-02,-2.47377e-01,1.74093e-01,-1.39832e-01,1.48684e-01,-1.26727e-01,1.34922e-01,2.81181e-02,-5.69872e-02,5.64080e-02,1.70741e-01,-2.36985e-01,4.92487e-03,-1.70970e-01,-1.38060e-01,-7.59304e-02,-1.06066e-01,-1.24616e-01,-5.41060e-02,2.73708e-01,-2.84768e-01,-2.21912e-01,2.47670e-01,-5.17462e-02,-2.17711e-01,-2.49666e-02,6.61881e-02,-2.29431e-01,
1.00097e-01,-5.88938e-02,1.70957e-01,1.97376e-01,-2.99113e-01,-2.93228e-01,-3.78312e-02,2.39840e-01,1.17962e-02,8.96404e-02,-2.18021e-01,-3.12412e-01,9.60271e-02,-1.64301e-01,-2.71067e-01,5.11644e-02,1.73123e-02,8.17399e-02,-1.66559e-01,-1.14395e-01,-2.63136e-01,-2.13623e-03,1.03873e-01,-1.79385e-02,-6.51107e-02,-6.70468e-02,-9.00106e-02,-2.64478e-02,-1.57041e-01,1.77199e-01,1.02852e-01,-1.80955e-01,-6.94706e-02,-1.84203e-02,5.33997e-01,1.18362e-01,1.67399e-01,2.32895e-01,2.08172e-01,-2.64150e-02,3.00436e-02,-6.20454e-02,7.51102e-02,1.88497e-01,2.69151e-03,1.96074e-01,7.60394e-02,2.40633e-03,3.73110e-01,-1.80638e-01,-2.72858e-01,2.34037e-01,-1.00691e-02,4.26313e-02,-2.72754e-02,2.96048e-01,1.32422e-01,2.76621e-01,-9.14171e-02,9.49300e-03,-3.57379e-01,6.67094e-02,6.74317e-02,-9.38490e-02,
-1.63949e-02,-6.30224e-02,-6.31728e-02,-3.50137e-01,-2.17451e-01,4.48589e-02,-5.65785e-02,-3.09792e-02,2.27523e-01,-2.72088e-03,-2.24594e-02,4.41955e-02,2.47686e-02,1.72881e-01,-2.16710e-01,2.18599e-01,1.62759e-01,-4.27815e-01,-2.24892e-01,-1.46758e-01,2.05045e-01,5.16337e-02,6.20317e-02,3.25823e-02,1.63077e-01,1.91269e-02,-3.44721e-01,6.57950e-02,-9.99280e-03,5.61318e-02,-1.39084e-01,1.83368e-02,-4.12800e-02,1.55043e-01,-7.19815e-02,1.29405e-01,2.20404e-01,2.55189e-01,-1.88651e-01,9.52561e-02,2.17848e-02,-1.48359e-01,-1.70723e-02,-1.28102e-01,4.35737e-01,-7.00660e-02,-1.79867e-01,4.22545e-01,4.22781e-02,1.23167e-01,-2.83928e-01,7.63607e-02,8.02339e-02,4.08722e-02,-2.05187e-01,1.96726e-02,-1.87525e-01,-1.46943e-01,3.60550e-01,2.13729e-01,-1.36560e-01,-1.46489e-01,-1.35973e-01,1.87920e-01,
-3.25263e-02,6.49059e-02,-3.70354e-01,7.62093e-02,2.87349e-01,7.96909e-02,2.94871e-02,2.77565e-02,1.80319e-02,2.80341e-01,-5.64060e-03,-1.49173e-01,1.05343e-01,5.67874e-02,-1.66221e-01,-9.90546e-02,-4.10126e-01,-2.74494e-01,-3.13859e-01,2.79448e-01,-6.28264e-02,7.26054e-02,4.42457e-02,2.11270e-01,2.51780e-01,-4.01915e-01,-1.58104e-01,-3.06403e-01,1.63417e-01,-2.35148e-01,5.66388e-03,2.66839e-02,-1.20660e-01,-9.32000e-03,3.70306e-02,4.12413e-03,-1.44364e-01,1.40185e-01,2.92145e-01,-6.16577e-02,-3.28911e-01,-3.25938e-01,-7.91497e-04,6.22694e-02,-2.42575e-02,2.33796e-01,9.58450e-03,4.53405e-02,-4.13073e-02,4.60989e-02,2.13951e-01,7.49134e-02,-8.09169e-02,-9.90999e-02,-1.26217e-01,-3.63342e-01,-1.08904e-01,1.22923e-01,-1.40108e-02,7.71610e-02,-1.24870e-01,4.83771e-02,2.06153e-02,-1.15251e-01,
-1.99729e-01,-6.76388e-02,-1.48648e-03,1.39701e-01,-2.84329e-02,-1.86075e-01,2.52552e-01,1.13740e-01,5.96285e-02,-2.09104e-01,1.84221e-01,-2.47265e-01,-3.19658e-01,3.37157e-02,-1.38139e-01,1.84888e-01,-2.05975e-01,6.94839e-02,2.11321e-01,-1.88475e-01,-1.70281e-01,-3.11685e-01,1.36030e-01,2.60977e-01,-1.13050e-01,-4.11035e-02,3.31123e-02,3.49021e-01,-1.70996e-01,-4.01432e-02,-1.00563e-01,1.54131e-01,8.81927e-02,-1.70099e-01,5.37506e-03,4.64596e-02,-1.86477e-01,1.26886e-01,-2.38614e-01,-4.63075e-01,-1.76224e-01,1.23400e-01,2.93146e-03,6.06571e-02,-4.39751e-03,1.16394e-02,-1.03843e-01,3.37043e-01,2.72298e-01,2.08973e-01,3.00163e-01,-1.30081e-01,-7.26128e-02,-1.52366e-01,1.13814e-01,-1.74914e-01,-2.48778e-01,2.96195e-02,3.58189e-02,2.99939e-02,-1.91426e-01,7.78736e-02,2.37381e-02,2.04649e-01,
4.05968e-02,4.38899e-01,-2.17001e-01,-2.18908e-01,-1.41924e-01,1.23178e-01,7.56937e-02,-3.63058e-01,-1.54270e-01,1.20164e-01,-9.81532e-02,-1.39575e-01,-9.11555e-02,3.67431e-02,6.68581e-02,2.55918e-01,1.32357e-01,-3.87655e-02,-1.26785e-01,-1.61451e-01,-1.16741e-01,-2.08313e-01,2.37132e-01,-7.81207e-02,1.83949e-01,1.84421e-01,5.29408e-02,-1.02794e-01,6.99821e-02,1.39639e-01,-3.04258e-01,1.12479e-01,2.96726e-03,3.06665e-01,2.61398e-01,2.15253e-01,-3.34870e-01,-1.65322e-02,-9.51572e-02,-2.31144e-01,1.24814e-01,-2.69769e-01,-1.74560e-01,1.60838e-01,-1.90112e-01,-1.46267e-01,2.43278e-01,-1.89192e-01,-6.91087e-02,-2.18785e-02,-3.87886e-02,-7.89054e-02,-3.49584e-02,1.02390e-02,-3.51381e-02,-4.80224e-02,1.04440e-01,-6.40709e-02,7.05947e-02,-1.22213e-01,-6.89480e-02,4.81331e-01,-6.73131e-02,1.54710e-01,
2.43048e-01,-1.14957e-01,-2.79075e-01,-6.42794e-02,8.53684e-02,3.32297e-01,-3.73287e-02,-1.05658e-01,-2.05864e-01,-1.45073e-01,-2.36341e-01,-1.11671e-01,9.56067e-03,-2.31487e-03,-2.00218e-01,7.93195e-02,2.96551e-02,4.21887e-02,1.01751e-01,-1.13337e-01,-6.29021e-02,1.99540e-02,1.81998e-03,2.69130e-01,-2.41514e-02,-3.48083e-01,-1.77866e-01,9.88044e-02,-1.31034e-01,-9.68156e-02,3.52352e-01,-2.80290e-01,-2.89583e-02,-9.71610e-02,-6.51585e-02,8.58347e-02,-2.21268e-01,-1.30270e-01,5.04285e-02,-1.73885e-01,-5.17652e-02,3.11365e-01,-1.34647e-01,1.01045e-02,1.05260e-01,-2.11629e-01,-1.45873e-02,-1.49907e-01,-2.88049e-01,-8.41118e-02,4.61820e-02,-5.09966e-02,3.94047e-01,-1.78287e-02,2.98693e-02,1.54372e-01,2.38912e-01,2.57534e-01,2.92996e-01,-5.94602e-02,-2.45247e-01,-1.52028e-01,-9.25984e-02,2.39645e-01,
-1.58331e-01,6.11844e-03,-1.92667e-01,1.50370e-01,9.84745e-02,-1.43688e-01,-1.59118e-01,6.65309e-02,-1.41479e-01,6.58741e-02,5.70807e-02,2.27941e-01,6.78249e-02,8.36699e-02,3.36833e-01,3.42057e-01,2.29136e-01,2.34121e-01,-1.49601e-01,-1.14761e-01,7.54649e-02,-2.92236e-01,1.97177e-01,-8.25556e-02,2.08761e-01,-7.45431e-02,-5.58488e-02,-2.00203e-02,-1.39966e-01,-3.24421e-01,4.59127e-02,7.20403e-02,-4.23670e-01,-1.64873e-01,3.57104e-02,-6.50706e-02,4.17135e-01,4.21012e-02,-7.03053e-02,-2.29944e-02,2.95690e-01,-1.94139e-01,-3.51806e-04,4.29515e-02,-2.25663e-01,1.43217e-01,5.33165e-02,-1.02662e-01,9.49224e-02,-3.74453e-02,6.70354e-03,-1.55783e-01,7.00168e-02,-1.22384e-01,1.12425e-01,-2.30280e-01,-6.97034e-02,2.61447e-01,2.58450e-01,-1.02082e-01,-7.02225e-02,-3.33296e-01,2.13362e-01,1.63625e-01,
-3.73088e-02,-2.83837e-01,-4.86012e-02,-2.34608e-01,-5.11000e-02,2.22127e-01,-1.07813e-01,-2.26783e-01,3.92638e-02,2.21707e-01,-1.06226e-02,1.47237e-01,-1.48491e-01,-1.94204e-01,-1.88703e-01,1.37911e-01,-2.02459e-01,1.93290e-01,2.20259e-01,-1.83423e-01,-5.62973e-03,2.39288e-02,-3.50798e-01,-2.37877e-01,1.98684e-04,1.06523e-01,-5.27791e-02,-1.43682e-01,1.50051e-02,-5.05064e-01,3.10833e-02,-1.79989e-01,-2.19097e-01,4.55797e-02,3.59930e-02,-2.56917e-01,-9.63722e-02,1.74817e-01,6.17491e-02,5.35637e-02,-1.11409e-02,-1.36725e-01,3.15057e-01,2.51287e-01,1.42675e-01,2.28077e-02,2.83868e-02,1.75095e-01,2.63917e-01,-6.74811e-02,1.32691e-01,5.17656e-02,-5.58611e-02,5.09876e-02,2.25799e-01,4.26261e-02,7.91442e-02,-2.47995e-01,-1.37847e-01,-8.24253e-04,-1.29639e-04,2.57237e-01,1.87410e-01,3.21974e-01,
7.23119e-04,3.06048e-01,2.57430e-01,-2.87812e-01,4.57616e-03,6.68621e-02,-2.74883e-01,2.88720e-01,9.01291e-02,7.44730e-02,-4.87457e-02,-2.21088e-02,2.46878e-01,1.67592e-01,1.79511e-01,-1.12264e-01,-2.18938e-01,-1.09667e-01,1.36225e-02,-2.25449e-02,-2.71559e-01,-2.89469e-01,-2.05214e-01,1.31030e-01,-1.08260e-02,-2.64883e-01,4.20287e-02,2.64912e-01,-6.71692e-02,-2.00275e-01,1.19550e-01,-3.24369e-01,4.21951e-02,2.37000e-01,6.08225e-02,3.00798e-01,-2.47247e-01,3.07129e-02,-1.59618e-01,2.08051e-01,1.74269e-01,-2.19151e-01,8.35583e-02,-2.10214e-01,6.91110e-02,-1.14265e-01,-4.58447e-02,3.07862e-02,2.58298e-01,6.73452e-02,-7.97623e-02,-3.51915e-01,-1.22766e-01,5.34139e-02,2.88012e-01,-1.37746e-01,1.43109e-01,1.86140e-01,-9.79606e-02,-8.84924e-03,1.49955e-01,-4.88516e-02,-1.02533e-01,-2.84864e-03,
7.83504e-02,-6.34012e-02,-2.97802e-01,1.14514e-01,9.23896e-02,-1.03639e-01,-3.70595e-01,-2.10069e-01,-4.04308e-02,1.58153e-02,2.50034e-01,2.30067e-02,4.29485e-01,3.74977e-02,-2.62525e-01,6.85426e-02,-1.33896e-01,1.81525e-01,2.70409e-01,-9.24006e-02,-7.33816e-02,-1.60125e-01,-8.86307e-02,1.07035e-01,-3.88713e-01,1.05989e-01,-1.24219e-02,1.26936e-01,7.44757e-02,3.10062e-01,-9.53111e-02,2.30845e-01,-1.01586e-03,-1.44145e-01,3.20810e-01,1.52572e-01,2.24454e-02,1.38534e-01,3.44500e-02,2.81640e-01,-1.54501e-02,-3.40321e-01,2.43004e-01,4.21021e-02,2.87414e-03,-2.44625e-01,-1.48523e-01,-3.19720e-02,-2.63063e-01,-2.26298e-01,1.86403e-01,5.32728e-02,6.74977e-02,-1.33987e-02,6.89569e-02,-3.31364e-02,-2.90446e-01,4.61788e-02,1.54713e-01,6.65394e-02,1.21952e-01,-5.12843e-03,-1.66261e-01,-2.86895e-02,
-4.63017e-02,1.33150e-01,-6.00772e-02,3.23636e-01,-3.00449e-02,3.27387e-01,6.17528e-03,-9.77914e-02,-2.20154e-02,7.08803e-03,-1.10693e-01,5.93957e-02,-3.02838e-01,-1.46221e-01,1.45736e-01,-3.78475e-01,-1.08431e-01,-1.07791e-02,-6.31594e-02,1.82970e-01,-1.73117e-01,-2.71826e-02,5.18345e-02,-5.44549e-02,-1.07252e-01,2.45529e-02,4.07595e-02,-9.92033e-02,-6.43437e-02,8.70698e-02,-3.77148e-01,-3.54244e-01,-1.17912e-01,-2.07824e-01,1.80818e-01,3.45068e-01,1.56598e-01,4.99953e-02,-1.06632e-01,1.08344e-01,1.74905e-01,-8.15702e-02,-5.40458e-02,-1.20042e-01,9.73645e-02,-2.07833e-01,-1.68622e-01,6.54212e-02,4.34259e-02,2.87523e-01,1.17614e-01,1.98139e-01,4.00584e-01,-2.63744e-01,8.59050e-02,3.38233e-02,-1.04938e-02,-1.91048e-01,9.17111e-02,2.00898e-01,7.07935e-02,1.17094e-02,4.48190e-01,-1.15010e-02,
5.02552e-02,1.30792e-01,2.28821e-01,-5.96255e-04,-3.47836e-02,-6.69660e-03,-5.35181e-03,-3.94365e-01,3.93148e-02,-4.47783e-02,-1.37339e-01,-2.23151e-01,-2.34363e-01,3.43840e-01,-3.82773e-01,3.79876e-02,-7.62018e-02,1.71460e-01,-1.47799e-01,1.69576e-01,-2.94272e-02,-6.79502e-02,1.15056e-01,1.61289e-01,-7.37522e-02,1.73862e-01,-5.72594e-02,9.39293e-02,1.66568e-02,2.66224e-01,-8.20878e-02,-5.44100e-02,-2.39053e-01,6.21723e-03,-1.47994e-01,-3.11547e-01,-2.40453e-01,-8.69879e-02,8.77954e-02,4.58384e-01,-1.15035e-02,-6.92433e-03,1.48008e-01,-1.16724e-01,-1.90270e-01,-9.39967e-03,4.33080e-02,-7.21233e-02,6.37761e-02,1.08986e-01,-1.83682e-01,9.39320e-02,-7.22934e-02,3.49257e-02,1.11466e-01,-3.73700e-01,3.46804e-02,9.19775e-03,-1.04939e-01,-1.88801e-01,-2.51332e-01,-3.69323e-01,2.15608e-01,2.50948e-01,
-1.07047e-01,-6.01294e-02,3.30789e-02,3.10021e-01,-1.50077e-01,2.17416e-01,3.00490e-02,2.21279e-01,-2.59727e-02,-7.71196e-02,1.59812e-01,1.03570e-01,7.98997e-04,-8.76509e-03,-1.33023e-01,1.86660e-01,2.93019e-03,1.07793e-01,-1.29101e-01,-1.86020e-01,2.00773e-01,3.47695e-02,1.50472e-01,2.13314e-01,2.88512e-01,2.94342e-01,-1.74159e-01,2.37529e-01,-1.10925e-02,-5.35046e-02,2.53630e-01,-1.62172e-01,3.43551e-02,-7.79442e-02,3.37829e-01,-9.68500e-02,-2.08229e-01,-5.41614e-02,1.98390e-01,6.27391e-02,-7.80622e-02,-3.74700e-02,-6.27487e-02,-1.08657e-01,1.44937e-01,-1.29478e-01,9.50814e-02,-2.91280e-01,-1.28831e-01,2.23179e-01,4.00568e-03,2.09324e-02,-5.06212e-01,-2.20036e-01,-1.21957e-02,-1.48172e-02,2.29426e-01,-1.43381e-01,1.02412e-01,3.99651e-01,2.80081e-01,2.60016e-02,3.06186e-02,-3.87558e-02,
-2.07683e-01,-1.30742e-02,4.18158e-01,4.31247e-02,1.11007e-01,1.54411e-01,3.33329e-01,-7.52227e-02,3.94423e-02,-2.38427e-02,2.71803e-01,-1.00209e-01,-1.48530e-01,-2.66290e-01,2.52790e-02,2.22799e-01,3.21984e-02,2.31296e-01,-3.89739e-01,-2.37664e-03,-1.46158e-03,-2.14587e-02,-4.80552e-02,1.95000e-01,1.15540e-01,-2.16363e-01,-2.27087e-02,-1.65334e-01,-4.71763e-02,1.54151e-01,-1.14191e-02,-5.20757e-02,-3.09627e-01,1.48190e-01,-1.93049e-01,1.53243e-01,6.54473e-02,1.17451e-01,-2.97949e-01,3.48257e-01,-2.21306e-01,4.06277e-02,1.91182e-01,1.88394e-01,-4.15366e-02,-7.58135e-02,-2.86627e-02,-1.20314e-01,-4.37414e-02,-2.34458e-01,9.89749e-02,-1.06857e-01,1.66571e-01,-7.48051e-04,1.35915e-01,3.23153e-02,-1.62288e-01,7.52982e-02,-2.04001e-02,1.84049e-01,2.12935e-02,2.16932e-01,-3.57821e-01,-1.90395e-01,
3.83188e-02,1.02283e-01,-7.96355e-03,-2.88034e-01,4.31978e-01,3.82293e-02,6.12053e-02,-1.72208e-02,-3.07670e-01,-2.80586e-01,-8.88666e-02,-6.07119e-02,4.21716e-02,-3.28499e-01,-1.45547e-01,2.82812e-01,-1.52836e-01,-2.51451e-01,2.08758e-01,1.48619e-01,-9.14221e-02,-1.72696e-01,1.80148e-01,1.03411e-01,1.38184e-01,1.53152e-01,-4.62003e-02,1.96823e-01,-2.86007e-02,-6.83224e-02,-7.02682e-02,1.50281e-01,-1.46992e-01,2.79679e-01,1.29446e-01,4.55608e-02,2.74493e-01,1.34483e-01,1.85029e-02,-1.78157e-02,9.22906e-02,1.44791e-01,2.83998e-01,-4.21706e-02,-7.99558e-02,9.54014e-02,-3.55585e-01,-7.37060e-02,-9.03812e-02,-6.40680e-02,-3.44513e-02,-7.97950e-02,5.15961e-02,-1.13934e-01,-1.49422e-01,5.25053e-02,2.69667e-01,-3.01820e-01,-3.32062e-01,9.34712e-02,-7.24320e-02,-1.58050e-01,2.41417e-01,-2.91188e-01,
3.75167e-01,-1.40347e-01,-3.96352e-02,-2.53413e-01,4.63890e-01,1.34531e-01,4.90049e-02,5.66826e-03,-3.95565e-02,1.01720e-01,-1.08909e-01,-2.73191e-02,-1.73603e-01,6.20800e-02,-2.80449e-02,-6.51522e-02,1.44143e-01,1.41734e-02,-1.69263e-01,1.29370e-01,-2.24170e-01,-3.42415e-01,-3.21085e-01,-4.24171e-02,1.45060e-01,3.05819e-01,-2.52384e-01,7.32545e-02,-6.80461e-02,3.02750e-01,5.46536e-02,4.86604e-02,1.14422e-02,5.71105e-02,8.47324e-02,-2.28159e-01,8.91256e-02,-1.40432e-01,-2.55996e-01,1.16791e-02,-9.37111e-02,-1.08785e-01,-8.00350e-02,-1.91305e-01,1.43247e-02,3.51121e-01,2.26321e-01,1.18686e-01,6.67824e-02,8.25455e-02,3.46712e-01,1.17376e-01,-8.28029e-02,6.95629e-03,1.65624e-01,4.02978e-01,-1.58441e-01,2.26658e-01,2.05545e-01,1.14806e-01,1.53558e-01,3.00149e-02,1.68527e-01,-1.57690e-01,
2.33271e-01,-2.03341e-01,-1.09386e-01,-1.46577e-01,-3.92561e-01,-2.32032e-01,-3.39476e-02,3.51364e-04,-1.03999e-02,9.09856e-02,2.22695e-01,-2.50816e-01,-9.99968e-02,-1.71721e-01,-1.26338e-02,-9.07346e-02,2.61686e-01,6.23150e-02,2.13946e-01,-8.06540e-02,-4.35605e-02,5.04745e-02,2.31711e-01,-1.55673e-01,2.73007e-01,-8.62399e-02,-1.90222e-02,1.44323e-01,1.28977e-01,5.86143e-02,-2.80004e-01,-3.61273e-01,-3.32572e-01,1.63147e-01,-4.64649e-02,-3.01295e-01,-7.72724e-02,-2.52110e-01,9.79778e-02,-1.16266e-01,-2.04930e-01,-2.29623e-01,3.06049e-02,-9.95067e-02,2.69303e-01,-1.34286e-01,-2.06272e-01,4.21673e-03,-1.43298e-01,-5.02014e-02,9.14570e-02,-2.78560e-01,1.24173e-01,-1.47911e-01,1.13278e-01,-1.09764e-01,-6.43115e-02,2.24470e-01,-1.20983e-01,-5.95913e-02,8.67541e-02,-3.65647e-02,6.56121e-02,-3.67699e-01,
1.70095e-02,-3.11267e-01,-1.83636e-01,-6.64537e-02,1.26692e-01,-2.28889e-01,5.92242e-02,1.30686e-01,1.10914e-02,-2.68892e-01,-1.37375e-01,6.69082e-02,2.90447e-01,-1.30542e-01,-4.20304e-02,1.79713e-01,-2.68229e-01,2.59174e-01,-1.06954e-01,-2.06234e-01,-3.28202e-03,-1.13009e-01,-9.23451e-02,3.00464e-03,7.95040e-02,2.00899e-01,-8.76507e-02,-9.64872e-02,3.46900e-02,-9.70636e-03,-1.83916e-01,-4.11532e-01,2.80241e-01,1.23638e-01,-3.66642e-02,-8.16719e-02,-8.95896e-02,1.60189e-01,-4.91134e-02,2.75075e-01,1.22123e-01,2.34541e-01,-3.40949e-01,3.52496e-02,-8.70308e-02,1.15131e-01,1.24457e-01,-2.05432e-02,-1.28695e-01,2.39227e-01,-2.60566e-01,-9.90925e-02,3.07162e-01,8.85215e-02,-3.32757e-02,-3.97720e-01,-2.58134e-01,5.37136e-02,-5.25540e-02,4.48386e-02,-1.70262e-02,2.93539e-01,1.69654e-01,-1.46978e-01,
-1.24976e-01,1.77086e-02,-1.57933e-02,3.85753e-02,-5.70363e-02,-2.42672e-02,1.81304e-01,-1.45669e-01,-1.99944e-01,-1.89700e-02,2.00413e-01,1.56339e-01,1.09106e-01,-3.03395e-02,1.57162e-01,-1.49694e-01,-5.32389e-02,-2.22350e-01,7.50348e-03,-4.34917e-01,-3.36190e-01,1.37062e-01,-9.25452e-02,1.80197e-01,1.15002e-01,4.50050e-02,-1.10783e-01,1.04121e-01,-1.44549e-02,1.08898e-01,-1.58674e-01,1.78889e-01,1.10202e-01,1.02911e-01,-2.44836e-01,9.26885e-02,3.76931e-01,1.16756e-01,1.73590e-01,2.18202e-01,-6.82456e-02,-2.00445e-02,-5.93668e-02,8.69889e-02,3.64287e-01,5.16730e-02,1.01654e-01,-1.51344e-01,-2.21638e-01,2.62657e-01,1.92260e-01,1.55081e-01,-1.78246e-01,1.16486e-01,4.44780e-01,-1.36247e-02,2.30721e-01,2.29955e-01,-1.62311e-01,-2.32068e-01,-3.03065e-01,1.31690e-02,1.39135e-01,1.02396e-01,
-1.48176e-01,7.36805e-02,2.86637e-01,-1.46604e-01,-8.17834e-03,2.45807e-01,-3.90243e-01,1.44557e-01,1.30893e-01,3.00516e-01,1.78639e-01,6.71314e-02,-6.13954e-03,1.22301e-01,-1.82900e-01,-7.95358e-02,1.56261e-01,1.59007e-01,2.46919e-01,-7.16868e-02,-7.03858e-02,7.05046e-02,-1.67748e-01,2.45422e-01,3.17820e-01,-8.84373e-02,8.31430e-02,1.06328e-01,-7.72704e-02,1.03794e-01,-1.97039e-01,1.55407e-01,-3.33223e-01,-3.58349e-02,1.76891e-01,-2.98316e-02,8.00088e-02,7.83929e-02,2.30209e-02,-1.15089e-01,2.02767e-01,2.55318e-01,-3.17035e-01,-3.19257e-01,-1.16690e-01,2.29840e-01,5.70584e-02,2.15267e-03,-2.00588e-01,6.22824e-03,3.04428e-01,1.75226e-01,2.20496e-01,3.36463e-01,-2.48245e-01,-1.23920e-01,-8.94968e-02,-6.88718e-02,-2.69582e-01,2.07744e-01,-1.94862e-01,1.74191e-01,3.48426e-02,-9.67577e-03,
-1.15515e-01,2.22241e-01,-2.66328e-02,-1.70148e-01,6.87771e-03,-1.36678e-01,1.72845e-01,1.29793e-01,1.60898e-02,1.88743e-01,3.41266e-02,-1.60425e-01,6.91803e-02,-4.03700e-01,-3.16565e-01,-3.05579e-02,-2.04354e-01,6.33805e-02,-1.38378e-01,2.68900e-01,1.08507e-01,1.47050e-02,-5.86078e-02,-1.08239e-01,-5.32300e-02,7.91569e-02,-1.66366e-01,1.72330e-01,-2.26310e-01,7.15450e-02,-2.92284e-01,-2.15298e-02,1.19925e-01,8.22005e-02,-3.52851e-01,-1.21827e-01,1.39973e-01,1.29379e-01,2.18540e-01,-2.22526e-01,2.63869e-01,-7.92448e-02,-2.84326e-01,-6.09206e-02,4.35340e-02,-2.50813e-01,2.10945e-02,-2.98370e-01,1.21442e-01,-2.78963e-01,1.59598e-01,2.51619e-02,-1.73486e-02,9.76649e-02,2.13840e-02,-2.67734e-02,-5.57569e-02,2.29980e-01,-3.07721e-02,2.14577e-01,3.31153e-01,-1.71688e-01,2.27586e-02,4.02706e-01,
2.41234e-01,-5.50150e-02,-3.86703e-01,3.24321e-01,1.19106e-01,1.62963e-01,-1.04111e-01,2.40799e-01,4.36926e-02,2.39307e-01,-8.24395e-02,2.96085e-02,1.35643e-01,2.11160e-01,-4.90701e-02,5.54870e-02,-7.37432e-02,-1.11658e-02,-3.39706e-01,-9.94176e-02,1.12545e-01,2.23209e-01,-1.06568e-01,-1.40848e-01,8.40232e-02,8.07427e-02,7.56521e-02,4.54293e-01,2.06412e-01,1.86583e-01,-1.04732e-01,6.16558e-02,-2.19269e-01,3.39345e-02,-3.05576e-01,2.97912e-02,-5.29145e-02,9.29247e-03,-2.77927e-01,-3.43086e-03,2.00998e-02,5.98328e-02,-2.05683e-02,1.72501e-01,-1.77041e-01,-1.36674e-01,-3.48042e-01,-1.77776e-01,2.92660e-01,7.39557e-02,1.28048e-01,-2.13623e-01,-3.43013e-02,2.98489e-01,5.77204e-02,2.62202e-01,-2.14533e-02,-1.91977e-01,-2.29438e-01,4.34464e-02,-2.85756e-01,6.19757e-02,1.50136e-01,-9.18876e-02,
1.75479e-01,8.73169e-02,1.84788e-01,1.90710e-01,-2.79266e-02,7.88135e-02,2.58565e-03,-2.28828e-01,3.14155e-02,-1.59338e-01,-3.58260e-02,1.83817e-01,6.64327e-02,-6.66530e-02,-1.79138e-01,8.90177e-02,6.86353e-02,-3.05754e-01,-6.72711e-02,1.29995e-01,1.84612e-01,1.22135e-01,6.23140e-02,2.39935e-01,3.32838e-01,-1.83300e-01,1.30465e-01,1.73040e-01,-8.55136e-02,-1.83458e-01,-4.54448e-02,-3.16838e-02,1.90573e-01,3.84121e-02,2.01198e-01,1.88158e-03,-8.64677e-02,-1.72292e-01,1.31582e-01,-9.04477e-03,2.66952e-01,-2.36449e-02,-8.31299e-02,1.44774e-01,-6.37123e-02,1.26605e-01,-2.44129e-02,1.39839e-01,-1.24992e-01,-1.89111e-01,-1.80806e-02,2.57270e-03,-1.40200e-02,8.22490e-02,4.66915e-01,2.96768e-01,-7.14301e-01,-6.61443e-02,-1.86256e-01,-1.76260e-01,7.57730e-02,-8.45486e-03,2.28905e-01,2.09938e-02,
1.20033e-01,-7.39891e-02,2.08250e-01,-2.85714e-02,1.03612e-01,1.30407e-01,1.65854e-01,2.07875e-01,-1.22159e-01,-2.71113e-01,1.08886e-01,1.31604e-01,-9.28455e-02,-2.15468e-01,8.41808e-02,-8.77167e-03,2.06161e-02,6.01062e-02,-2.17014e-01,-5.46181e-02,1.59459e-01,-1.38275e-01,-2.39023e-01,-1.38324e-01,-1.65766e-02,-1.02991e-01,7.83192e-02,2.04509e-01,3.31672e-01,2.28040e-01,-8.83957e-03,-9.49175e-02,-1.37429e-02,-3.05128e-01,-1.12805e-01,1.66151e-02,-1.35505e-01,2.37476e-01,3.10131e-01,-3.00741e-01,1.28741e-01,-4.99142e-01,3.35687e-01,-4.15253e-01,-6.96726e-02,1.28129e-01,5.44945e-02,9.01558e-03,-2.89413e-01,1.68834e-02,-1.98446e-01,-7.77144e-02,9.16840e-02,5.74457e-02,-3.87216e-02,2.42862e-02,-1.33918e-02,-4.40608e-02,-3.58945e-02,-9.05336e-02,-2.95552e-01,1.35167e-01,-4.03591e-03,2.23885e-01,
9.06238e-02,-5.13964e-03,-4.94005e-02,3.22781e-01,-8.24746e-03,-2.07669e-01,-1.64962e-02,-1.10570e-01,4.09735e-01,1.44136e-01,-2.01213e-01,6.11196e-02,3.07392e-01,-2.08910e-01,1.29744e-01,1.53485e-01,7.12547e-02,-2.95975e-01,3.62234e-02,-2.74514e-01,-1.07230e-01,-2.98058e-01,-4.13605e-02,-1.19394e-01,9.30214e-03,-9.95751e-02,-4.87227e-02,-2.80651e-03,-1.86684e-01,3.31819e-02,-3.39994e-02,2.86543e-02,-2.04066e-01,1.87684e-01,-3.35265e-01,8.33779e-02,-2.71890e-01,-1.27835e-01,1.80256e-02,2.17870e-02,-9.91038e-02,2.37586e-01,2.34688e-01,-5.01539e-01,-9.16592e-02,1.24844e-01,8.23156e-02,-1.29019e-01,-3.27195e-02,-1.73329e-01,8.04602e-02,3.80313e-01,-1.77065e-02,-3.44998e-01,3.06450e-02,7.76440e-03,-5.31634e-02,-1.86469e-01,-7.14792e-02,1.23284e-01,-7.35343e-03,7.46784e-02,9.74256e-02,1.04825e-01,
-4.39609e-02,-4.34063e-01,5.16636e-02,8.37148e-02,4.88641e-02,3.79105e-01,9.55861e-02,-8.85545e-02,6.24636e-02,6.58745e-02,6.76002e-02,6.33713e-02,2.74194e-01,-1.00622e-01,7.45723e-02,1.65567e-01,2.57931e-01,-1.36156e-01,-2.93153e-02,3.36660e-01,-1.70112e-01,-7.16381e-02,-1.76005e-02,1.83443e-02,-1.02841e-01,8.08620e-04,4.20536e-01,9.70725e-02,-2.70067e-01,6.84285e-02,1.90765e-02,1.21245e-01,4.61976e-02,3.00313e-01,2.00315e-01,-1.94581e-01,-3.76564e-02,1.97793e-01,1.21511e-01,-7.97126e-02,-1.80104e-01,-1.22102e-01,-3.96930e-02,-8.09737e-02,2.54332e-01,-1.68168e-01,1.77124e-01,-3.42067e-01,3.58712e-01,3.31436e-01,-2.32101e-02,-1.00999e-01,1.97367e-01,-1.22207e-02,-1.65451e-01,-1.49678e-01,-1.67317e-01,-3.50996e-02,-3.33242e-02,-2.26037e-01,-7.54132e-02,-1.50434e-01,-6.01332e-02,3.76239e-02,
1.12971e-01,-2.23703e-01,-2.28720e-02,-8.36208e-02,9.05090e-02,-9.34900e-02,6.66753e-02,1.48861e-02,-7.81019e-02,3.24132e-01,-1.88546e-01,-1.08148e-01,-4.33986e-01,1.06267e-01,1.53510e-01,-1.44536e-01,-1.11015e-01,-2.93601e-01,-5.40568e-02,-5.80931e-02,9.48356e-02,-1.90411e-01,1.92256e-01,-1.31265e-01,-6.39030e-05,1.90401e-01,5.39096e-02,1.92361e-01,-3.91001e-01,-8.07280e-02,1.30111e-01,1.89114e-01,-8.10094e-03,-3.51289e-01,3.97342e-02,1.00677e-01,-1.66333e-03,8.74848e-02,3.38404e-01,4.53281e-01,1.43405e-01,1.14245e-01,6.51003e-03,-1.26514e-01,1.94546e-01,-8.09251e-02,-1.21687e-02,-8.82822e-02,-7.18819e-02,-2.21119e-01,2.77792e-02,-3.95493e-01,-5.56044e-03,-2.74725e-02,-9.10728e-02,-1.43381e-01,-1.87502e-01,3.81790e-02,-1.01719e-01,2.49106e-02,-1.08163e-01,3.23114e-01,-1.11635e-01,-5.40475e-02,
2.26091e-01,1.21080e-01,5.47467e-03,-5.53745e-02,-1.62638e-01,1.70050e-01,-4.25838e-02,-1.37061e-01,3.20209e-01,1.90709e-03,1.65055e-01,-9.10001e-02,1.19246e-01,5.61360e-02,3.95972e-02,-2.49166e-01,-1.88877e-01,-1.86058e-02,-1.72873e-01,-2.11113e-02,-8.18500e-02,-5.22512e-01,8.07826e-02,-5.12738e-02,8.75688e-02,-7.20774e-02,6.44559e-02,6.93984e-02,5.52714e-03,1.29256e-01,2.35097e-01,-2.74617e-02,8.90249e-02,4.75557e-02,-1.04609e-01,-2.81047e-01,4.82121e-01,-7.78615e-02,3.40326e-01,-2.83548e-01,6.00819e-02,2.38405e-01,2.03723e-01,2.24672e-01,-1.58044e-01,-1.45933e-01,-1.03947e-01,8.28719e-02,-1.83128e-02,1.30435e-01,-4.54067e-02,7.61671e-02,1.94463e-02,2.36290e-01,7.48644e-02,-2.17564e-01,5.09942e-03,-2.13272e-01,2.26877e-01,7.06421e-03,4.62458e-02,2.31578e-01,5.05944e-03,-1.90687e-01,
2.91634e-01,5.02843e-02,-7.58650e-02,-7.96316e-02,-2.60342e-01,-6.17424e-02,-6.48285e-02,3.71681e-02,-4.70730e-01,2.43929e-02,3.67275e-01,1.35355e-01,-1.44357e-01,1.35637e-01,1.99836e-01,8.81687e-02,8.17835e-02,5.16677e-02,-3.50998e-02,9.63934e-02,-2.92129e-02,-9.09738e-02,-1.65326e-01,9.95487e-02,-8.76904e-02,-3.04243e-01,-1.31702e-01,-8.69167e-02,-3.74541e-02,6.88787e-02,-2.09008e-02,-2.18735e-02,3.64261e-01,2.12651e-01,-1.55779e-01,-5.12635e-02,-1.20007e-01,-4.36174e-03,7.96999e-03,1.09686e-01,2.14430e-01,7.69752e-02,2.07015e-01,6.10137e-02,2.18074e-02,-1.45334e-01,2.82066e-01,-3.04421e-03,1.85743e-01,-1.62313e-01,2.12005e-01,9.46965e-02,-1.16494e-01,-7.73567e-02,-2.92378e-01,-7.33634e-02,-2.05354e-01,-1.51298e-01,-1.01328e-01,4.08279e-01,-3.44407e-01,-1.52450e-01,3.28547e-01,-1.68040e-01,
-9.80686e-02,-2.62376e-01,3.76919e-02,5.42642e-02,1.66631e-01,2.17820e-01,-7.29540e-02,3.90613e-01,-1.50541e-01,-1.75925e-01,7.99483e-02,6.53311e-03,-7.25206e-02,-2.44194e-02,7.90191e-02,-2.06209e-01,1.18977e-01,4.65037e-02,-2.73418e-01,-1.60809e-01,-1.55291e-01,7.20474e-02,-8.15570e-03,3.59027e-02,-4.15285e-02,1.06109e-01,-6.33516e-02,-1.42640e-01,-3.96975e-01,-2.33238e-02,-2.16975e-01,1.96953e-01,-1.02545e-01,4.00148e-01,1.19877e-02,-5.75570e-02,-3.65252e-01,-9.68608e-02,1.96544e-01,-3.30813e-03,1.53425e-01,-4.71280e-03,4.54605e-02,6.97285e-03,-1.15057e-01,-1.90177e-01,-4.27778e-01,3.03995e-01,-7.63320e-02,-2.92219e-01,5.95583e-04,2.69898e-01,-1.48281e-01,2.14673e-01,-2.02401e-02,-1.35509e-01,4.36507e-02,3.27222e-02,3.08269e-01,-2.69826e-01,4.57433e-02,3.99426e-02,1.68494e-01,-5.82275e-02,
-6.41695e-02,2.11835e-02,1.82909e-03,3.95039e-02,1.91595e-01,2.04379e-01,-7.30969e-03,-1.85306e-01,9.10413e-04,4.33676e-01,5.56767e-02,-4.69160e-01,1.59000e-01,2.08466e-02,2.82812e-01,1.68393e-01,1.08458e-01,3.79970e-01,-2.16323e-01,-1.50248e-01,1.19909e-01,-6.95855e-02,-1.58990e-01,-1.62955e-02,3.07129e-02,6.50072e-02,-2.81678e-02,1.02097e-01,-1.41678e-01,-6.12654e-02,-1.71596e-01,-1.77211e-02,3.44349e-01,-5.42756e-02,5.15126e-02,1.16957e-01,3.69841e-02,1.47090e-02,2.26995e-01,-9.98244e-02,-2.48177e-01,1.52431e-03,-2.03635e-01,-6.18006e-02,3.51502e-02,-2.89981e-02,3.83943e-02,4.58260e-01,-1.56611e-01,-1.65241e-01,-1.88587e-01,-7.61197e-02,6.60482e-02,-1.11599e-01,1.83110e-01,2.22692e-02,1.31376e-01,-2.85263e-01,-2.70185e-01,3.80535e-02,-6.14994e-02,-3.90826e-01,-7.49746e-03,-9.75168e-02,
-2.08304e-01,1.16180e-01,-1.72975e-01,-8.87960e-02,9.44747e-02,2.24470e-01,7.60312e-02,1.16238e-01,1.20022e-01,1.01967e-01,2.68542e-01,-2.11096e-01,6.24804e-02,-1.10710e-01,-2.07401e-01,-4.06634e-01,1.34248e-01,3.86684e-02,6.54117e-02,-1.71137e-01,2.82836e-02,-4.16017e-02,8.17518e-02,-2.89454e-01,1.40358e-01,9.67043e-02,2.83956e-01,8.76149e-03,-9.78553e-02,-2.79558e-02,3.01270e-01,1.62405e-01,2.93283e-01,1.76735e-01,-2.50720e-02,-6.34928e-02,-1.12327e-01,-2.59898e-01,-2.59731e-01,1.63599e-01,1.82899e-01,-1.65104e-01,1.42061e-01,1.84293e-01,8.37297e-03,3.52276e-01,-2.28846e-01,-1.24999e-01,-1.37385e-01,7.40159e-02,-1.87005e-01,7.66650e-02,1.82744e-01,-2.56664e-01,-3.69086e-02,-2.08456e-03,-1.26225e-01,1.94007e-01,-1.03122e-01,3.15638e-01,-3.03583e-01,-5.71620e-02,1.01808e-01,2.04005e-01,
5.41104e-03,1.64266e-01,-2.00758e-01,2.74764e-01,2.25777e-01,1.45830e-01,-7.98549e-02,1.22619e-02,1.88391e-01,-2.09005e-01,7.46018e-03,-1.22809e-01,-9.94044e-02,3.22197e-02,2.00820e-02,-2.30207e-02,-1.98687e-01,1.80353e-01,1.12356e-01,-1.07339e-01,1.18898e-01,-1.58020e-01,3.00889e-01,2.03816e-01,6.30246e-02,8.84541e-02,1.85161e-01,-1.98503e-01,1.29378e-01,-2.65403e-01,-1.06660e-01,-6.58990e-02,7.01567e-02,1.69419e-01,-1.42179e-01,-3.40374e-01,1.49828e-01,6.67267e-02,-5.00432e-02,1.40064e-01,2.47101e-01,-1.49289e-01,-1.89998e-02,-3.78327e-01,2.16780e-01,-3.14809e-01,2.07224e-01,2.05205e-01,1.27124e-01,-6.46479e-02,4.13887e-02,1.43097e-01,-8.46829e-02,4.11704e-02,-2.15270e-01,4.15637e-01,-1.09610e-02,2.44294e-01,-2.09962e-01,-1.42565e-01,-2.15116e-01,7.03391e-02,-2.53799e-01,-1.28099e-01,
-2.75701e-01,-2.76280e-01,1.00464e-01,-3.81485e-02,-1.78251e-01,1.47173e-01,-6.18254e-02,-2.40575e-01,-1.83197e-01,-3.11888e-01,-3.01568e-01,-2.29592e-01,9.09202e-02,1.80376e-01,-1.44201e-02,-5.98657e-02,-2.15484e-01,3.84875e-02,-1.98383e-01,-2.86204e-01,4.66986e-03,3.26116e-02,-2.19887e-01,5.90756e-02,8.36153e-02,-2.47143e-01,1.02956e-01,5.06821e-02,3.31668e-01,1.61923e-01,5.32871e-02,3.80225e-01,-2.51399e-03,7.19980e-02,9.61194e-03,-1.32405e-01,1.85538e-01,-2.23145e-01,1.17360e-01,-1.11272e-03,1.81233e-01,-7.85624e-02,-2.12700e-01,-1.52971e-01,1.11914e-01,3.59528e-02,-5.56019e-02,-4.17276e-02,3.75219e-01,-3.29338e-01,7.46085e-02,-1.53453e-01,1.53200e-01,-3.94881e-01,-1.84115e-02,-5.72492e-02,6.99373e-02,-1.58785e-02,2.50249e-02,1.34526e-01,2.01621e-01,1.56087e-01,1.32364e-01,2.74444e-03,
2.83052e-01,-1.08170e-01,7.03684e-02,-1.43559e-02,2.43753e-02,1.10571e-01,1.84299e-01,4.38893e-02,1.53221e-01,-1.41971e-01,4.75081e-02,3.02958e-01,3.54809e-02,3.63709e-01,-7.38155e-02,1.14536e-01,-2.83596e-01,4.30808e-01,9.71532e-02,-6.30412e-03,-2.84624e-01,-2.32839e-02,2.99754e-01,-3.95463e-01,4.02218e-01,-1.81913e-01,-1.87674e-01,-6.20263e-02,-1.50802e-01,1.61536e-01,-1.15119e-01,1.62963e-01,9.17769e-02,-3.72663e-02,-7.72956e-02,3.78025e-01,-6.19157e-02,-7.32649e-02,1.57079e-01,1.30347e-03,-5.02424e-02,-7.10892e-02,4.23123e-02,7.30150e-02,1.79982e-01,1.12021e-01,-6.35583e-02,2.49547e-02,8.27407e-02,-9.91073e-03,1.18386e-02,7.38401e-03,4.26019e-02,-6.57134e-02,-2.72349e-01,6.03135e-02,-1.02066e-02,2.89371e-02,-2.91765e-01,-1.58825e-01,2.51171e-01,-1.16944e-01,-6.13658e-02,1.59544e-01,
-2.52109e-02,5.39984e-02,-2.08368e-02,2.43635e-01,-2.71612e-01,2.54076e-01,1.82245e-01,1.87027e-01,-2.16886e-01,6.39651e-02,2.17504e-02,-3.64562e-02,1.02947e-01,-4.00780e-02,-3.89533e-01,1.06022e-01,4.27600e-02,-1.21885e-01,1.35032e-01,-3.11902e-02,7.72041e-02,-4.47527e-01,-1.31456e-01,-7.14609e-02,-2.02877e-01,8.95362e-02,5.51092e-02,-3.11299e-01,-5.92885e-02,2.05316e-01,3.30842e-01,-1.10143e-01,-3.56245e-01,1.21490e-01,-3.13992e-01,1.95756e-01,2.14230e-02,4.42418e-02,9.77640e-02,8.59046e-02,2.11223e-01,-1.24205e-01,-3.82713e-01,1.83794e-01,1.01700e-01,1.15528e-01,9.85761e-02,2.99702e-01,-1.51053e-01,1.97774e-02,1.38727e-01,-2.53230e-01,-1.25361e-01,-7.26746e-02,-8.42217e-02,-2.20395e-03,-1.89341e-02,-1.59633e-01,-1.73087e-01,-2.09597e-01,7.56069e-02,-1.17241e-01,2.53431e-03,-7.61389e-02,
3.44102e-01,-2.61787e-01,2.19179e-01,6.37664e-02,1.38632e-01,-1.56215e-01,1.39261e-01,-2.07680e-01,2.38901e-01,-3.95226e-03,-1.75395e-01,-5.29423e-02,1.27825e-01,-9.24315e-02,1.34182e-01,3.42785e-03,-9.81298e-02,7.05654e-02,1.44589e-01,6.07338e-02,2.24608e-01,3.01904e-01,1.05140e-01,1.69415e-01,-2.22296e-01,9.77204e-02,9.30450e-02,-3.29847e-02,-1.14220e-01,3.39956e-02,-4.70696e-02,1.15231e-01,-1.36011e-01,2.10343e-01,-1.08052e-01,2.33495e-01,-6.56033e-02,-2.43800e-01,7.14337e-02,-1.82518e-01,4.26739e-01,-3.38926e-01,-8.11717e-02,1.12740e-01,2.62150e-02,1.97689e-01,1.01687e-01,1.97108e-01,2.69045e-03,2.12868e-01,2.00278e-01,-1.14917e-01,-6.74908e-02,6.80412e-02,7.59802e-02,-1.98158e-01,2.36564e-01,5.18120e-02,1.31054e-01,3.68746e-01,-1.98339e-01,-2.63444e-02,-6.09790e-02,-1.63543e-01,
1.34461e-01,-6.07088e-02,-2.08971e-01,2.05277e-01,-3.54021e-01,5.62500e-02,1.44442e-01,2.69539e-02,7.60448e-02,2.86415e-01,2.67503e-01,-1.54331e-01,-2.16429e-01,-6.98284e-02,1.16086e-02,-2.10289e-03,-2.94242e-01,-5.63163e-02,4.99074e-02,1.37293e-02,6.46186e-02,1.92842e-01,-1.98575e-01,2.17313e-01,1.12713e-01,1.15631e-01,-8.12611e-02,2.59196e-03,1.36201e-01,2.02379e-03,-3.42067e-02,1.96119e-01,1.07627e-01,1.38153e-01,1.24974e-01,3.65037e-02,-1.25604e-01,2.75405e-01,-1.72055e-01,-3.49199e-02,3.52816e-01,2.47373e-01,2.81087e-01,-1.84920e-01,-6.21842e-02,3.28625e-01,1.38108e-01,-4.17896e-02,-3.83448e-02,7.24354e-03,-1.62700e-01,-1.53022e-01,2.23086e-01,-1.06823e-01,-2.24401e-02,1.04503e-02,1.68678e-01,1.02195e-01,2.12628e-01,-4.38558e-01,3.28607e-01,-2.13651e-01,-6.71128e-02,-1.27892e-01,
-2.36079e-01,-2.32869e-01,-2.54028e-01,-9.66741e-02,-2.02124e-01,-1.49723e-01,2.17123e-01,-2.11516e-01,-6.10831e-02,-8.69725e-02,-1.64110e-01,-1.22088e-01,4.36580e-02,-2.39721e-02,1.84181e-02,-1.41511e-01,2.62382e-02,6.76060e-02,-1.86395e-01,-1.91706e-02,1.38887e-01,-8.91429e-02,-9.45166e-02,5.82358e-02,1.14151e-01,-2.01892e-01,1.54952e-01,3.21267e-01,-2.86610e-01,-2.88372e-02,-8.88171e-02,-4.48528e-01,1.15844e-01,1.67917e-02,1.47984e-01,8.62678e-02,1.67957e-01,-1.60251e-01,-1.14558e-01,2.12305e-01,1.14513e-01,-1.77560e-01,1.72626e-01,7.52812e-03,-1.88931e-01,2.12912e-01,-3.55651e-02,-6.43336e-03,-8.77011e-02,3.30544e-02,4.69320e-01,1.55055e-01,-1.82778e-01,1.80809e-01,-3.97491e-01,2.08364e-02,1.26828e-01,-2.31693e-01,-4.70863e-02,-2.47753e-01,5.90848e-02,-8.15293e-02,-2.90943e-01,1.27727e-01,
1.88571e-01,9.60377e-02,1.47678e-01,1.10158e-01,1.62170e-01,-5.21477e-02,-3.50313e-02,1.19570e-01,-7.51733e-02,6.91948e-02,4.37256e-02,-1.73427e-01,-1.50118e-02,-1.19402e-01,2.79487e-01,-3.59081e-02,-3.55401e-01,1.53354e-02,-5.94939e-02,-1.99692e-01,-2.89708e-01,6.36015e-02,2.52299e-02,-2.98444e-02,-1.69138e-01,-1.44908e-01,-1.12919e-01,-1.63303e-01,5.42927e-02,8.37705e-02,-1.52351e-01,-7.38286e-02,-2.40786e-01,1.89843e-01,2.92816e-01,-3.50441e-01,7.29523e-02,-2.38069e-01,5.34611e-03,2.06347e-02,1.19562e-01,1.33434e-01,-7.24314e-02,9.63949e-02,2.25425e-01,1.66804e-01,-4.19641e-02,-1.67022e-01,-1.88011e-01,9.92946e-02,-4.72378e-02,-3.16097e-01,-1.49230e-01,2.43206e-02,-1.21436e-01,1.45289e-01,-3.03774e-01,-4.11035e-01,1.21223e-01,7.09094e-02,-8.38146e-02,-2.11971e-01,-2.65351e-01,4.73237e-01,
1.75337e-01,-9.61124e-02,1.58860e-01,-6.49294e-02,1.26806e-02,-1.19816e-01,-4.59998e-01,1.37772e-02,-3.04695e-01,-6.96620e-02,2.68554e-01,-1.56828e-01,-9.59714e-02,-3.16161e-01,-2.70458e-01,6.52116e-02,-1.93902e-01,9.08988e-03,-3.40764e-01,-3.09347e-03,9.73503e-02,-1.44320e-01,6.66031e-02,-2.97149e-01,1.52607e-01,1.18995e-01,1.27372e-01,7.13290e-03,9.70120e-02,-2.58768e-01,-5.33130e-03,1.58341e-01,-1.62598e-02,-8.57254e-02,-7.79835e-02,3.66794e-01,-7.77450e-02,-3.14300e-01,4.06909e-03,2.61907e-02,5.32164e-02,1.05633e-01,-9.53875e-02,-8.86218e-02,1.55967e-01,-1.57823e-02,1.44790e-01,-1.15163e-01,2.14850e-01,2.38472e-01,1.62578e-01,3.30338e-01,1.47774e-01,4.77429e-02,2.01423e-01,-8.99668e-02,-9.59507e-03,-1.75979e-01,1.09650e-01,-1.45431e-01,-1.17645e-01,-1.49167e-01,-3.48507e-01,-1.20768e-01,
1.67518e-01,1.64083e-01,2.53810e-01,1.66589e-01,-8.43011e-02,6.52074e-02,2.53121e-01,1.27152e-01,-8.77803e-02,2.32870e-01,-2.55277e-02,3.87194e-02,-1.38086e-01,1.24424e-01,-1.81540e-01,3.37895e-01,-5.92887e-02,-9.22468e-02,-6.21790e-03,-2.59813e-01,-3.25789e-01,1.32146e-01,1.15106e-02,-7.89999e-02,-3.31580e-01,-7.85500e-02,-7.42692e-02,3.40628e-01,-4.91030e-02,-4.45646e-01,4.18113e-02,9.91225e-02,1.55040e-01,6.65407e-02,-1.13035e-01,-2.39441e-01,1.80418e-01,-2.28045e-01,-1.20693e-02,1.45969e-01,-7.56134e-02,-4.36972e-01,-1.37341e-01,-7.07545e-02,-2.33536e-01,7.49018e-04,-1.81881e-02,-2.76266e-02,-1.41579e-01,7.87791e-02,-8.91791e-03,2.06386e-01,4.09684e-01,9.22067e-02,-1.93745e-01,-1.61792e-02,-7.85124e-03,-8.57731e-02,8.99084e-02,1.71268e-02,1.51859e-01,1.15834e-01,1.44676e-02,-2.00635e-01,
2.34767e-02,7.07537e-02,-3.28465e-01,-2.22148e-02,1.61482e-01,-6.73242e-03,-1.73779e-01,6.55276e-02,2.69156e-02,-6.90880e-02,-9.00765e-02,-4.34565e-01,-3.35374e-01,5.18777e-02,1.93820e-01,2.81844e-01,2.56761e-01,2.26229e-01,2.86713e-02,1.34973e-01,-9.60357e-02,2.02183e-01,-5.16850e-02,7.52737e-02,-1.70126e-01,-1.77339e-01,-1.35079e-02,6.81274e-02,4.31922e-02,9.91698e-02,3.88601e-01,4.00373e-02,-8.50678e-02,1.61709e-01,-1.41174e-01,1.99271e-01,1.58574e-01,2.95948e-02,5.74602e-03,-8.26161e-02,2.00865e-01,-4.22408e-02,6.08445e-02,-9.61166e-02,3.57201e-01,1.41932e-01,-1.37802e-01,-1.43932e-01,-8.26699e-02,1.56918e-01,-1.35640e-01,4.17291e-01,-1.37224e-01,2.19491e-01,1.19639e-01,-1.74525e-01,-3.05307e-01,-1.03437e-01,-2.55211e-01,-3.81509e-02,3.14591e-01,2.51486e-01,1.37186e-01,2.93384e-02,
-4.05688e-02,7.44664e-02,-1.67646e-01,1.15105e-01,8.63267e-02,-4.21431e-01,-3.87354e-01,2.38106e-02,7.19205e-02,-1.19355e-01,1.45700e-01,2.05873e-01,-4.10486e-01,2.29080e-01,-1.77085e-01,1.61642e-01,-9.64674e-02,-4.11912e-02,-5.16696e-02,5.69294e-02,-4.70325e-02,3.58748e-02,-2.11183e-01,1.10724e-01,9.94611e-02,-6.53945e-02,5.53168e-01,-9.68340e-02,-3.74732e-01,1.58680e-01,-7.09684e-02,-1.43542e-01,9.74763e-02,1.99603e-01,-1.61925e-01,-6.93587e-02,4.31182e-02,1.06984e-01,2.18885e-01,-2.49946e-02,-2.24982e-01,-1.59525e-01,-1.16015e-01,8.23252e-02,3.31888e-02,1.85127e-01,-8.15044e-03,-4.13784e-02,-1.09125e-01,-4.67143e-02,-1.62946e-01,-1.94668e-01,1.49866e-01,-1.56136e-01,1.01295e-01,2.22052e-01,3.40375e-01,-1.43662e-01,1.93440e-01,1.06122e-01,6.63386e-02,4.76110e-02,-5.99540e-02,5.90718e-02,
5.39170e-02,-4.26605e-01,4.73143e-02,1.17082e-01,-1.57373e-01,1.85142e-01,-5.37840e-02,-2.40046e-01,-2.43546e-01,2.01601e-01,1.31148e-03,6.26429e-02,-4.99658e-02,9.20788e-02,-7.14326e-02,2.95226e-01,-2.65034e-01,-2.08144e-01,-1.13833e-01,9.22391e-02,-3.26522e-01,-1.28157e-02,3.38421e-02,-1.22428e-01,7.93724e-02,4.57441e-02,2.52300e-01,-2.58937e-01,-9.31870e-02,6.98818e-02,1.23704e-03,-1.56932e-01,1.01721e-01,-1.08158e-01,-9.98185e-03,-4.30912e-02,1.87521e-01,-7.74594e-02,-3.40388e-01,-2.46635e-01,1.74642e-01,2.59433e-02,9.00973e-02,-2.36850e-01,-1.90016e-01,-1.46657e-01,-2.27298e-01,8.38354e-02,-2.46279e-01,-4.32659e-02,-1.97052e-01,5.72040e-02,-3.12048e-01,1.19012e-01,1.26407e-01,-1.62315e-01,3.92815e-02,3.28375e-01,-2.44807e-01,3.30813e-01,2.77726e-02,-4.34404e-02,-1.84704e-01,9.84449e-02,
2.15857e-01,-2.40442e-01,-1.80205e-01,-1.58040e-01,-1.90836e-01,-8.51643e-02,2.16582e-01,1.00537e-01,-1.68314e-01,1.71423e-02,-4.11550e-02,2.31247e-01,-1.20111e-01,9.67681e-02,1.99712e-01,-3.54398e-01,1.52076e-02,7.10495e-02,-3.03598e-03,3.47785e-02,-1.11171e-01,-2.02703e-01,1.89416e-01,3.35913e-01,-5.18801e-02,2.35625e-01,1.43637e-01,1.59401e-01,3.16170e-01,-1.83475e-01,9.51964e-02,2.29633e-02,-2.29606e-01,2.58800e-01,4.10971e-03,9.05693e-02,-2.90158e-02,2.42542e-01,1.43775e-01,3.00767e-02,-1.44458e-01,-5.08198e-02,-2.63820e-01,6.73071e-02,-2.39580e-01,6.85640e-02,-3.67320e-02,2.81764e-02,7.69351e-02,-1.72357e-01,-1.56511e-01,3.26064e-01,1.58280e-01,-9.34982e-02,2.05441e-01,1.16269e-02,-7.31258e-02,-1.12426e-01,-2.13549e-01,2.60652e-01,9.16215e-02,-2.00929e-01,-3.90848e-01,2.40891e-01,
9.56380e-02,-2.82150e-01,1.07651e-01,1.26370e-01,-3.07205e-03,5.05904e-02,-1.71192e-01,-1.73055e-01,4.46971e-01,-3.37564e-01,2.42722e-01,-2.45783e-01,-1.32358e-01,6.18748e-02,3.08892e-02,-6.18417e-02,7.30335e-02,-1.37243e-01,-1.46006e-01,2.26276e-01,-1.86238e-01,-2.17496e-01,-1.85648e-01,-2.36505e-01,-1.36110e-01,-9.47861e-02,-1.09137e-01,3.02265e-01,1.83009e-01,-3.97590e-01,-1.89185e-01,8.89315e-02,-1.15777e-01,4.19547e-02,1.34746e-02,1.29705e-01,-1.83794e-02,1.99974e-01,-1.08999e-01,6.57636e-02,9.08142e-02,3.61167e-02,-2.66148e-01,3.47839e-01,4.07430e-03,-3.60210e-02,1.86650e-01,-1.26795e-01,-3.76460e-01,-1.66199e-01,-7.41714e-02,-1.59759e-02,-2.28446e-01,-9.57361e-02,-2.36106e-01,5.10382e-02,1.72438e-01,1.44692e-01,-7.35865e-02,5.55473e-02,-3.25064e-02,-4.45407e-02,1.65438e-01,2.91587e-02,
-1.00705e-01,1.18576e-01,-9.58286e-02,2.62758e-01,1.45629e-01,2.17499e-01,-1.17481e-01,-3.50243e-01,1.72769e-02,3.35489e-02,-1.36673e-01,2.39754e-01,-3.11827e-01,-4.46689e-01,-2.07355e-02,-1.08461e-02,1.87243e-01,1.49262e-02,2.81084e-01,-1.72499e-01,-2.81622e-01,-9.23043e-02,-1.02137e-01,-3.65652e-02,1.27729e-01,-8.67578e-02,-8.94028e-02,1.99450e-01,1.97145e-01,1.07185e-01,-1.01883e-01,-1.05402e-01,1.52598e-01,-7.27975e-02,-1.58776e-01,3.60024e-02,-1.17973e-01,1.05693e-02,1.94349e-01,8.86867e-02,5.02635e-02,-2.78574e-02,-1.68616e-01,1.03483e-01,1.19464e-02,2.69523e-01,-1.56259e-01,8.39631e-03,3.58413e-01,-1.38194e-01,-2.26808e-01,-7.69702e-02,-2.34551e-01,2.45686e-01,-1.87546e-01,-2.27054e-01,-7.04387e-02,7.26850e-02,2.20974e-01,1.22525e-01,-1.17052e-02,-2.10536e-01,-3.04751e-01,-2.40847e-01,
-1.09281e-01,2.19668e-01,1.03232e-01,3.95624e-01,-3.13118e-03,-3.39092e-01,2.45050e-01,-3.28970e-01,-1.82461e-01,-3.33816e-02,7.65975e-03,2.18617e-02,1.26727e-01,2.24002e-01,8.50325e-02,-1.53134e-01,-5.16295e-02,1.43426e-01,2.77148e-02,2.83846e-01,-7.11969e-02,-4.33780e-02,-4.48201e-01,-1.01033e-01,3.07945e-01,4.00100e-01,-1.11925e-01,6.54743e-02,-1.18700e-02,-2.49554e-01,3.15406e-01,2.74895e-02,-1.47416e-01,2.43928e-01,8.69025e-02,1.24215e-01,-5.53048e-02,-8.00344e-02,2.82392e-02,-1.94771e-01,-3.00331e-02,4.06388e-02,7.42722e-02,-1.66511e-01,3.18037e-01,-1.21419e-01,-2.08285e-01,1.43109e-02,-5.02730e-02,-8.74030e-02,-1.35404e-03,-1.49076e-02,2.11041e-01,3.32011e-01,-1.85324e-01,2.72599e-02,-1.11037e-01,5.44340e-02,1.14147e-01,1.34235e-01,-1.67470e-01,8.03342e-02,7.98294e-02,-6.26208e-03,
-7.39579e-02,-2.41246e-01,2.91331e-01,1.69663e-01,9.48941e-02,-1.99436e-01,-2.93070e-01,-7.16448e-02,-1.43691e-01,1.35886e-01,-1.45891e-01,-1.64333e-01,-1.93310e-03,-1.14952e-02,-3.73106e-02,-2.08625e-01,1.21341e-01,2.40604e-02,1.71946e-01,1.10794e-01,-2.08945e-01,1.17870e-01,1.50127e-01,-1.09526e-01,3.07356e-01,-4.95676e-02,-4.01063e-01,-4.33879e-02,9.25999e-04,6.83784e-02,2.73298e-01,-3.63821e-02,2.57452e-01,1.33781e-01,-2.19263e-01,-1.18532e-01,2.01112e-02,4.56785e-01,-1.27312e-01,-3.52368e-02,1.78523e-01,-2.46094e-01,-1.34343e-01,1.48761e-03,-3.15919e-01,-2.31952e-01,-8.78291e-02,-4.41818e-02,-7.37476e-02,1.46048e-01,1.42147e-01,-7.25979e-02,-4.18404e-02,-3.53219e-01,6.76517e-02,1.70858e-02,-5.63563e-02,-3.17761e-01,4.96306e-02,-2.07016e-01,-1.36311e-01,1.05719e-01,-2.01375e-01,4.87778e-02,
-3.75272e-02,-2.16883e-02,9.41353e-02,8.73383e-02,7.16340e-02,-2.27684e-01,-4.98040e-02,1.73071e-01,4.55710e-02,7.33899e-02,-6.55353e-02,-5.13236e-02,1.00496e-01,-1.17978e-01,-3.44020e-02,1.09665e-01,2.11202e-01,-1.73316e-01,-2.23376e-01,2.68772e-02,-4.48911e-01,-4.25950e-02,2.65261e-01,1.55759e-01,1.28600e-01,2.28408e-01,3.07975e-01,-8.82293e-02,4.65835e-01,3.54426e-02,1.19748e-01,-1.06890e-01,2.31349e-01,-2.28042e-01,-4.15557e-02,-6.18508e-02,-1.25979e-01,-4.44078e-02,-1.65446e-01,6.61346e-02,2.73599e-02,-3.50060e-02,5.98345e-02,9.31212e-02,2.88841e-01,1.75829e-02,7.21717e-02,2.27280e-01,-6.22689e-02,-3.16267e-01,3.10828e-01,-1.12370e-01,1.51217e-01,1.97390e-01,-1.29485e-01,-2.12727e-01,1.80185e-01,-1.53401e-01,-1.53902e-02,-6.53207e-02,1.62370e-01,-1.37822e-01,1.96169e-01,2.44652e-01,
-3.02476e-01,-3.54091e-02,-8.34349e-02,2.05382e-02,2.84421e-01,-6.02122e-02,-7.41621e-02,-1.51793e-01,-1.36630e-01,-5.38411e-02,1.51129e-01,2.31720e-02,-1.20787e-03,1.51181e-02,5.85688e-02,-1.89340e-01,-2.19670e-01,-2.50040e-01,-4.51156e-02,-2.42090e-01,-8.47205e-02,2.16383e-01,1.74711e-01,-1.91641e-01,8.10000e-02,-5.73475e-02,-5.11532e-02,3.35944e-01,-1.91554e-01,2.72524e-01,2.43360e-01,-9.82445e-02,-3.49610e-01,2.09983e-02,-1.38748e-02,-1.05021e-01,-1.63895e-01,3.31144e-02,-6.65862e-02,-1.47253e-01,1.19163e-01,-4.99967e-02,1.38948e-01,1.98883e-01,-5.23260e-02,-1.97320e-01,6.55798e-01,2.95155e-01,9.70607e-03,7.51729e-03,-1.83620e-01,1.04564e-01,2.26871e-01,1.48893e-01,-6.30600e-02,1.78928e-03,-5.01432e-02,-1.89927e-02,-1.71191e-01,1.36514e-01,2.66109e-01,-1.51521e-01,2.31691e-02,-1.21139e-01,
