// Neural Network File Format by Kyle Julian, Stanford 2016
7,2,1,64,
2,64,64,64,64,1,4,1,
0,
-3.4028235e+38,-3.4028235e+38,
3.4028235e+38,3.4028235e+38,
0.0,0.0,0.0,
1.0,1.0,1.0,
2.10281e-01,1.18352e-01,
-1.58727e-01,-2.19629e-02,
2.93527e-01,2.43372e-01,
-2.07894e-01,-2.29833e-01,
1.56874e-01,-1.32601e-01,
-2.97197e-01,-8.23860e-02,
6.89617e-02,-3.99030e-01,
-2.74980e-02,3.36444e-01,
1.37366e-01,-1.11190e-01,
-4.57262e-01,1.00358e-01,
-1.62713e-01,-2.09246e-01,
-3.92813e-02,-6.25144e-02,
2.56709e-01,-2.81830e-02,
-1.42627e-01,-6.18647e-02,
-5.39436e-02,-3.72213e-01,
-1.75720e-02,-2.00846e-01,
-4.21128e-01,-1.18813e-01,
-1.78846e-01,8.59338e-02,
1.87844e-01,1.08430e-02,
-1.16777e-01,1.23119e-01,
1.28825e-04,-1.10780e-01,
-2.63048e-01,6.87183e-03,
-1.37426e-01,2.99672e-01,
2.12479e-01,-1.44544e-01,
1.61436e-02,1.84808e-01,
1.35705e-01,-1.05086e-01,
8.60688e-03,-1.78469e-01,
-9.78937e-02,-7.25046e-03,
-2.17572e-01,-1.60935e-01,
-2.80848e-01,2.95270e-01,
2.26085e-02,-2.79996e-04,
1.93361e-02,4.76282e-01,
-9.45683e-02,-1.99090e-01,
1.23194e-01,-3.12387e-01,
-1.09518e-01,-1.58368e-02,
7.01739e-02,-4.34268e-02,
1.13828e-01,1.60084e-01,
-3.04831e-02,-7.66532e-02,
2.46443e-01,1.38447e-01,
-3.31169e-03,5.37425e-04,
-1.40246e-01,-2.12274e-01,
-3.55776e-02,1.36172e-02,
2.56530e-02,-7.76037e-02,
-2.31474e-01,2.09797e-01,
-9.78737e-02,-4.34069e-02,
1.90263e-01,-1.86026e-01,
2.02299e-01,-1.49614e-01,
1.51261e-01,1.04476e-01,
1.23029e-01,-7.19979e-02,
6.43802e-02,8.01250e-02,
-8.16385e-03,2.76957e-01,
-2.24365e-01,-4.92802e-02,
1.51777e-01,7.16158e-03,
-3.23577e-02,-2.82841e-02,
-8.83888e-02,2.81140e-01,
-2.87590e-04,9.88700e-02,
-1.03258e-01,-2.24677e-02,
-2.87271e-02,3.74461e-02,
-2.10629e-01,-1.30395e-01,
1.05161e-01,-2.01189e-01,
1.21747e-01,-1.17639e-01,
1.80400e-01,6.13693e-02,
1.62208e-01,7.45742e-02,
-1.64178e-02,-1.47535e-01,
2.02086e-03,
1.17638e-04,
-5.94989e-03,
5.25628e-04,
2.72909e-04,
-1.16300e-04,
3.84621e-03,
-1.64020e-03,
5.28353e-03,
-7.64393e-06,
-1.01055e-04,
1.09303e-03,
-2.67233e-03,
-5.69667e-04,
7.13586e-04,
2.75760e-03,
-2.33023e-04,
6.81853e-05,
-5.02265e-03,
6.91859e-05,
-7.76298e-04,
4.01289e-06,
-1.29945e-04,
-2.55864e-03,
-2.72603e-03,
2.71048e-03,
1.69322e-03,
-7.54432e-05,
1.58954e-04,
-2.12796e-04,
3.75373e-04,
-3.70155e-04,
-1.51447e-04,
5.94546e-03,
-2.47525e-04,
1.87936e-03,
-2.09587e-03,
7.62719e-04,
-3.11733e-03,
-1.81295e-03,
4.88232e-04,
3.93974e-05,
-8.96039e-04,
1.12389e-04,
-2.18035e-04,
-8.89245e-04,
-3.18028e-04,
-2.73816e-03,
-5.90050e-04,
-2.83994e-03,
-3.88061e-03,
-1.76546e-04,
-9.34939e-04,
-5.50932e-04,
-5.45183e-04,
-3.29967e-03,
1.51097e-04,
9.15050e-05,
-4.21812e-04,
1.66383e-03,
-2.04310e-03,
-3.75823e-03,
-4.13460e-03,
-1.32502e-03,
1.74065e-01,-9.28382e-02,1.11638e-01,4.71220e-03,1.16350e-01,-1.86108e-01,2.50720e-01,1.95240e-02,2.47579e-01,-3.07351e-01,-3.97640e-02,4.06730e-02,1.12024e-01,-1.60690e-01,2.66199e-03,-3.27607e-02,-2.01024e-01,-1.39611e-01,2.34819e-01,6.31800e-02,1.57907e-01,9.46030e-03,-1.10357e-01,2.09469e-01,9.61504e-02,-2.25741e-02,-1.80098e-01,-9.62901e-02,9.90856e-02,-7.41147e-03,3.35068e-01,-9.24872e-02,-1.96092e-01,2.75481e-01,2.00986e-02,-1.50620e-01,1.83912e-01,2.45121e-01,5.39593e-02,1.95767e-01,2.47055e-01,-1.27842e-02,1.17935e-01,3.86042e-02,-2.20490e-01,-1.37722e-01,8.42318e-02,-3.02345e-02,-1.61913e-01,2.26609e-01,3.81886e-01,3.48060e-02,-3.28384e-01,9.43914e-03,2.75350e-01,2.05344e-02,1.08865e-02,-2.04407e-02,4.22125e-01,-1.47934e-01,-1.66096e-01,-1.77190e-01,-3.14539e-01,-9.09157e-02,
1.17186e-01,3.53276e-02,9.07970e-02,4.99545e-02,-2.14801e-02,5.15575e-02,2.02401e-01,-3.32088e-02,-2.04634e-01,2.44438e-01,1.50268e-01,1.67407e-01,1.02544e-01,-4.57839e-02,-7.77207e-02,-2.28765e-02,-7.98841e-02,1.62764e-01,-3.01727e-01,2.25910e-01,-1.80511e-01,1.99123e-02,6.35130e-02,-2.40031e-01,1.97048e-01,-4.90595e-02,1.02421e-01,-1.22527e-01,-3.76897e-01,1.73329e-01,-3.03793e-02,3.47598e-01,-6.90133e-02,1.38507e-01,1.95113e-01,3.04772e-04,2.19164e-01,1.52372e-02,5.97063e-02,2.67903e-01,5.58362e-02,2.06867e-01,-1.29791e-01,1.57259e-01,-4.21130e-01,-5.75830e-02,6.51109e-02,2.06023e-02,3.27870e-02,-1.11785e-03,-1.04424e-01,-1.70108e-02,3.68392e-02,1.64947e-01,-3.97538e-01,2.28552e-01,1.18636e-01,2.45887e-01,4.73648e-01,1.89380e-01,-9.37559e-02,-1.89409e-01,2.00414e-01,-2.37238e-02,
-3.35485e-02,-1.19511e-01,2.84874e-01,1.17504e-01,-5.46465e-01,-2.19204e-01,3.39199e-02,1.56716e-01,-1.59666e-01,-5.14688e-02,-1.53564e-01,3.22478e-03,-3.65312e-02,4.47798e-02,-1.05286e-01,1.16924e-01,9.23735e-02,-1.91409e-02,-1.36878e-01,-1.60723e-01,-3.59498e-02,-9.55963e-02,-1.78164e-01,-3.95026e-02,2.35888e-01,2.54023e-01,-3.37284e-01,-1.91894e-01,1.67884e-01,-3.66909e-01,7.73642e-02,3.91941e-01,6.55347e-02,1.71479e-01,5.39457e-02,-6.19851e-02,6.30607e-02,-4.51697e-02,-1.48257e-01,9.93877e-02,-1.23374e-01,-2.87753e-01,-2.17057e-01,3.50046e-02,-2.39555e-02,1.86163e-01,-4.16624e-02,-1.55678e-01,-1.31714e-01,-2.25499e-01,-1.39665e-02,-7.78505e-02,-2.23915e-02,-2.06079e-01,-1.47828e-01,-3.40856e-01,6.59593e-03,-1.01803e-01,1.57266e-01,-1.26125e-01,1.39346e-01,2.53059e-01,3.47867e-02,-2.36296e-01,
-1.44638e-01,1.57901e-01,-5.76729e-02,-1.98558e-01,3.05551e-02,-6.20006e-02,-1.88840e-01,-1.23160e-01,-9.96500e-02,-1.31638e-01,6.46180e-02,2.98751e-01,3.11046e-02,4.43612e-01,-9.74565e-02,2.69630e-01,-3.29109e-01,1.06862e-01,2.53174e-01,-2.10622e-01,4.06099e-02,-2.39115e-01,1.01032e-01,2.48378e-01,2.61695e-01,-1.30495e-02,6.56847e-02,-2.31887e-01,3.84272e-03,5.29331e-02,-2.15737e-01,-4.21158e-01,4.31832e-03,-1.59582e-01,3.32773e-01,3.91384e-02,3.25595e-01,-2.17651e-02,8.44169e-02,3.10006e-02,-1.56263e-01,7.47364e-02,-1.68059e-01,-2.67549e-01,9.01455e-02,8.13861e-02,-2.39395e-01,-7.87906e-02,-1.59806e-02,-1.47011e-02,2.48964e-02,-8.98253e-02,-8.45670e-02,-9.09774e-02,-6.86762e-02,-1.70365e-01,1.40721e-01,-2.89591e-02,3.25275e-01,1.78985e-01,3.69425e-02,3.95897e-02,1.08185e-01,1.88074e-01,
-4.82008e-02,8.03286e-02,3.61808e-01,-6.98733e-03,2.09223e-03,9.51979e-02,2.13759e-01,-1.30773e-01,6.25602e-02,-1.64493e-01,4.90652e-02,7.64470e-02,-3.54443e-01,-1.87196e-01,-5.63848e-03,2.14050e-01,7.49495e-02,-2.47918e-01,6.27226e-03,-1.95166e-01,6.24992e-02,-7.74409e-02,-4.14269e-01,-1.63235e-01,-6.47433e-03,-1.11975e-02,3.37136e-01,-8.32569e-02,2.69449e-01,3.58718e-01,-1.79190e-01,4.10668e-02,-1.11876e-01,1.20403e-01,-2.63791e-01,-1.89063e-01,7.28408e-03,2.45036e-02,-3.23639e-02,1.03786e-01,-1.27784e-02,-7.64120e-02,1.75566e-02,-1.19373e-01,1.55264e-01,1.18201e-01,-5.10106e-02,9.78475e-02,-5.62366e-03,-5.68899e-02,-4.59845e-02,3.98190e-01,-1.19204e-01,-5.42490e-02,-1.68694e-01,-1.29233e-01,5.14057e-02,1.14600e-01,-3.28088e-02,-4.78742e-02,-4.39774e-01,-6.82119e-02,3.92366e-01,2.53231e-01,
-1.32063e-02,3.34994e-02,-3.00398e-01,1.30060e-01,-1.17465e-01,1.32047e-02,9.51352e-02,6.13567e-02,4.75255e-01,-2.52668e-01,4.51697e-03,2.06304e-01,-1.18868e-01,-3.91357e-02,-8.15109e-02,-1.49630e-01,2.10249e-01,6.12286e-02,-2.64959e-01,-1.69360e-01,1.50874e-01,-9.35606e-02,1.72286e-01,-1.69799e-01,1.94857e-01,2.78223e-02,1.81962e-01,1.34421e-01,8.24377e-02,2.92386e-02,-2.10999e-01,4.00574e-01,-1.61733e-01,-1.99022e-01,-1.55849e-01,9.21793e-02,3.83333e-02,4.71988e-02,2.00769e-01,1.81008e-01,-1.01926e-01,-1.96978e-01,9.57212e-02,-3.48134e-01,-8.26205e-03,1.13176e-01,-1.40113e-01,2.99786e-01,-1.01247e-01,-5.81480e-02,6.93763e-02,-2.62949e-01,-2.45993e-01,-1.35893e-01,9.41736e-02,2.51645e-01,-1.01744e-02,-2.20214e-03,9.91141e-02,2.18515e-01,2.96648e-01,-2.77460e-02,-2.10245e-01,1.99895e-01,
-1.54262e-01,9.04360e-02,1.50027e-01,2.75184e-01,-1.84360e-01,-3.80653e-01,-2.63734e-01,-2.18315e-01,-9.48868e-02,1.18259e-01,-9.32173e-02,2.21897e-01,-2.73509e-01,-1.39016e-01,9.55297e-02,3.97997e-01,2.72140e-01,1.63420e-01,6.08297e-02,-1.88450e-01,-2.64027e-01,1.09709e-01,4.29289e-01,3.81276e-03,6.97070e-02,-1.34593e-01,-3.65503e-02,-1.18827e-01,-9.77009e-02,-2.52293e-02,-3.87130e-02,-4.86085e-02,4.36884e-02,5.63832e-03,1.48213e-01,-1.06134e-01,-3.12768e-01,1.67584e-02,3.27201e-02,1.37837e-01,3.71136e-01,1.39948e-01,-6.39200e-02,-6.01968e-02,-5.91431e-02,2.99612e-02,-1.61604e-01,1.04513e-01,-1.21130e-01,1.57344e-01,-1.47376e-01,6.31321e-02,-3.02728e-01,-9.53862e-03,1.01472e-01,2.23400e-01,-8.73513e-02,-8.06403e-02,-1.02197e-01,-2.06019e-01,-2.74827e-01,-1.96968e-02,-2.29560e-01,8.90983e-03,
-1.33007e-01,-2.73247e-01,-1.49243e-01,-1.59298e-01,-1.93257e-01,3.29847e-01,-2.28174e-01,9.87205e-03,-4.03892e-02,1.06387e-01,4.58487e-01,-2.35094e-02,4.17894e-02,1.67842e-01,1.27839e-01,-6.32781e-02,-4.86323e-02,9.30654e-04,-3.04726e-01,7.02189e-02,2.21021e-02,-3.06800e-01,6.55641e-02,1.49163e-01,1.27040e-01,3.65233e-01,3.03848e-02,-9.92917e-02,8.49756e-02,1.12296e-01,4.00089e-02,-2.88249e-02,4.23410e-02,1.07082e-01,3.42510e-03,1.73378e-01,-6.00745e-02,-2.36287e-01,3.09070e-02,2.18277e-01,-1.15176e-01,-1.00064e-01,-3.37871e-01,4.46357e-02,2.01928e-02,1.39705e-01,1.43043e-01,1.55453e-01,-1.44473e-01,9.47175e-02,2.33790e-01,8.52324e-02,-1.96355e-01,5.22912e-02,3.37935e-01,1.21121e-01,1.42048e-01,1.53684e-01,-2.26250e-01,-2.11213e-01,-3.85704e-01,-1.93510e-01,-6.66651e-02,-1.91790e-01,
2.56377e-03,-8.53158e-02,-2.00140e-01,4.08170e-01,4.25687e-02,-1.45689e-01,-3.94092e-02,2.09785e-01,3.62206e-02,3.65235e-01,3.88125e-02,-1.18162e-01,-8.19918e-03,8.00194e-02,-1.21240e-01,1.59218e-03,3.29009e-02,1.62980e-01,1.82175e-01,2.19765e-02,-1.21301e-02,9.86180e-03,-9.88357e-02,-9.30440e-02,-1.76381e-01,1.82538e-01,6.01356e-02,-3.54784e-02,-1.38794e-02,2.40667e-01,1.86175e-03,-3.81466e-02,2.11438e-01,-2.65731e-02,2.48726e-01,2.02629e-01,-8.01980e-02,1.97209e-01,2.65016e-01,3.22679e-01,-2.82678e-02,-2.65931e-01,3.55442e-01,-1.29989e-01,-4.61068e-02,1.15320e-01,-2.03907e-01,-3.23261e-02,1.27015e-01,1.00195e-01,1.86015e-01,2.94543e-01,9.06216e-02,-2.54146e-01,7.74302e-02,2.39535e-02,2.57084e-02,-3.78552e-01,5.33651e-02,-2.14205e-02,2.73317e-02,-1.90880e-01,3.96003e-01,-3.00965e-01,
-4.14207e-02,2.66115e-01,-9.00582e-02,-4.39730e-01,-6.82330e-02,4.18028e-02,2.64653e-01,2.40264e-02,3.96617e-02,2.98759e-01,3.16270e-01,-7.42109e-02,-1.75825e-01,8.78061e-02,-1.90458e-02,3.21717e-02,1.22848e-01,-3.00451e-01,3.77852e-02,-1.36527e-01,-1.86749e-02,8.28408e-02,2.12637e-01,1.23692e-01,-7.02198e-02,-9.42323e-02,8.03390e-02,2.07565e-01,8.22199e-02,-1.70229e-01,1.14435e-01,-1.77426e-01,3.37731e-02,3.27834e-01,-2.37825e-01,-4.17981e-02,-2.42892e-01,8.61037e-02,3.09884e-01,4.15572e-01,1.95433e-01,-1.37918e-02,-2.88901e-01,9.90580e-03,-2.13957e-01,-1.83158e-01,-2.45764e-01,-1.43466e-01,-9.44813e-02,-9.83761e-02,3.67626e-02,-1.77427e-01,-7.26143e-02,-3.56228e-02,-1.69729e-01,-1.77005e-01,-1.33914e-02,-1.01924e-01,-1.05289e-01,-4.65324e-02,3.25670e-01,-7.57414e-02,1.74308e-01,5.75868e-03,
1.80140e-01,3.71184e-01,-2.37303e-01,9.84197e-02,-1.74858e-01,-1.16495e-01,-4.62025e-03,-1.16242e-01,1.24442e-01,-6.25383e-02,-1.46893e-01,-2.20692e-01,4.29706e-01,-4.08832e-02,-2.08273e-01,-1.90263e-01,4.26947e-02,3.67055e-02,1.19317e-01,4.50474e-02,5.46951e-02,-4.16500e-02,-2.07031e-01,-1.63388e-01,1.55838e-01,-5.44445e-02,2.24071e-01,-2.24727e-01,-7.71417e-02,1.80783e-02,-3.48070e-01,-2.23892e-01,-9.12672e-02,1.78697e-01,2.71449e-01,-2.33051e-01,-1.93950e-01,-1.86241e-02,-2.11608e-02,-4.58422e-02,-2.70931e-02,-3.16208e-02,-8.52337e-02,1.52303e-02,-8.38113e-02,1.84155e-01,-1.73979e-01,1.46157e-01,1.31673e-02,-1.95765e-01,2.91815e-01,-1.31915e-01,-1.20977e-01,2.29967e-01,-2.05826e-01,-4.35916e-02,-2.22607e-01,2.56697e-01,-2.72745e-01,-4.08583e-01,2.38761e-02,-8.27425e-02,-7.17997e-03,-1.53701e-01,
3.29318e-02,-1.70860e-01,4.81634e-03,7.03292e-02,1.37765e-01,1.17915e-01,2.56728e-02,1.60860e-01,-8.67411e-02,1.70524e-01,1.07948e-01,-4.11366e-02,-1.73930e-01,-1.48252e-01,5.90866e-03,5.71007e-02,2.93258e-02,-1.10378e-01,-1.43594e-01,-8.73436e-02,-1.80068e-01,5.78327e-02,-1.29402e-01,1.94558e-02,3.71878e-01,3.04903e-02,-2.52043e-01,2.41377e-01,-2.03476e-01,5.50645e-02,-2.02619e-01,-2.55194e-01,-1.79361e-01,1.92345e-01,-1.19164e-01,-1.84826e-01,-2.70751e-01,5.96475e-02,1.01525e-01,-1.66560e-01,-2.42567e-01,3.04995e-01,9.18996e-02,-1.19066e-01,1.41017e-01,4.69621e-01,2.42261e-02,2.81648e-01,1.44042e-01,3.40566e-01,-6.58851e-02,-2.16513e-01,1.31975e-01,-9.03511e-02,6.01788e-03,-3.50038e-01,-7.81255e-02,-5.45244e-02,3.17253e-01,-1.00612e-01,1.14164e-01,-2.53964e-01,-1.52953e-01,-1.04042e-01,
1.01915e-02,-9.05103e-02,-1.82464e-01,-3.81838e-01,2.33220e-02,-2.66424e-01,1.10206e-01,3.30893e-01,-3.23310e-01,-2.61256e-01,9.04666e-02,2.15229e-01,-1.36237e-01,-2.25917e-02,-4.16344e-02,7.39453e-02,1.54587e-01,-3.36039e-02,-1.26201e-01,1.91114e-01,6.67121e-03,-4.01117e-02,2.37195e-02,-4.70234e-02,-1.43540e-01,1.83692e-01,2.05302e-01,3.22900e-02,-8.25082e-02,-1.55830e-01,8.26192e-03,1.99359e-02,-1.29770e-01,-5.39118e-03,2.40461e-01,-2.99175e-01,2.85929e-01,4.51416e-02,5.12231e-02,1.30202e-02,-2.18342e-01,2.23200e-02,3.18487e-01,3.58089e-01,-5.66379e-02,9.07443e-02,-2.56048e-01,3.27918e-02,2.48209e-01,1.85564e-01,-8.37117e-02,1.31408e-01,-3.87587e-01,-3.73469e-02,-1.23225e-01,-1.30544e-01,3.54229e-02,-1.41064e-01,-4.09449e-01,1.03063e-01,-1.73071e-02,-8.73542e-02,-1.82572e-01,-5.84837e-02,
-7.51780e-02,1.54323e-01,-1.72403e-01,1.20631e-01,-3.91931e-01,1.89874e-01,-1.18590e-01,1.79683e-01,-7.46429e-03,2.63627e-01,-4.99952e-02,1.08453e-01,4.41114e-02,7.89304e-02,2.31697e-01,1.41398e-01,-1.06139e-01,-1.22560e-01,9.28639e-02,5.07408e-02,-2.10026e-01,-1.63115e-01,-4.52650e-01,1.14949e-02,2.41677e-01,-4.66376e-02,-1.51301e-01,3.04279e-01,2.58723e-01,1.97598e-01,3.26431e-01,8.02525e-03,-1.02988e-01,-8.18629e-02,6.86687e-02,9.78048e-02,-2.73074e-02,2.13321e-01,-1.33495e-01,-1.12305e-01,4.94980e-02,-3.51655e-02,6.08720e-02,1.45071e-01,8.14604e-02,-3.20827e-01,-2.95935e-01,6.92179e-02,3.42533e-01,1.59629e-01,5.98958e-02,-2.07251e-01,-2.02480e-01,-4.68473e-04,-2.38235e-01,2.75535e-01,1.36590e-01,2.98488e-02,-1.11314e-02,-1.60436e-01,1.60576e-02,6.56782e-02,-6.11148e-02,2.59420e-01,
-2.11178e-02,3.32486e-01,-1.79429e-01,-1.09319e-01,1.89488e-02,9.13560e-02,5.69419e-02,-1.27370e-01,-4.72603e-02,-1.40451e-01,-4.38706e-01,3.96799e-03,-2.32989e-02,1.22090e-01,-1.37242e-01,-1.94546e-01,3.72561e-01,-1.35233e-01,-5.49893e-02,1.39625e-01,-1.35557e-01,-1.29391e-01,3.54036e-02,2.52202e-01,-1.11126e-02,2.36512e-01,-1.74224e-01,1.45532e-01,-3.17777e-01,2.33898e-01,2.96105e-01,1.22243e-01,6.64791e-02,-2.67555e-03,1.27747e-01,-1.55765e-01,-4.41831e-02,1.94590e-01,-9.42038e-02,1.56934e-01,3.04330e-01,7.27270e-02,-1.60161e-01,-1.94730e-01,2.19199e-01,1.44641e-01,1.29043e-01,1.21031e-01,3.31292e-01,-2.50908e-01,7.92320e-02,-1.09907e-01,1.31756e-02,-1.79592e-02,1.78214e-01,-2.39778e-01,1.36634e-01,-5.02656e-02,-1.16462e-02,3.18567e-01,-3.06893e-01,-4.28461e-03,1.12440e-01,-6.48213e-02,
1.22997e-01,-2.54841e-01,1.99870e-01,-1.61137e-01,5.28757e-02,-1.94573e-01,-5.45218e-02,-9.37153e-02,6.56220e-02,-1.29973e-01,6.76516e-02,-1.08761e-01,-1.21064e-01,1.25003e-01,-4.82102e-02,-3.17863e-01,4.33195e-01,9.45954e-03,-3.84128e-01,-3.50204e-01,-2.46334e-01,2.21732e-02,-3.46705e-01,-1.96893e-02,3.65236e-03,1.52004e-02,1.84768e-01,-2.35869e-01,8.65338e-04,-1.66703e-02,1.79156e-01,-3.84984e-01,1.15193e-01,-2.25405e-01,8.21758e-02,2.18596e-01,-1.92236e-02,1.15238e-01,2.44564e-01,-1.33887e-01,1.51931e-01,-1.63991e-01,-1.99818e-01,1.98572e-01,8.60288e-02,6.30217e-02,-6.77510e-02,-1.73675e-01,2.12523e-01,-3.45064e-02,8.88172e-02,1.74022e-03,6.93901e-02,1.97301e-01,-1.44982e-01,2.23034e-01,-1.34261e-01,-1.47749e-01,2.59064e-01,3.23329e-02,2.26579e-02,-9.60296e-02,-2.03003e-01,8.38606e-02,
3.65391e-01,1.95204e-01,9.30262e-02,9.04878e-02,5.90167e-02,-1.72318e-01,1.09862e-01,1.02055e-01,2.55466e-01,1.79355e-01,1.24606e-01,1.27665e-01,8.70541e-02,-1.93728e-01,1.41144e-01,1.94171e-01,3.97893e-02,-1.02276e-01,-7.62717e-02,1.45432e-01,-6.64556e-02,-1.57727e-01,-7.68649e-02,8.45174e-02,1.51282e-01,1.95183e-01,3.13444e-01,3.76241e-01,-1.05085e-01,-9.86604e-02,6.07294e-02,-8.29161e-02,8.29775e-02,1.19870e-01,2.06840e-01,3.77240e-02,-8.91335e-02,1.40832e-01,1.10334e-01,-3.39919e-01,-1.34236e-01,1.58697e-01,-9.59869e-02,-4.44188e-02,3.18233e-01,1.73779e-01,-6.99559e-03,-4.17998e-01,-3.35914e-01,-2.27988e-01,-1.33248e-01,1.52333e-01,-1.55543e-01,-2.02465e-02,1.39368e-01,2.56803e-01,2.26017e-01,1.20693e-01,1.54654e-02,1.87093e-01,8.48934e-03,2.06883e-01,-1.16919e-02,-2.58212e-01,
-9.95112e-02,1.96949e-01,1.29046e-01,-1.90677e-01,1.25781e-01,-1.32253e-01,-2.13814e-01,1.65679e-01,1.05641e-01,6.08247e-02,5.46480e-01,-3.15857e-01,2.48435e-01,-1.07446e-01,1.79648e-01,-1.69751e-01,1.52803e-01,2.72028e-01,1.47013e-01,-3.23347e-01,-3.01573e-02,-3.47638e-01,1.71097e-02,-9.97514e-02,1.97810e-01,-2.85994e-01,-8.04131e-02,6.65591e-02,3.34557e-02,-2.98545e-01,-9.69376e-02,2.94726e-01,-1.57939e-01,-8.65818e-02,1.97944e-02,-8.29671e-02,4.92007e-02,-7.91012e-03,-1.77353e-01,5.68394e-02,3.20265e-01,1.69199e-01,1.09794e-01,-3.43660e-02,1.09853e-01,3.09317e-02,3.97592e-02,2.84266e-02,4.07065e-01,-4.11282e-02,1.04102e-03,2.57545e-01,-6.64344e-02,-2.38933e-02,8.50819e-02,-8.28639e-02,9.82523e-02,1.97419e-02,3.39557e-02,6.58391e-02,-3.09106e-02,5.44849e-02,5.16015e-02,-7.19518e-02,
1.81598e-02,-3.82907e-02,3.26336e-01,2.77451e-01,4.30273e-01,1.80122e-01,1.61296e-01,-1.98569e-01,1.27607e-01,-1.73251e-02,8.21094e-02,6.81681e-02,1.27742e-01,1.11678e-01,-1.48901e-01,2.99763e-01,3.76912e-02,-1.81593e-01,-2.92438e-01,-3.94887e-02,6.80297e-02,-1.76032e-01,1.63334e-02,6.67132e-02,9.62658e-02,2.74260e-01,6.20796e-02,-1.01485e-01,4.97013e-02,-1.75771e-01,2.87533e-04,1.19538e-01,-6.80481e-02,-2.32715e-01,2.42202e-01,-4.28036e-02,-2.83465e-01,5.23955e-02,6.51121e-02,-1.12012e-01,1.03199e-02,-1.03991e-02,4.33001e-02,-2.24018e-04,-1.74389e-01,-5.58873e-01,-3.49517e-01,2.74387e-01,1.59123e-01,2.00604e-02,4.40840e-03,-9.81984e-03,1.65035e-01,1.68179e-01,1.33024e-01,-3.13703e-01,1.58237e-01,6.07140e-02,-1.13928e-01,-1.22981e-02,8.54885e-02,4.70927e-02,-5.56906e-02,-2.13695e-01,
-2.13648e-01,-2.93234e-02,-8.65261e-02,-2.50828e-01,2.13153e-01,-1.69004e-01,9.54534e-02,1.18573e-01,-3.02576e-02,-4.88809e-02,-4.36054e-02,2.23232e-01,5.51956e-02,1.62709e-01,3.43392e-01,1.19332e-01,4.78837e-02,6.42116e-02,8.42955e-02,-2.52922e-01,-3.60793e-01,2.76761e-01,-2.47358e-01,-1.49362e-01,-4.18695e-02,4.37819e-02,-4.23147e-01,-1.26503e-01,-1.76225e-01,1.64754e-01,-5.24668e-02,1.59178e-01,-3.46510e-01,8.17747e-02,-2.15208e-02,1.59779e-01,-6.99155e-02,-1.26480e-01,3.22944e-01,-3.02953e-01,-1.73369e-02,-1.75739e-01,1.54187e-01,-2.62096e-01,-1.45762e-01,-6.77396e-02,6.82805e-02,-1.15864e-01,-1.21236e-01,-2.40542e-01,1.31384e-01,-7.68702e-02,-1.43454e-01,2.63694e-01,1.25384e-01,3.34564e-03,1.35737e-01,1.98050e-01,-2.06141e-01,6.02235e-03,1.10113e-02,-8.17181e-02,2.10320e-01,-1.62851e-01,
-1.50701e-01,1.86044e-01,2.15033e-01,1.61311e-01,-1.38027e-01,1.11716e-01,1.60521e-01,-9.27596e-02,-6.56779e-02,-2.91824e-01,2.74189e-01,2.35428e-02,1.64115e-01,-7.49233e-02,-7.00514e-02,-1.88971e-01,-2.71962e-01,-2.48526e-01,5.93763e-02,-2.47203e-01,-2.48719e-01,2.14301e-01,-2.49887e-02,9.07565e-02,1.92474e-01,1.93724e-01,1.39740e-01,-5.58274e-02,-2.89156e-01,-1.34952e-02,1.21362e-01,2.93440e-01,3.62605e-01,-1.52402e-01,-1.65369e-02,9.47044e-02,1.39696e-01,3.67676e-02,1.29682e-01,-1.66698e-01,1.10175e-01,3.04419e-01,6.81441e-02,-9.80244e-02,1.38595e-02,1.05831e-01,-2.90879e-03,-1.76337e-01,-9.01808e-02,4.00722e-01,2.30633e-01,-2.00054e-01,6.08795e-02,-1.65719e-01,-8.71101e-02,5.11134e-02,-1.86953e-01,-1.36371e-01,-4.34240e-01,5.38855e-03,-1.97022e-02,-5.13405e-02,1.06384e-01,5.54612e-02,
-4.22300e-01,-3.00930e-01,2.61418e-01,-6.09282e-02,6.53477e-02,-6.15849e-02,-1.83764e-01,-7.93556e-03,-9.83270e-02,1.68116e-01,2.53337e-02,5.74980e-02,3.96243e-01,-6.62162e-02,1.83225e-01,-6.62768e-02,8.80741e-02,-8.99094e-03,-5.96560e-02,8.84953e-02,-8.84363e-02,8.37065e-02,-9.20888e-02,6.15417e-02,-1.97720e-02,9.52263e-02,1.01115e-01,2.20426e-01,-2.47724e-02,-7.68871e-02,-1.90856e-01,-4.07072e-02,3.37232e-01,9.72889e-02,2.15832e-01,-2.71959e-01,-1.49052e-01,2.90937e-01,6.31391e-02,2.26518e-01,-7.46326e-02,-9.55953e-02,2.87201e-01,6.61410e-02,1.80551e-01,-1.56421e-01,2.18099e-01,1.82670e-01,-2.95913e-01,-2.29403e-01,2.78421e-01,-1.15734e-01,-1.45019e-01,2.98361e-02,-5.42066e-02,-1.29665e-01,-1.84053e-01,1.15005e-01,9.10197e-02,2.26840e-01,3.22170e-02,7.48446e-02,1.34260e-02,4.29116e-01,
-7.70814e-02,-1.10988e-01,-9.28729e-02,3.14340e-01,-2.18672e-01,8.45267e-02,-1.70201e-01,-3.29947e-01,6.82023e-02,-1.00279e-01,-2.18508e-02,-2.86097e-01,-2.83877e-01,-2.21490e-01,1.03656e-01,1.01680e-01,-4.84259e-02,-2.62191e-01,-2.35043e-02,3.08480e-03,-1.06763e-01,9.25795e-02,-1.36059e-01,4.38781e-02,-6.63547e-02,-1.03002e-01,-1.01099e-01,9.61683e-02,-4.90597e-02,-4.33786e-01,-2.24318e-02,-1.52419e-01,-2.11240e-01,1.03561e-01,2.28867e-01,-2.43643e-01,3.43287e-01,-2.49966e-01,2.49849e-01,2.25098e-01,-1.93891e-01,6.61773e-02,-5.65240e-02,2.71899e-02,7.49522e-02,-5.57627e-02,6.35200e-03,5.64100e-02,2.08609e-01,7.65794e-03,7.68405e-02,-6.90418e-02,-1.35603e-02,3.45700e-01,2.36087e-01,2.57791e-01,-3.32402e-02,-2.88361e-02,-5.15316e-02,3.01336e-01,9.79912e-02,5.49383e-02,3.64166e-01,-6.11801e-02,
1.32017e-01,1.22555e-01,1.68517e-01,4.48391e-02,-6.35928e-02,7.65801e-02,1.84822e-02,7.76460e-02,-2.15873e-01,1.23689e-01,-1.00785e-01,-2.43512e-02,4.71767e-02,3.08301e-02,8.32858e-02,2.42924e-01,7.11752e-02,1.02501e-01,2.07515e-01,8.96614e-02,-2.18039e-01,3.48824e-02,-8.09884e-02,-2.20611e-01,-1.99321e-01,2.02828e-02,2.39816e-01,-2.56687e-01,-8.04083e-02,4.30781e-02,1.68273e-01,2.44236e-02,-1.93008e-01,-3.27830e-01,-3.66039e-01,2.13238e-01,-2.30891e-03,6.25883e-02,1.07702e-02,4.02301e-01,-1.64988e-01,3.57733e-01,-5.39588e-02,2.09311e-01,1.95038e-01,2.35764e-01,-7.94231e-02,1.75189e-01,-1.22475e-01,-6.90165e-02,3.61033e-01,-4.20104e-02,-6.74139e-03,2.78301e-01,2.13851e-01,-1.66172e-01,1.95613e-01,9.57549e-03,-2.32000e-02,2.93224e-02,2.50366e-01,2.08640e-01,-2.58602e-01,5.06709e-02,
6.63648e-02,6.19668e-02,1.35767e-01,-2.36448e-01,6.42617e-02,-9.35832e-02,-1.04089e-01,9.48573e-02,-3.67323e-01,1.41194e-01,1.32458e-02,1.71386e-02,-4.59516e-03,-2.94487e-02,-3.87835e-01,-1.41829e-01,-1.60558e-01,-4.04291e-01,-1.09407e-01,-1.16341e-01,-3.75357e-02,-3.58344e-02,5.38145e-03,4.77260e-02,-8.17968e-02,-7.32913e-02,-9.38028e-02,7.61238e-02,1.21729e-01,4.68420e-02,-2.58791e-01,4.66580e-02,-3.70757e-01,1.37204e-01,1.89759e-01,2.10318e-01,-1.19798e-01,1.53425e-01,-2.57171e-01,-6.49804e-02,1.64263e-01,-1.38447e-01,9.59188e-02,1.17660e-01,-1.68356e-01,2.36439e-01,-2.78718e-01,2.10192e-01,-2.24075e-01,-8.89063e-03,7.37408e-02,-1.17624e-01,2.54619e-01,-5.58206e-03,3.12453e-01,4.08508e-01,-5.88327e-02,-1.16590e-01,-4.71151e-02,1.88257e-01,-1.54989e-01,2.83290e-01,4.22192e-02,9.47189e-02,
2.66224e-01,1.04605e-01,-2.11023e-01,-4.12810e-02,-1.81040e-01,-1.21214e-01,-2.92094e-02,4.09423e-02,2.10476e-02,1.96493e-01,-1.21296e-01,2.17945e-01,2.09915e-01,-1.78408e-01,2.93689e-01,1.26574e-01,-2.42055e-02,1.10246e-02,-1.34182e-01,-3.87058e-01,-1.26001e-01,-2.05598e-01,-1.05676e-01,-9.08414e-03,-3.55653e-01,2.11912e-01,2.76464e-01,1.47366e-01,-4.68892e-02,4.60287e-02,-2.31313e-01,1.00818e-03,-2.21330e-02,-1.65378e-01,-1.45733e-01,-3.16790e-01,1.04640e-01,-3.79043e-01,-1.78562e-01,-1.31221e-01,1.47785e-01,-2.29201e-02,-8.15587e-02,1.51801e-01,-2.15002e-01,-2.05463e-01,5.47936e-02,-7.51547e-02,-5.63885e-02,1.22387e-01,2.13868e-01,-2.28036e-01,1.49811e-01,-1.14587e-01,2.54790e-01,-1.92716e-01,-1.20398e-01,-2.97795e-01,2.54898e-01,5.33996e-02,-1.19471e-01,-1.54013e-01,1.10903e-01,8.16577e-03,
9.92053e-02,-1.79477e-01,-3.28173e-01,-1.32249e-01,8.97346e-02,-1.79690e-03,-3.86680e-01,-1.84287e-01,-4.21460e-02,-1.86771e-01,3.95578e-02,-6.93307e-02,1.46690e-01,-2.89787e-01,3.41302e-02,8.82427e-02,3.13880e-01,-1.22595e-01,2.20110e-01,1.74755e-01,-1.91393e-01,8.34711e-02,-2.05394e-01,4.48052e-01,4.88290e-02,-6.22886e-02,1.42629e-01,7.09445e-03,-1.22651e-01,-1.08578e-02,5.83017e-02,4.30372e-01,3.91314e-02,1.03995e-01,1.10867e-04,2.74275e-01,1.16231e-01,-1.15967e-01,-4.24222e-03,-3.50429e-02,1.37742e-02,-2.72876e-02,-5.14767e-02,2.00272e-02,3.12311e-02,-2.48805e-02,-4.83302e-01,1.10009e-01,-2.97774e-01,-1.96501e-02,-2.25825e-01,1.79368e-01,1.63218e-01,2.05615e-02,-1.48600e-02,-1.98520e-01,-2.69472e-02,3.89277e-02,1.82287e-01,-1.93097e-01,9.56196e-02,-2.34682e-01,3.46579e-02,1.61721e-01,
6.54147e-02,-1.42545e-01,-1.26773e-01,1.19025e-01,1.20568e-01,-7.78936e-03,2.07747e-02,-2.53963e-02,-3.68923e-01,-5.61069e-02,-6.10172e-03,2.36731e-01,8.10210e-02,-1.84735e-01,-1.48917e-02,2.60920e-02,-3.42919e-01,7.45273e-02,-1.08831e-01,2.54691e-01,1.78789e-01,-2.71022e-02,-4.64997e-02,-2.75458e-01,2.38985e-01,3.78092e-03,-3.44736e-03,1.90201e-01,2.22667e-01,-2.26399e-01,2.68135e-02,8.20800e-02,-1.90628e-01,-2.22495e-01,2.94863e-02,1.09567e-02,-1.25611e-01,1.05364e-02,3.17472e-01,1.40969e-01,4.02813e-01,-3.15177e-02,-1.49761e-01,-1.04684e-01,1.55392e-01,2.00348e-01,-6.78869e-02,-4.20799e-01,1.36940e-01,-2.99180e-01,9.09341e-03,-1.54153e-02,1.28740e-01,1.59467e-01,1.87872e-01,-1.52029e-01,-1.26560e-01,-1.84614e-01,-9.87100e-02,-1.77289e-01,-7.88742e-02,-2.96803e-01,2.76675e-03,3.46092e-01,
-1.26272e-01,1.49091e-01,-2.20549e-01,-7.88288e-02,1.28858e-01,3.03653e-01,-6.53631e-02,-3.39071e-02,3.37911e-01,8.61616e-02,7.05834e-02,-1.27087e-02,-3.62678e-02,6.19294e-03,-2.33711e-01,2.51932e-01,-4.18047e-02,2.08247e-01,-3.63161e-01,3.31464e-02,-2.99029e-01,2.12743e-01,-3.77274e-03,2.33360e-01,2.49953e-01,-1.19807e-02,-4.66518e-02,3.74963e-03,-6.28409e-02,1.72864e-01,6.32012e-02,1.77264e-02,-3.58757e-01,-7.52040e-02,5.80183e-02,-2.00126e-01,1.03007e-01,-2.58857e-02,-8.24472e-02,1.11583e-01,-1.78201e-02,-3.90906e-02,1.17260e-01,1.28391e-01,-5.76332e-02,1.43802e-02,1.59444e-01,-2.54749e-01,-1.30556e-01,-9.71437e-02,2.09269e-01,4.05633e-01,7.24307e-02,-5.41033e-03,-1.06181e-01,-7.53387e-02,-3.61900e-01,-3.55460e-01,-5.18056e-02,-1.44882e-01,2.81448e-02,4.32625e-01,-9.84444e-02,8.01571e-02,
6.18579e-02,1.28607e-01,3.37631e-02,-9.27362e-02,-1.22800e-01,4.03497e-01,-1.34848e-01,2.83934e-02,-2.13772e-01,4.08653e-02,-1.27485e-01,-1.09285e-01,-2.64529e-01,-1.04002e-01,6.20143e-02,-2.44484e-01,-1.50394e-01,1.87606e-02,1.80682e-01,-2.22336e-01,-5.77817e-02,3.50739e-02,5.24182e-02,-1.26774e-01,2.69625e-01,3.12240e-01,4.60727e-02,-1.79311e-01,-3.03574e-02,6.65003e-02,6.95926e-02,-1.13588e-01,3.25766e-02,-1.23333e-02,1.00270e-01,-4.24871e-01,5.97148e-02,-1.04420e-01,1.57484e-01,-1.23542e-01,3.42313e-01,-1.06971e-01,2.42563e-01,1.47535e-01,4.01191e-02,-1.00141e-01,-2.52896e-02,1.70699e-01,-2.73668e-01,-2.77109e-01,-8.42986e-02,3.11601e-01,1.30946e-01,-1.65188e-01,7.04464e-02,1.56822e-01,3.24872e-01,5.05839e-02,1.73627e-02,4.25713e-02,4.06958e-01,-2.23953e-01,-2.06580e-01,-2.44034e-02,
-8.23067e-02,-3.78753e-01,1.90216e-02,1.26095e-02,1.62322e-04,6.40938e-02,1.96515e-01,1.00746e-01,-1.97455e-01,-1.26798e-01,-1.32292e-01,5.15459e-02,1.78943e-01,-2.00050e-01,-2.72364e-01,1.97388e-02,1.75954e-01,2.57212e-02,1.99956e-01,-6.55715e-02,-3.09654e-01,-1.22225e-01,1.17061e-01,4.08109e-01,-1.29810e-01,1.69964e-01,2.29753e-02,1.46895e-01,9.71197e-02,-1.21729e-01,-1.74779e-01,-1.08774e-01,-2.55775e-01,-3.37108e-01,-1.23348e-01,-2.15472e-01,-1.92061e-01,7.05686e-03,-1.86743e-01,1.45034e-01,-1.05162e-01,8.90878e-02,-1.35374e-01,-2.93400e-01,-1.26141e-01,-4.34898e-02,1.33558e-01,-2.14822e-01,1.43589e-01,-5.43187e-02,1.28893e-01,1.19091e-01,2.57134e-02,-1.43535e-01,-2.73353e-01,4.40297e-01,2.25371e-01,1.70275e-01,-3.83114e-02,-1.97726e-01,1.52788e-01,-1.48990e-01,7.32466e-02,-4.05526e-02,
2.22409e-01,2.03973e-01,-4.93599e-02,-1.60779e-01,-1.81171e-02,1.56860e-01,3.35989e-01,-2.69551e-01,-7.17013e-02,-7.19155e-02,5.91314e-02,1.41403e-01,-1.20486e-01,-2.81660e-01,2.55697e-01,-1.05655e-01,1.09109e-01,2.81191e-01,-2.33119e-02,5.25392e-02,-1.93117e-01,-3.00676e-01,-3.69968e-02,1.34168e-01,1.34194e-01,-2.08987e-01,-3.88247e-01,-3.27533e-01,2.16573e-01,-1.72124e-02,-1.92971e-01,8.28766e-03,3.17297e-01,-5.72382e-02,4.25158e-02,-3.30674e-02,-1.16880e-01,3.72933e-01,-9.27717e-02,8.21821e-02,-4.64516e-01,7.50748e-02,1.07776e-01,1.47899e-01,-1.07413e-01,-6.03117e-02,-7.09328e-02,-8.42985e-02,-6.02300e-02,-1.17780e-01,-2.90393e-02,-4.98660e-02,1.09698e-01,-7.97261e-04,2.97051e-01,1.34475e-01,-6.71902e-02,-2.34027e-01,-1.24415e-01,6.91266e-03,1.90276e-03,-1.72155e-01,1.14027e-01,7.98737e-02,
-2.36138e-01,-7.47700e-02,-8.84050e-02,8.58120e-03,1.93316e-01,-1.22485e-02,1.19597e-01,-1.16895e-01,1.02365e-01,3.40508e-01,-4.16463e-02,-2.88129e-02,2.34968e-01,-6.20143e-02,-9.68742e-02,-1.31270e-01,1.68848e-01,-2.91923e-02,1.15498e-01,4.65200e-02,2.07618e-01,2.65571e-01,-1.63005e-01,-1.29254e-04,1.32433e-01,2.73511e-01,-8.46960e-02,-2.01965e-01,-4.69542e-02,-1.22783e-01,-3.05076e-01,-2.62515e-02,-6.56495e-02,-6.34183e-02,-2.75911e-01,-5.04000e-02,3.49860e-01,1.12661e-01,2.35835e-01,-8.62655e-02,3.97282e-02,2.44723e-01,-1.76341e-01,2.23961e-01,7.35167e-02,-9.15494e-02,-2.82735e-02,1.38672e-01,2.27342e-02,-1.82124e-01,-3.00652e-01,-2.23302e-01,-1.92158e-01,-2.12133e-01,5.01277e-02,1.87760e-01,2.97192e-01,-4.20609e-01,2.39746e-03,-2.64085e-01,-2.79388e-01,2.05561e-01,3.78309e-02,1.76088e-02,
-1.70745e-01,-1.64670e-01,1.12174e-01,-1.89551e-01,-2.68260e-02,2.83836e-01,-3.58761e-02,1.10615e-01,-1.55441e-01,-1.51080e-01,-1.91614e-01,-2.91809e-01,2.49440e-01,-3.56893e-01,2.85984e-01,4.84993e-02,-2.16621e-01,1.58954e-01,-1.17414e-01,-4.43413e-02,-3.24437e-02,-8.33308e-02,6.69853e-02,-1.28083e-01,-1.92278e-02,1.15248e-01,1.92266e-01,-9.23158e-02,-1.04156e-01,1.70223e-01,1.74647e-01,-1.97088e-01,-3.98360e-02,6.47648e-02,-1.73566e-01,8.95427e-03,4.91150e-02,1.86237e-01,3.39559e-02,8.52882e-02,-1.28629e-02,-1.20109e-03,-3.65736e-02,-3.74393e-01,-1.56353e-01,-4.15883e-02,-4.62287e-01,-5.12641e-02,1.38394e-01,-1.26004e-01,-3.03777e-01,-9.09883e-02,-1.59745e-01,-1.04491e-01,1.13254e-01,7.74769e-02,-4.55440e-01,1.17243e-02,9.11456e-02,1.06727e-01,-7.01977e-02,2.79287e-01,-1.32809e-02,-3.25213e-01,
5.46135e-02,5.93004e-02,-1.03357e-02,1.20357e-01,2.72803e-01,8.30435e-03,-1.13538e-01,4.43825e-01,1.57182e-01,9.00338e-02,9.04417e-02,-1.06286e-01,-7.95170e-02,-2.70738e-01,-1.34942e-01,-1.38490e-01,-3.12566e-02,-1.17203e-01,1.64465e-01,5.20833e-02,-1.78785e-01,9.45245e-02,-2.17645e-01,-1.09955e-01,-4.06030e-02,1.88787e-03,-1.46176e-01,-3.41807e-01,-3.99767e-03,1.08618e-01,-1.00668e-01,2.69338e-02,1.07975e-01,1.20100e-01,1.85750e-01,-1.40618e-01,-1.75185e-01,-3.97003e-01,-7.19784e-02,3.16258e-01,-1.69371e-01,-4.33800e-02,-2.76276e-01,-2.12638e-01,2.80042e-02,-2.05426e-01,-1.58032e-01,-3.27141e-01,3.24965e-02,6.37719e-02,-5.17303e-02,-1.49042e-01,2.07789e-02,-1.00294e-01,-1.58687e-02,-4.12242e-02,1.55464e-01,-2.70370e-02,-1.24201e-01,3.51730e-01,-1.98540e-01,3.65644e-02,-4.43921e-01,2.69484e-01,
-1.96795e-01,2.88909e-01,-1.16635e-01,2.46131e-01,3.06748e-02,2.41187e-01,6.07364e-02,-6.22261e-04,-2.38033e-01,-5.04696e-03,2.60882e-01,3.08955e-01,4.60148e-01,-1.22958e-01,-1.00330e-01,1.96946e-02,1.87834e-01,-1.66063e-01,-7.13414e-02,-3.99243e-01,1.28871e-01,3.15363e-01,5.39600e-02,-1.53450e-01,-1.83780e-01,-3.18449e-01,-2.26236e-03,6.88047e-03,-6.77165e-02,-1.24299e-01,4.54051e-01,-1.47399e-01,-8.50541e-02,-3.07134e-02,7.67212e-02,-1.42540e-01,8.36042e-02,1.03525e-01,-1.79565e-01,3.13653e-02,-3.52443e-01,-3.41367e-01,-1.26088e-01,-3.68471e-02,1.13725e-01,1.25897e-01,4.85557e-03,4.85665e-02,-5.75774e-02,-5.88758e-02,-1.60399e-01,1.31766e-01,1.89974e-02,-2.70429e-02,1.17992e-01,3.29458e-02,1.25718e-01,-4.01402e-02,1.20859e-01,-5.38727e-02,-6.14747e-02,-2.02482e-01,-8.54806e-02,-5.32239e-02,
-4.60181e-01,9.26153e-02,1.14554e-01,7.32706e-02,-3.03125e-01,-1.00818e-01,2.18748e-01,-8.03076e-02,-6.22544e-03,-1.50946e-01,5.15917e-02,7.35206e-03,1.44367e-01,-2.52749e-01,-2.88380e-01,-8.56978e-02,-1.45439e-01,3.11507e-01,-2.94001e-01,1.20402e-01,8.80634e-02,-8.29414e-02,-2.88405e-01,1.97231e-01,-1.98922e-01,-1.44996e-01,-1.51181e-01,7.23633e-02,-5.51909e-02,2.30482e-01,-1.78997e-01,-1.91962e-01,-8.02373e-02,7.86004e-02,-6.43466e-02,2.14652e-01,-1.39850e-01,-2.36125e-01,-1.26831e-01,-1.22109e-03,2.64921e-01,1.14768e-01,-4.96634e-04,1.01756e-01,2.24831e-01,-8.54152e-02,-1.68185e-01,-2.68463e-02,-1.77941e-01,8.40848e-02,-8.34029e-02,1.09426e-01,-2.30563e-01,1.40186e-01,4.66995e-02,-1.04755e-01,2.66704e-01,-2.34509e-01,-4.21107e-03,2.49992e-01,3.22027e-01,-1.91479e-01,-1.20115e-02,-1.64007e-01,
1.67343e-01,1.17251e-01,3.68674e-01,-3.37323e-01,-1.01046e-02,8.68353e-02,-3.52837e-01,-1.50380e-01,1.37978e-01,4.07683e-02,-1.26055e-01,-1.41604e-01,3.23946e-02,1.16087e-01,-4.44817e-02,2.48753e-01,-1.62499e-01,1.70192e-01,-2.10750e-01,-3.76515e-02,3.55705e-01,8.59502e-02,-2.75158e-01,2.21765e-01,-1.35655e-01,-8.63298e-02,7.53785e-02,-5.55927e-03,-2.82281e-01,-5.82604e-02,1.88938e-01,1.96427e-01,1.40143e-02,-3.66469e-02,2.68675e-02,-1.77837e-01,-2.74056e-01,-1.29804e-01,2.46371e-02,1.79878e-01,-1.63565e-01,-5.42897e-02,3.43187e-01,-1.29245e-01,-1.21136e-01,2.14093e-01,4.74330e-02,-1.45106e-01,9.86098e-02,-5.24972e-02,-1.44922e-01,-3.45795e-01,-7.08486e-02,-3.04412e-02,-2.75657e-02,2.51400e-01,2.80475e-01,-2.07864e-01,-6.34966e-02,-2.03146e-01,-1.37845e-02,-2.34096e-01,-7.90510e-03,9.03146e-02,
2.41389e-02,1.12376e-01,-2.08769e-01,-2.31642e-01,-1.45878e-01,-3.26866e-01,1.26799e-01,-2.71899e-01,-2.02441e-01,2.38440e-01,6.21422e-02,-3.07954e-02,1.56390e-02,-2.50273e-01,-5.36423e-02,7.69645e-02,-2.97324e-01,-2.58031e-01,-1.08420e-01,1.41262e-01,-4.12583e-02,-1.07144e-02,-1.57296e-01,3.72876e-02,-5.60098e-02,3.98085e-02,1.24708e-01,-3.29336e-01,-1.84504e-01,-8.12701e-02,3.77676e-02,1.03593e-01,5.64367e-02,-3.36395e-02,2.76941e-02,1.30223e-01,-2.18266e-01,1.21137e-02,1.39413e-01,-1.62937e-01,-9.41478e-02,-1.50685e-01,-1.12354e-01,-3.30573e-01,1.28815e-03,-1.40471e-01,4.20380e-01,2.63716e-01,3.70587e-01,7.83266e-02,-1.93070e-02,3.47992e-01,-1.63582e-01,-2.27006e-01,1.61937e-01,4.44651e-03,-3.67540e-02,2.61298e-03,1.13042e-01,-5.52729e-02,2.76680e-01,2.03789e-01,-1.47120e-01,2.00266e-01,
8.31286e-02,-3.49516e-03,2.32078e-01,1.57123e-03,4.21918e-02,-2.24496e-01,-2.49562e-01,6.17951e-02,1.32762e-01,6.96013e-03,-1.29991e-01,7.45968e-02,1.28697e-01,6.92965e-03,-1.27444e-01,8.39656e-02,-4.47547e-02,-1.36816e-01,2.21917e-02,4.39985e-02,3.32045e-02,-2.99674e-02,-2.78662e-02,-1.44528e-01,2.92746e-01,-5.31791e-02,-2.21982e-01,2.33084e-01,-9.33229e-02,1.12430e-02,1.99918e-01,-2.05729e-01,8.95980e-02,-9.20657e-02,-2.49733e-01,1.71351e-01,4.14725e-02,-2.15195e-01,-7.14467e-02,-6.69006e-02,-2.43852e-01,2.28801e-01,-2.08431e-01,8.49742e-02,-3.78764e-01,-8.38065e-02,-3.51336e-02,3.08049e-01,3.13204e-02,-4.44696e-01,1.66253e-01,3.30150e-01,-1.24676e-01,-2.52678e-01,-4.72800e-02,6.97483e-02,-2.44947e-01,-2.04669e-01,-2.40027e-01,2.90180e-01,5.86704e-03,-4.02005e-01,2.97716e-02,4.08763e-02,
7.87316e-02,1.42279e-01,-9.95239e-02,2.69834e-02,7.01989e-02,1.44980e-01,-2.35159e-02,-1.44467e-02,-4.59263e-02,3.81582e-02,7.09560e-02,-1.66920e-01,3.45469e-02,-8.60166e-02,-3.75208e-01,1.60102e-01,6.05365e-02,8.35136e-02,2.53922e-01,-5.05531e-02,-1.95074e-01,-6.41638e-02,1.11753e-01,-1.13773e-01,1.63057e-01,4.80055e-01,3.18547e-02,-9.11296e-02,1.57208e-01,-1.61739e-01,1.13322e-01,-9.04860e-02,4.32246e-03,-1.58585e-03,-1.42795e-01,1.84974e-01,-1.56695e-01,-6.78623e-02,-2.62036e-01,-1.03000e-01,2.09441e-02,-2.58909e-01,2.04124e-01,8.18615e-02,-6.43645e-02,1.15085e-02,2.61235e-01,-4.17691e-02,-5.68872e-02,1.07358e-01,-3.68287e-01,-1.89725e-01,-4.76604e-01,4.53286e-01,-1.21133e-02,-4.20894e-02,-2.03588e-01,-1.41919e-01,1.07394e-01,2.19462e-01,-2.78165e-02,-1.97593e-01,1.81733e-01,1.81216e-01,
1.37998e-01,5.02684e-02,-8.35734e-02,-3.32224e-02,-2.81835e-02,1.76660e-01,2.07751e-01,-6.26651e-02,1.20299e-01,-2.42996e-01,5.51554e-04,-8.89704e-02,3.30930e-01,1.08525e-01,3.25390e-01,4.14932e-01,1.23654e-01,-9.85167e-02,-3.15021e-02,9.14485e-02,8.32451e-02,-1.72994e-01,-4.58320e-02,-1.88878e-01,-1.68748e-01,1.89612e-01,-3.54557e-01,-1.80143e-01,-1.84893e-01,-2.29872e-01,-9.34633e-02,-1.64256e-01,-2.14841e-01,3.71634e-02,1.16307e-01,1.81952e-01,-1.40354e-01,-6.92898e-02,1.00679e-01,1.77618e-01,2.71703e-01,-6.84908e-02,2.59401e-02,1.52660e-01,2.53192e-01,1.05510e-01,5.73188e-02,1.31460e-01,-1.44605e-01,1.78045e-01,-9.68994e-02,7.86228e-02,2.27858e-01,-4.16773e-01,-3.53362e-01,2.17386e-01,-1.50155e-01,-3.57476e-03,-6.77991e-02,1.99405e-01,-5.52664e-02,-6.87891e-02,-4.36292e-02,1.49750e-01,
-1.58127e-01,3.68459e-01,-4.90444e-03,-3.82582e-02,1.55863e-01,8.90730e-02,-5.51732e-02,1.26839e-01,-2.25446e-02,8.58695e-02,-1.86253e-01,9.79890e-02,1.25865e-01,-1.27011e-01,2.59506e-01,-4.60025e-02,6.23352e-02,-8.87736e-02,-2.28294e-01,2.72217e-01,-6.06337e-02,1.31074e-01,-1.13445e-01,2.00647e-01,-4.93159e-02,-5.24753e-02,-4.52670e-02,-4.38188e-02,6.29563e-01,-1.87592e-01,2.90310e-03,-7.12972e-02,3.04859e-01,-2.70245e-01,2.36091e-02,-5.61388e-02,5.60183e-02,-2.38634e-01,2.17381e-01,-5.26213e-02,1.73989e-01,1.16463e-02,2.41689e-02,-1.98942e-01,-3.80181e-01,4.22440e-01,3.90370e-02,2.15880e-01,-8.27175e-02,1.87177e-01,-3.15687e-02,1.05064e-01,-2.09072e-02,1.56523e-01,-2.46896e-01,-3.69171e-03,9.52382e-02,-2.02562e-03,7.33925e-02,1.22475e-01,-5.69423e-02,8.54501e-02,-5.95962e-02,-1.83455e-01,
-2.59011e-02,-2.24016e-01,-1.05837e-01,-2.53303e-01,-1.89348e-01,6.54564e-02,-2.16558e-01,-8.60359e-02,6.68390e-02,-7.34811e-02,-1.63515e-02,2.84103e-02,1.91625e-01,-3.74652e-01,-3.76147e-01,3.65994e-01,1.88273e-01,-9.06609e-02,2.65165e-02,-1.29879e-01,-2.91545e-02,-2.26820e-01,1.31137e-01,-3.41703e-01,-3.06334e-02,-1.96430e-01,1.38984e-02,-2.53075e-02,3.66200e-01,3.68345e-01,1.19042e-01,1.32487e-02,8.35455e-02,1.77342e-01,2.30855e-01,6.04358e-02,1.34201e-01,8.56828e-02,3.36167e-01,-9.93986e-02,2.15673e-02,2.33771e-01,7.53504e-02,-3.94244e-02,-5.03610e-03,-1.13737e-01,3.66961e-01,-2.36352e-02,4.95111e-03,-2.70807e-02,-1.38422e-02,-2.44587e-01,2.38443e-01,6.73304e-03,-1.00438e-01,-1.01261e-01,1.88685e-01,-1.37120e-01,-1.59113e-01,2.51924e-02,1.23003e-02,9.59924e-03,-1.28166e-01,-1.75945e-01,
-6.34775e-02,3.30828e-01,1.00921e-01,1.90990e-01,3.67832e-01,3.21134e-02,1.74585e-01,-1.56942e-01,-4.55555e-01,-6.35008e-02,-4.55701e-02,-2.83156e-01,-7.37976e-02,-4.35545e-02,-2.75793e-02,5.47091e-02,1.58647e-01,1.93581e-01,-1.34530e-01,-8.66020e-02,-2.06323e-02,-1.39132e-01,1.69285e-01,6.41141e-02,-1.28942e-01,8.82075e-02,-3.37136e-02,2.25295e-01,1.91950e-01,1.29637e-01,5.51371e-02,8.91007e-02,3.95316e-02,3.33354e-01,8.54476e-02,2.09221e-01,1.40138e-01,-4.87046e-01,2.13907e-01,-1.18878e-01,-1.83871e-01,3.41133e-02,1.20525e-01,1.11193e-01,1.33453e-01,-6.74617e-02,-5.94462e-02,-5.26420e-02,1.32041e-01,-1.85288e-01,2.99670e-01,-1.44131e-01,-2.03288e-01,-3.11279e-01,-2.53603e-02,1.31177e-01,-1.07451e-01,6.81594e-02,1.90017e-01,-2.45528e-01,7.25406e-03,3.58119e-02,-1.45888e-01,1.63848e-01,
-5.97024e-01,1.29009e-01,-2.98391e-01,-1.59420e-02,9.37030e-02,-2.43404e-01,-6.63315e-02,-2.64527e-01,-9.05348e-02,-1.11476e-01,-5.15691e-02,-2.51272e-01,-1.59788e-01,7.51209e-02,9.63748e-02,-7.84341e-02,1.25064e-01,-2.70112e-01,4.45809e-02,7.29121e-02,8.42950e-02,-3.69924e-01,-1.44238e-01,-3.74399e-01,1.59134e-01,1.05525e-01,1.59645e-01,7.08100e-03,-5.01142e-02,-1.58129e-01,1.78878e-01,-4.28656e-02,-1.30379e-01,-7.88777e-02,-8.70272e-02,1.45849e-02,-2.19411e-01,1.27025e-02,-1.99606e-01,5.83679e-02,-1.90552e-01,2.19584e-01,2.31168e-01,-5.52273e-02,-3.17289e-01,6.54017e-03,-8.09630e-03,-3.27311e-01,-3.05370e-01,6.74513e-02,1.01138e-01,2.38776e-02,1.92455e-01,-1.97064e-02,-6.02966e-02,5.98101e-02,1.84663e-01,-1.30037e-01,2.02486e-01,-1.63724e-02,-9.83723e-02,-1.39803e-03,-9.01919e-02,-5.64778e-02,
8.48262e-02,-3.55906e-02,7.68405e-02,7.30507e-02,-5.72355e-02,-6.94873e-02,7.92501e-02,-3.52065e-01,8.09270e-04,1.56825e-01,2.77451e-01,-1.03850e-01,-6.44759e-02,1.40392e-02,-1.99161e-01,-6.85566e-02,-1.57872e-01,-3.19497e-02,1.24977e-01,2.49382e-01,-4.56093e-01,-2.46183e-01,-8.51633e-02,3.67034e-02,-7.13148e-02,-3.12223e-01,-2.73946e-02,1.27053e-01,-9.68644e-02,-3.67317e-02,4.20419e-02,-1.12729e-01,-1.06749e-01,-4.04218e-01,-2.03035e-01,-8.67643e-02,1.72671e-01,-7.82551e-02,1.95566e-01,3.36350e-02,5.94682e-02,-4.53032e-01,2.51520e-01,3.45028e-02,-1.27528e-02,5.44921e-02,-1.88287e-02,4.88192e-02,-1.70114e-01,-1.93778e-01,-1.27951e-01,-2.95434e-01,-7.54772e-02,-3.17240e-01,-9.79034e-02,-2.06706e-01,-3.06629e-04,1.78816e-01,-7.22554e-02,8.28703e-02,-2.95859e-01,-1.44611e-02,-2.26004e-01,-2.56136e-01,
2.63018e-02,3.22304e-03,5.73914e-02,-7.89659e-02,-1.27483e-01,2.88394e-01,-1.77551e-01,-2.33451e-01,8.71481e-02,1.74380e-01,-4.97434e-01,9.93412e-02,2.03627e-01,-4.47241e-02,-3.48440e-02,-3.09860e-01,-1.33403e-01,-1.86170e-01,4.81645e-02,-2.71701e-01,-1.32772e-02,-9.62370e-02,2.67238e-01,-8.12991e-03,-3.19386e-02,-8.64996e-02,-9.80953e-02,7.44221e-02,-5.15291e-02,-1.31177e-01,-2.41745e-01,1.81384e-01,-1.20690e-01,2.47610e-02,-9.95451e-02,2.04005e-01,-2.21473e-01,4.45805e-02,3.80897e-01,9.26051e-03,-2.46032e-01,-5.28898e-02,7.61341e-02,2.98670e-01,3.49010e-02,1.31317e-02,-1.32183e-01,-3.44825e-01,1.32459e-01,2.55452e-01,5.54869e-02,3.67637e-01,-2.65123e-01,3.96900e-02,-1.29266e-01,-2.03816e-01,9.67042e-02,6.60566e-02,8.23951e-02,1.64603e-01,-2.15669e-01,-9.72465e-03,-1.34415e-01,-3.17503e-02,
-3.39777e-02,3.54406e-01,1.13389e-01,2.79423e-02,-2.76351e-01,3.21341e-02,-2.00804e-01,2.28179e-01,-4.08646e-05,-2.31071e-01,8.17984e-02,-3.65183e-01,-7.77278e-02,-9.86525e-02,4.56960e-02,1.50662e-01,1.20030e-01,-1.37656e-01,-1.65313e-01,8.74940e-02,-4.22683e-03,4.09525e-01,3.73387e-02,3.86559e-02,-3.94710e-02,1.30069e-01,-5.33787e-03,9.83358e-02,7.27779e-02,5.52352e-02,-3.80124e-01,-1.57331e-01,-1.47741e-01,-3.15783e-01,1.79500e-01,3.39943e-01,1.12092e-01,3.30258e-01,9.10095e-03,7.94075e-02,-2.81239e-02,3.91847e-02,1.91582e-02,1.18862e-01,-2.77099e-01,-1.43522e-01,2.02996e-01,-2.32883e-01,6.58756e-02,-9.79807e-02,-1.03551e-01,-3.87146e-02,-3.62637e-02,-2.58227e-01,2.75765e-01,-2.31842e-01,9.72550e-02,2.94703e-01,1.10736e-01,-9.45994e-02,-4.71581e-02,-2.33723e-01,-2.68986e-02,7.06117e-02,
1.11248e-01,1.25856e-01,2.28384e-02,2.19813e-01,1.39007e-01,2.07817e-01,-2.38760e-01,6.85545e-02,-1.82062e-01,-7.55486e-02,1.77644e-01,2.03318e-01,-2.58400e-01,-1.37040e-01,7.53322e-02,-8.94344e-02,-1.09033e-02,-1.75769e-01,1.17287e-01,-1.85277e-01,2.31392e-01,-4.02200e-01,-2.39671e-01,6.31393e-02,-3.47095e-01,1.06747e-01,-2.45956e-01,1.98019e-01,-3.50990e-01,5.07961e-02,-2.39504e-01,-3.51026e-04,8.23841e-02,-5.97314e-02,5.89354e-02,1.66062e-01,1.75281e-01,2.10933e-01,5.89995e-02,1.38667e-01,6.98353e-02,2.20134e-02,-7.41772e-02,-1.62692e-01,-1.96349e-01,-3.95165e-02,2.32883e-01,4.32175e-02,-1.22776e-01,-1.79673e-01,-9.30160e-02,6.46078e-02,-1.76376e-01,3.18427e-01,-3.24766e-01,-3.61553e-02,-1.62081e-01,-2.13337e-01,-4.04628e-02,-2.34585e-01,1.09553e-01,1.61686e-01,-2.59776e-01,-1.03941e-01,
-2.70027e-01,8.82944e-02,-9.41734e-02,-2.65407e-01,5.93830e-03,-2.36695e-01,2.18351e-01,-1.97078e-01,1.76912e-01,2.11587e-01,-1.88142e-02,7.37715e-02,-2.16214e-01,-2.93454e-01,8.74794e-03,7.07037e-02,-2.76751e-01,1.84922e-01,2.23506e-01,-3.30710e-01,1.96814e-01,2.34110e-01,-1.05082e-01,1.16638e-01,1.45205e-03,3.65167e-01,-1.67818e-02,2.10710e-01,1.37781e-01,6.67515e-03,6.12864e-02,1.39769e-01,8.39710e-03,-1.85629e-01,2.22311e-01,1.67787e-01,1.25228e-02,-1.50197e-02,-1.15548e-01,2.49127e-01,-1.31314e-01,1.53160e-02,-4.79370e-02,1.96390e-01,1.75968e-01,5.60354e-02,-4.14490e-02,1.28463e-01,1.16006e-01,-1.33146e-01,-4.33267e-02,-4.64260e-02,3.24975e-01,1.35257e-01,-1.64777e-01,6.68377e-02,-2.56237e-01,2.59722e-01,6.98323e-04,7.77378e-02,-1.71601e-01,-1.83258e-01,-3.16611e-01,-2.72662e-01,
-1.69661e-01,1.76067e-01,-1.07807e-01,7.91041e-02,1.98730e-01,-2.29561e-01,-1.92610e-02,2.43460e-01,-1.64868e-02,-3.03867e-01,-2.10017e-01,-2.52334e-01,1.09818e-01,2.01067e-01,3.11453e-02,2.91531e-01,-3.89746e-01,-1.15443e-01,-1.64549e-01,-8.62574e-02,-3.81647e-01,-1.32543e-01,8.58028e-02,3.81379e-02,1.09638e-01,-1.18252e-01,1.30885e-01,1.14750e-01,-3.00089e-02,4.78009e-03,-2.70515e-01,1.22455e-01,2.93871e-01,2.17320e-01,-3.40320e-01,-9.19777e-02,8.71969e-02,2.19812e-01,6.81120e-02,1.52167e-01,-4.91310e-02,-3.16427e-01,-1.62886e-01,1.87178e-01,1.69254e-01,-6.82450e-02,1.03180e-01,1.01884e-01,8.89410e-02,-3.26447e-02,-1.53348e-01,6.83835e-02,2.06431e-01,2.45447e-01,-3.23123e-04,2.07823e-01,1.85891e-01,-1.80871e-01,-1.28063e-02,-1.03888e-01,-3.98549e-02,-1.92448e-01,-2.03147e-01,-1.19258e-01,
8.05972e-02,-7.28931e-02,1.63744e-01,1.19012e-01,-1.93781e-01,-1.47202e-01,5.48770e-02,-4.53644e-01,1.88950e-02,-1.41836e-01,3.35359e-01,-1.54156e-01,2.36860e-01,1.48980e-01,2.61711e-01,-4.96951e-02,4.58237e-02,5.97770e-02,2.23497e-01,1.29344e-01,8.42282e-03,1.65117e-01,1.59879e-01,-5.53572e-02,-7.77658e-02,3.23759e-01,-1.25672e-01,2.87516e-01,9.66637e-02,4.58957e-01,-7.62591e-02,4.58011e-02,-7.79446e-02,1.05879e-01,-4.43209e-03,-2.42200e-01,-4.15978e-02,2.23479e-02,2.97552e-02,-1.11612e-01,-1.17430e-01,-1.94668e-01,-1.73050e-01,-8.64115e-03,-3.52693e-01,2.65025e-01,-1.30929e-01,-6.73922e-02,2.16041e-01,1.68117e-02,-1.02697e-01,1.25136e-01,1.42786e-01,1.73365e-01,-1.05531e-02,-3.83810e-02,1.98202e-01,-2.30793e-01,-3.66760e-02,1.51490e-01,1.12416e-01,1.68256e-01,-2.73819e-01,2.28158e-01,
2.23652e-01,-7.69720e-02,-2.45264e-01,3.33405e-01,-1.10389e-01,-2.49236e-01,1.63008e-02,1.03054e-02,-3.16325e-01,2.51916e-01,-1.70879e-03,-2.60292e-01,5.23737e-02,-6.24743e-02,1.92967e-01,3.37498e-02,3.69791e-02,1.45949e-02,-3.01699e-01,-2.95255e-01,3.14570e-01,1.18362e-02,9.75387e-02,4.78028e-01,2.34211e-01,-3.87602e-02,4.89610e-02,-2.64534e-01,6.51882e-02,7.29078e-02,7.45049e-02,-9.22538e-02,-2.13955e-01,9.98382e-02,-2.61016e-01,6.66373e-02,1.34651e-01,1.61254e-01,-2.58202e-02,-6.92585e-03,1.21827e-02,4.64796e-02,2.64040e-01,-1.83246e-01,-1.43144e-02,-1.06676e-01,4.12496e-02,-7.48507e-02,-9.85562e-02,-1.10882e-01,6.20660e-02,-2.79360e-02,8.65530e-02,1.26487e-01,-2.89839e-01,-1.30102e-01,1.29451e-01,4.95970e-02,-3.11475e-01,3.44523e-01,-1.75395e-01,-8.08437e-02,-1.38998e-01,1.01601e-01,
2.82288e-01,1.82028e-01,1.08996e-01,-1.52057e-01,2.14481e-01,-3.17939e-01,-2.80336e-01,-2.86441e-01,-3.02880e-02,9.87721e-02,-1.29800e-01,-1.79100e-02,1.17603e-01,4.01238e-04,-6.00234e-02,-2.74819e-01,-4.74887e-02,1.29447e-01,-3.21017e-01,-3.35661e-02,-1.85630e-01,2.30757e-02,-2.21519e-02,-2.92628e-01,-3.52713e-02,2.86372e-01,-2.58148e-01,1.90707e-01,1.86463e-01,3.11427e-02,9.46691e-02,-1.08493e-01,-1.34897e-01,-8.50832e-03,-5.57403e-02,-6.51700e-02,3.21898e-01,1.35706e-01,-1.00149e-01,3.24275e-01,-1.03383e-01,3.85602e-02,-7.36558e-02,-3.15075e-01,2.55443e-01,-2.23487e-01,-4.03755e-02,1.76883e-02,-2.63500e-01,4.33612e-01,-1.53630e-01,7.32549e-02,-1.24723e-03,-4.46797e-02,-5.34240e-02,-4.47793e-02,5.56462e-02,1.31930e-01,-1.90499e-01,-1.94518e-01,1.71769e-01,-5.01236e-02,1.39929e-01,2.26806e-02,
-1.18699e-01,-4.93332e-02,-1.14521e-01,2.01737e-01,-2.08758e-03,-2.00274e-01,-2.79553e-03,9.89727e-02,3.41079e-01,-1.01187e-02,3.30391e-02,2.10647e-01,1.14086e-01,-1.15526e-01,-9.19589e-02,-9.22644e-02,-1.72193e-01,-1.73044e-01,-2.14678e-01,-1.84105e-01,-1.42139e-01,-2.68405e-01,1.08928e-01,9.02802e-02,-1.99811e-01,1.82711e-01,-1.99314e-01,-1.53165e-01,-7.30484e-02,7.37485e-02,2.17280e-01,-2.08631e-01,1.77620e-01,9.41962e-02,-1.20329e-01,3.14911e-03,5.90039e-02,-1.17890e-01,5.50394e-02,1.56257e-01,6.68424e-02,2.03470e-01,3.32657e-01,2.49576e-01,-1.98395e-01,3.07510e-01,-1.13690e-01,-6.04586e-02,1.87085e-01,-2.26932e-01,-3.13149e-01,1.32651e-02,1.15513e-01,1.18584e-02,1.70317e-01,-6.81402e-02,8.18623e-02,4.36704e-01,-3.13627e-02,-2.61529e-01,1.13392e-01,1.78068e-01,1.25708e-01,3.76389e-01,
-2.53709e-01,2.59894e-01,2.25180e-01,1.41354e-01,-9.34131e-02,-1.39747e-01,-7.03863e-02,2.98231e-01,3.47520e-02,4.81692e-02,-4.24656e-02,-8.36085e-03,3.47267e-03,9.03478e-02,-3.87612e-02,-1.93426e-01,6.13380e-02,2.41447e-01,1.47804e-01,1.29156e-01,7.10240e-02,-3.43775e-01,-3.85171e-02,2.75301e-01,-1.42792e-01,6.17693e-02,1.20141e-01,-1.11576e-01,2.74423e-02,7.07038e-02,2.44045e-01,1.34506e-01,-4.49113e-01,6.86211e-03,3.58280e-02,-2.12429e-01,-9.83656e-02,1.27149e-01,5.37407e-01,-1.89635e-01,-2.20714e-01,1.57023e-02,-2.75204e-01,1.16693e-01,-3.08213e-02,-8.97352e-02,1.84046e-01,1.02472e-01,-1.74513e-01,1.70922e-01,-2.90307e-01,-2.03766e-02,2.55631e-01,-7.50681e-03,8.71318e-02,1.34069e-02,-3.39502e-01,2.32830e-02,-6.20519e-02,5.01013e-02,-8.98344e-03,-1.27553e-01,8.80001e-02,1.70903e-01,
2.69968e-01,-3.35525e-02,-1.05769e-01,6.20005e-02,-1.81132e-01,-2.79657e-02,1.10442e-01,-5.44171e-03,-2.08651e-01,-2.66251e-01,6.00788e-02,1.43290e-01,1.96850e-01,4.64736e-01,-7.04435e-03,-2.15093e-01,9.20695e-03,-7.11964e-02,8.19530e-02,-1.60371e-01,-1.17122e-01,1.87706e-01,-2.71324e-01,8.79362e-02,1.38793e-01,-6.29278e-02,1.50238e-01,1.57305e-01,2.39268e-01,4.92507e-02,-4.36624e-02,1.29301e-02,-1.40789e-02,5.07252e-02,6.42690e-02,3.97007e-02,-2.85692e-01,-2.97271e-01,1.51618e-01,3.94652e-01,-6.61325e-02,3.95433e-01,2.86095e-01,-3.86498e-02,1.78942e-02,-2.43319e-01,2.11927e-01,9.29445e-02,-1.65975e-02,-1.24280e-01,-4.57122e-01,1.06506e-01,-2.48554e-04,-2.91570e-02,1.46358e-01,3.40630e-02,-1.79509e-01,-9.57323e-02,9.05448e-02,9.23820e-03,-1.17773e-01,2.02056e-01,-8.67074e-02,-2.02101e-01,
-1.07076e-01,7.77925e-02,2.25212e-01,-3.61461e-02,9.89380e-02,-1.44328e-01,-3.89575e-02,4.09006e-03,-8.70314e-02,7.56839e-02,-6.56874e-02,2.38583e-01,9.40467e-02,-1.49265e-01,2.40688e-01,-3.71582e-02,2.91748e-01,-4.17203e-01,6.37689e-02,1.98184e-01,2.60524e-01,-9.24294e-02,1.48840e-01,9.58638e-02,4.82197e-01,-8.18603e-02,1.97793e-02,-1.17220e-01,-1.35281e-01,4.36048e-01,-1.11098e-01,-7.95284e-02,-4.73302e-02,-1.96980e-01,-7.00261e-02,1.53901e-02,6.72203e-02,-3.19520e-01,-8.18641e-02,2.57754e-01,7.80483e-03,-3.43559e-01,1.09973e-01,2.01235e-01,1.80562e-01,-6.40253e-02,1.37108e-01,-2.44412e-01,1.50988e-01,1.49680e-01,-9.36351e-02,-1.37313e-01,4.96627e-02,6.62089e-02,8.69827e-02,9.33414e-02,-1.89883e-01,2.18377e-02,-5.53566e-02,-8.91569e-02,3.07061e-01,3.53526e-02,9.02581e-02,-2.34262e-01,
-5.12916e-02,7.99868e-03,7.63077e-03,1.91330e-01,1.95400e-01,-4.90013e-03,-3.21891e-01,-1.47766e-01,1.12225e-01,-2.21484e-01,4.44107e-02,3.23211e-01,-1.50446e-01,-1.75948e-01,3.47103e-01,-3.10560e-01,-2.64138e-01,3.60857e-02,-5.12462e-02,8.01580e-02,-2.56511e-01,1.06312e-01,1.26546e-01,3.60472e-02,-7.76912e-02,3.91345e-02,3.29232e-01,-1.85836e-01,1.78159e-01,-6.01599e-02,7.56348e-02,-5.64847e-02,-3.62850e-01,2.79820e-01,1.02569e-01,2.14061e-01,-2.25393e-01,1.11309e-01,-2.52004e-01,3.63959e-02,-3.55099e-03,-3.06867e-02,-7.88303e-02,1.84583e-01,2.08984e-02,1.13195e-02,1.78938e-01,9.49031e-02,1.44814e-01,-2.09056e-01,6.27097e-03,-2.60996e-01,-6.36689e-02,-3.00936e-01,-2.75735e-01,-1.43340e-01,1.90060e-01,-2.54927e-01,-6.86239e-02,9.48472e-03,8.56269e-02,-4.13487e-02,1.16731e-01,-1.76454e-01,
8.37617e-02,-5.92993e-02,4.81773e-02,-1.11981e-01,-8.73461e-02,-6.17938e-02,3.07306e-01,2.22699e-01,1.55955e-02,-1.65603e-01,-1.75619e-01,-1.56621e-01,-3.46451e-02,-3.20491e-01,1.35225e-01,-1.59254e-01,-3.61342e-02,2.09736e-01,3.66383e-02,-1.16728e-01,-3.01593e-03,-2.69816e-02,1.59427e-01,-3.17662e-02,2.90684e-01,-1.05064e-01,7.81673e-02,3.07359e-01,-3.05143e-01,-6.00238e-02,1.54966e-01,-2.60288e-01,-2.20823e-03,-1.75024e-01,2.82840e-01,2.58166e-01,-8.60609e-02,-2.27065e-01,9.35529e-02,9.93486e-02,-1.19477e-01,-2.42186e-01,-4.29874e-02,-4.81022e-03,-1.34025e-01,-9.86927e-02,6.79760e-02,3.09461e-01,-1.82627e-01,1.04913e-01,-3.46715e-02,6.91944e-03,1.13020e-01,1.29973e-01,-7.68488e-02,-1.90380e-01,3.73224e-01,-2.04167e-01,-8.21363e-02,-2.49296e-01,-2.66868e-01,3.15922e-01,1.90226e-01,2.72952e-01,
-1.46730e-01,6.03502e-02,2.72135e-01,5.64011e-03,-1.53310e-01,2.02938e-01,1.42059e-01,-6.73977e-02,1.00228e-01,2.30657e-01,-1.85765e-01,3.12234e-01,2.14482e-02,1.18522e-01,-1.60856e-02,-3.19340e-02,2.49509e-01,1.82707e-01,9.90247e-02,1.36535e-01,-1.48960e-01,-7.65706e-02,-1.66705e-01,-3.04919e-03,9.07848e-02,4.14542e-02,2.94547e-01,8.53610e-02,-1.00301e-01,-3.46043e-01,-1.44868e-01,-1.80846e-01,-4.73374e-02,5.06310e-01,-3.89607e-02,3.00317e-01,3.88229e-01,-3.44961e-02,-1.16148e-01,3.02370e-02,7.53412e-02,-1.21730e-01,1.94615e-01,-3.24321e-01,-1.91564e-01,-1.66165e-02,7.62649e-02,-6.92429e-02,2.10478e-01,7.17317e-02,-5.34706e-02,7.76538e-02,3.33116e-01,9.79137e-03,2.12661e-01,-3.57250e-02,-1.77289e-02,-2.57965e-03,-2.25685e-01,-3.58777e-02,-5.54481e-03,-1.28745e-01,-3.37566e-01,1.08559e-01,
-8.75234e-02,-2.83877e-01,-9.54531e-02,1.23053e-01,3.03579e-01,9.18883e-02,2.51539e-01,-1.42715e-01,-1.91985e-02,2.09065e-01,-3.18488e-01,-2.72316e-01,-5.07959e-03,1.76439e-01,1.32066e-01,6.64542e-02,-3.40219e-02,-1.95474e-02,1.65442e-03,-3.04874e-01,-3.73275e-02,-1.30498e-01,-2.47667e-01,-1.33989e-03,5.15433e-02,-2.75905e-01,1.54513e-01,8.93684e-02,7.04811e-02,1.49559e-01,2.87678e-02,1.43508e-01,-1.85746e-02,-7.51044e-02,3.79862e-01,1.58451e-02,1.10325e-01,7.43201e-02,-1.87965e-01,1.02642e-01,1.24023e-01,3.25237e-02,-3.22500e-01,1.78823e-01,-2.65905e-01,2.79296e-01,1.75017e-01,-7.22117e-02,-1.49210e-01,1.26722e-01,-2.73052e-01,-2.66678e-02,-3.32253e-01,-2.18641e-01,1.94742e-01,-1.19515e-01,-2.37903e-02,8.18713e-02,-3.04565e-01,5.74459e-02,2.99250e-01,-1.08355e-01,-5.47827e-02,8.38789e-02,
4.29620e-02,6.88909e-02,-2.18006e-01,7.89846e-02,1.82282e-01,1.74336e-02,-2.73482e-01,-1.17236e-01,-2.28317e-01,-2.45799e-01,4.48881e-02,2.37299e-01,-5.52147e-02,-1.38299e-01,-1.97408e-01,1.37521e-01,9.54466e-02,4.39619e-01,6.13180e-02,-9.23157e-02,2.05085e-01,8.41556e-02,-3.83326e-01,8.89642e-04,2.16740e-01,3.77922e-02,8.15080e-03,1.56561e-01,-1.12567e-01,-7.83084e-02,-1.37564e-02,-1.21818e-01,1.77293e-01,1.29879e-01,-3.37985e-01,-5.92973e-02,-1.92074e-01,1.21613e-01,1.68388e-01,7.29392e-02,9.10111e-02,-1.99498e-01,-1.58202e-01,2.90619e-01,-2.73680e-01,-2.89588e-02,7.18743e-02,-5.04257e-02,8.59282e-02,2.66665e-01,1.07946e-01,-4.67543e-02,9.18514e-02,-2.38554e-01,1.15255e-01,3.76407e-02,1.06013e-01,3.73537e-01,-1.10211e-01,2.56714e-01,2.65561e-02,3.65470e-01,9.40570e-02,-7.97933e-02,
-3.07255e-03,
3.36727e-04,
-1.82655e-03,
-2.75126e-03,
1.64455e-03,
-7.81830e-04,
-1.55951e-06,
3.34414e-05,
-2.19071e-03,
1.44478e-03,
0.00000e+00,
-7.10642e-04,
-2.68845e-05,
-2.28179e-06,
1.09745e-03,
-1.22485e-04,
3.90196e-03,
-4.95967e-03,
5.75255e-04,
1.30502e-03,
-2.06263e-03,
-1.27458e-03,
-4.17614e-03,
-4.84218e-03,
-5.52405e-03,
5.04838e-04,
1.76474e-04,
0.00000e+00,
-1.07829e-05,
-1.29706e-04,
-3.80306e-03,
-4.79051e-04,
-1.60455e-03,
0.00000e+00,
0.00000e+00,
-4.12865e-05,
-7.91238e-06,
-1.92464e-03,
1.47206e-03,
5.29052e-04,
4.59280e-04,
2.06514e-03,
-5.47497e-04,
-2.49393e-03,
-2.30967e-03,
0.00000e+00,
0.00000e+00,
4.49728e-04,
-9.66495e-05,
1.11223e-04,
1.22192e-03,
1.41145e-03,
2.77048e-04,
1.63031e-03,
-1.14659e-05,
2.39016e-03,
-4.21755e-03,
-2.09023e-04,
-5.56436e-03,
-2.56396e-04,
-3.47646e-03,
4.30386e-03,
2.18193e-03,
-2.32641e-05,
-9.95512e-02,-1.61183e-02,-3.98751e-02,1.40625e-01,1.45028e-01,1.37991e-01,9.39162e-02,4.40048e-01,1.72423e-01,2.27234e-02,-3.05549e-01,1.01742e-01,-2.55670e-01,2.06371e-01,-1.64702e-01,8.58502e-02,1.64262e-02,-6.70028e-02,2.03290e-01,6.53888e-02,8.97091e-02,7.23570e-02,-2.10936e-01,-1.99907e-01,9.20463e-02,9.81429e-02,-3.30825e-02,1.09387e-01,1.87395e-01,1.06898e-01,-1.39540e-01,-1.55649e-01,1.14557e-01,3.23450e-01,2.11467e-01,1.26763e-01,3.23443e-01,-2.29358e-01,-1.26460e-02,-1.10521e-01,4.42409e-03,6.83769e-02,2.17932e-01,1.29854e-01,5.57110e-02,-1.98160e-01,3.52182e-01,-5.32414e-02,-1.19286e-01,-3.43460e-01,1.14089e-01,7.15299e-02,2.53592e-02,-2.02144e-01,2.49373e-01,-4.27272e-01,-6.69112e-02,-4.55008e-02,4.02366e-02,-7.89498e-02,-2.62790e-01,-1.00950e-01,-2.50761e-01,-2.52119e-02,
-2.28598e-01,1.10663e-01,6.65935e-02,-1.54277e-01,-9.19075e-02,2.18167e-02,-1.04521e-01,-8.18868e-02,1.65498e-02,2.32707e-01,5.86116e-02,2.97369e-01,1.02747e-03,-1.61991e-01,2.61119e-01,3.28303e-01,-3.42271e-01,1.13518e-01,-1.26798e-01,3.21169e-01,1.56444e-02,1.24762e-01,1.72272e-01,-2.13259e-01,-1.68086e-01,2.92618e-02,1.15134e-01,4.15120e-01,2.18083e-01,2.15753e-01,2.59134e-01,-1.28412e-01,-3.03445e-02,2.30358e-01,6.30089e-02,-9.55438e-02,-9.48078e-02,-4.61215e-03,1.24634e-01,1.19531e-01,4.18147e-02,1.91181e-01,-2.10117e-01,2.47261e-02,7.60314e-02,9.40254e-02,-1.90083e-01,3.45572e-01,-1.44927e-01,5.69004e-04,1.86082e-01,1.81153e-01,-7.16328e-02,-3.61765e-01,-9.00006e-02,7.76899e-02,-5.15775e-04,2.71800e-01,1.50138e-01,-1.89611e-01,-2.18738e-01,1.32829e-01,4.29945e-03,7.07224e-03,
2.42605e-01,3.52928e-01,-9.08337e-02,4.64179e-02,-3.29786e-01,2.04261e-01,-3.36966e-01,4.15573e-02,-5.95804e-02,-3.51727e-01,-3.57622e-01,2.19337e-02,9.92258e-02,-1.84749e-01,2.44352e-02,-7.09494e-02,1.61538e-01,1.25439e-01,-2.94838e-01,1.39905e-02,-2.23562e-01,3.26995e-01,-1.40134e-01,2.34186e-02,-9.30207e-03,3.27328e-01,2.45648e-02,8.09914e-02,-2.62094e-01,-1.51911e-01,-3.21914e-02,1.56220e-01,-4.79875e-02,-5.35099e-02,-1.40927e-01,-1.04623e-01,7.75425e-02,1.49954e-01,5.58116e-02,-4.82486e-02,-1.31667e-01,1.09271e-01,2.97675e-01,9.32245e-02,-5.10369e-02,1.14453e-01,1.32384e-01,2.48281e-01,-1.20466e-01,1.36717e-01,1.81784e-01,-2.19395e-01,2.76275e-02,-2.73964e-01,-1.39216e-01,-1.45247e-01,-1.50481e-01,1.93041e-01,-1.89944e-01,9.69772e-02,6.84174e-02,2.65120e-02,-2.62952e-01,4.37582e-02,
-3.39493e-01,-1.68809e-01,-4.64200e-02,-3.36224e-01,-1.19340e-01,1.57143e-01,-1.33634e-02,4.25972e-02,1.74102e-01,7.36276e-02,6.71074e-02,-8.89242e-02,1.33698e-01,1.06515e-01,1.38286e-02,7.47574e-02,-1.65960e-01,1.27867e-01,2.84006e-02,1.32418e-01,-4.71419e-01,1.35203e-01,9.74893e-02,3.20192e-01,1.71939e-02,3.93179e-01,-5.99644e-03,1.00659e-02,-4.12785e-02,-1.09811e-01,-3.26064e-02,-1.93008e-01,-8.90208e-02,-2.15367e-01,-4.00406e-01,2.48083e-01,2.95599e-02,-2.47377e-01,1.74093e-01,-1.39832e-01,1.48684e-01,-1.26744e-01,1.34904e-01,2.81181e-02,-5.69872e-02,5.64080e-02,1.70741e-01,-2.36985e-01,4.92487e-03,-1.70970e-01,-1.38060e-01,-7.59345e-02,-1.06079e-01,-1.24631e-01,-5.40726e-02,2.73714e-01,-2.84743e-01,-2.21912e-01,2.47670e-01,-5.17562e-02,-2.17711e-01,-2.49666e-02,6.61665e-02,-2.29415e-01,
1.13423e-01,-5.25105e-02,1.71097e-01,2.06413e-01,-2.81844e-01,-2.79948e-01,-3.78312e-02,2.39840e-01,1.50808e-02,1.05412e-01,-2.18021e-01,-3.03828e-01,9.60269e-02,-1.64301e-01,-2.65489e-01,5.11534e-02,3.55229e-02,8.23599e-02,-1.70483e-01,-1.06699e-01,-2.58271e-01,1.12557e-02,1.07163e-01,-1.67389e-02,-6.32928e-02,-6.69380e-02,-9.00087e-02,-2.64719e-02,-1.54818e-01,1.77199e-01,1.08197e-01,-1.75102e-01,-6.96282e-02,-1.84203e-02,5.33997e-01,1.18373e-01,1.69993e-01,2.35213e-01,2.13437e-01,-2.63915e-02,4.54679e-02,-4.52202e-02,8.91816e-02,1.85557e-01,1.15593e-02,1.96074e-01,7.60394e-02,2.29024e-03,3.73110e-01,-1.80561e-01,-2.62506e-01,2.49300e-01,3.14747e-03,6.65092e-02,-2.79960e-02,3.15848e-01,1.33519e-01,2.77617e-01,-8.70611e-02,3.10703e-02,-3.60971e-01,8.34880e-02,9.12356e-02,-9.81592e-02,
-1.75645e-02,-6.32347e-02,-6.69574e-02,-3.49231e-01,-2.11875e-01,4.26302e-02,-5.64660e-02,-3.46875e-02,2.24213e-01,-6.30984e-05,-2.24594e-02,4.68685e-02,2.56523e-02,1.72835e-01,-2.15566e-01,2.18560e-01,1.66145e-01,-4.29825e-01,-2.27992e-01,-1.51522e-01,2.04825e-01,5.04807e-02,6.13404e-02,3.26344e-02,1.61132e-01,1.95155e-02,-3.44594e-01,6.58606e-02,-8.19657e-03,5.17274e-02,-1.37901e-01,2.04043e-02,-4.26427e-02,1.55160e-01,-7.19815e-02,1.29398e-01,2.21824e-01,2.55646e-01,-1.88234e-01,9.44798e-02,2.63612e-02,-1.42581e-01,-1.11488e-02,-1.32099e-01,4.33633e-01,-7.00660e-02,-1.79867e-01,4.20744e-01,4.28475e-02,1.23167e-01,-2.81741e-01,7.45788e-02,8.06563e-02,4.64186e-02,-2.05034e-01,2.47737e-02,-1.87091e-01,-1.46504e-01,3.59820e-01,2.19271e-01,-1.39631e-01,-1.40612e-01,-1.30305e-01,1.88630e-01,
-3.04404e-02,6.78894e-02,-3.70586e-01,7.62093e-02,2.87349e-01,8.16579e-02,2.93904e-02,2.92170e-02,1.83476e-02,2.80341e-01,-5.64060e-03,-1.49173e-01,1.05432e-01,5.67873e-02,-1.65901e-01,-9.90546e-02,-4.10035e-01,-2.73907e-01,-3.12170e-01,2.79582e-01,-5.89667e-02,7.42919e-02,4.42457e-02,2.14875e-01,2.53654e-01,-4.01919e-01,-1.58104e-01,-3.06403e-01,1.63235e-01,-2.35336e-01,5.66388e-03,2.66171e-02,-1.19748e-01,-9.32000e-03,3.70306e-02,4.12413e-03,-1.44364e-01,1.40185e-01,2.92145e-01,-6.19251e-02,-3.28911e-01,-3.25938e-01,-7.91497e-04,6.47170e-02,-2.23888e-02,2.33796e-01,9.58450e-03,4.51913e-02,-4.13494e-02,4.60989e-02,2.13951e-01,7.60189e-02,-7.98163e-02,-9.90999e-02,-1.26217e-01,-3.63342e-01,-1.04239e-01,1.22923e-01,-1.06131e-02,7.71610e-02,-1.22699e-01,4.83771e-02,2.06153e-02,-1.15251e-01,
-1.99729e-01,-6.76388e-02,-1.48648e-03,1.39701e-01,-2.84329e-02,-1.86075e-01,2.52552e-01,1.13740e-01,5.96285e-02,-2.09104e-01,1.84221e-01,-2.47265e-01,-3.19658e-01,3.37157e-02,-1.38139e-01,1.84888e-01,-2.05975e-01,6.94839e-02,2.11321e-01,-1.88475e-01,-1.70281e-01,-3.11685e-01,1.36030e-01,2.60977e-01,-1.13050e-01,-4.11035e-02,3.31123e-02,3.49021e-01,-1.70996e-01,-4.01432e-02,-1.00563e-01,1.54131e-01,8.81927e-02,-1.70099e-01,5.37506e-03,4.64596e-02,-1.86477e-01,1.26886e-01,-2.38614e-01,-4.63075e-01,-1.76224e-01,1.23400e-01,2.93146e-03,6.06571e-02,-4.39751e-03,1.16394e-02,-1.03843e-01,3.37043e-01,2.72298e-01,2.08973e-01,3.00163e-01,-1.30081e-01,-7.26128e-02,-1.52366e-01,1.13814e-01,-1.74914e-01,-2.48778e-01,2.96195e-02,3.58189e-02,2.99939e-02,-1.91426e-01,7.78736e-02,2.37381e-02,2.04649e-01,
5.69035e-02,4.43753e-01,-2.29590e-01,-2.05825e-01,-1.23777e-01,1.26956e-01,7.47538e-02,-3.64149e-01,-1.52905e-01,1.27606e-01,-9.81532e-02,-1.13785e-01,-8.96030e-02,3.67367e-02,8.86825e-02,2.55917e-01,1.64305e-01,-4.37262e-02,-1.31063e-01,-1.65277e-01,-1.05586e-01,-1.96860e-01,2.36122e-01,-7.55365e-02,1.77561e-01,1.84313e-01,5.39020e-02,-1.02745e-01,6.89568e-02,1.34060e-01,-2.89121e-01,1.22149e-01,3.35152e-03,3.06662e-01,2.61398e-01,2.15267e-01,-3.29315e-01,-6.37365e-03,-8.31675e-02,-2.36352e-01,1.43766e-01,-2.29863e-01,-1.44452e-01,1.67282e-01,-1.84324e-01,-1.46267e-01,2.43278e-01,-1.94376e-01,-6.78221e-02,-2.18061e-02,-2.79742e-02,-6.86476e-02,-1.20322e-02,2.72995e-02,-3.27413e-02,-1.30121e-02,1.18758e-01,-5.17775e-02,7.82359e-02,-1.01885e-01,-6.74524e-02,5.18965e-01,-4.92514e-02,1.66630e-01,
2.59043e-01,-1.17278e-01,-2.81813e-01,-6.79038e-02,1.14689e-01,3.33965e-01,-3.67877e-02,-1.21785e-01,-2.06443e-01,-1.31143e-01,-2.36341e-01,-9.46035e-02,7.51878e-03,-2.44754e-03,-1.97130e-01,7.69640e-02,6.15150e-02,3.93029e-02,1.06027e-01,-1.15223e-01,-5.72980e-02,3.26447e-02,-2.18410e-03,2.66096e-01,-3.80924e-02,-3.48031e-01,-1.78160e-01,9.87437e-02,-1.29710e-01,-1.05424e-01,3.67809e-01,-2.64274e-01,-2.72178e-02,-9.70671e-02,-6.51585e-02,8.58746e-02,-2.13793e-01,-1.34846e-01,4.93281e-02,-1.77148e-01,-3.54476e-02,3.47522e-01,-1.13657e-01,1.36812e-03,1.02188e-01,-2.11629e-01,-1.45878e-02,-1.52231e-01,-2.89554e-01,-8.39507e-02,5.69560e-02,-4.79515e-02,4.16617e-01,1.18605e-02,2.58744e-02,1.85476e-01,2.38030e-01,2.59648e-01,2.85047e-01,-3.96359e-02,-2.47954e-01,-1.20718e-01,-6.73934e-02,2.37737e-01,
-1.47523e-01,1.95690e-02,-1.86725e-01,1.57494e-01,9.91214e-02,-1.41151e-01,-1.59122e-01,6.78835e-02,-1.36344e-01,6.72024e-02,5.70807e-02,2.36236e-01,6.79105e-02,8.36835e-02,3.42618e-01,3.42064e-01,2.42968e-01,2.41119e-01,-1.38806e-01,-1.06175e-01,9.38490e-02,-2.80483e-01,2.00867e-01,-6.65981e-02,2.13779e-01,-7.45097e-02,-5.56929e-02,-2.00026e-02,-1.39297e-01,-3.23850e-01,5.29729e-02,7.21570e-02,-4.13755e-01,-1.64873e-01,3.57104e-02,-6.50706e-02,4.17166e-01,4.17402e-02,-6.81271e-02,-2.14907e-02,2.97993e-01,-1.85597e-01,9.88757e-03,5.06762e-02,-2.18416e-01,1.43217e-01,5.33165e-02,-1.02189e-01,9.49178e-02,-3.74275e-02,8.35753e-03,-1.52739e-01,8.25494e-02,-1.20464e-01,1.14326e-01,-2.22704e-01,-5.04426e-02,2.69164e-01,2.73355e-01,-9.75859e-02,-5.75160e-02,-3.28036e-01,2.16799e-01,1.68231e-01,
-6.13456e-03,-2.66162e-01,-4.44223e-02,-2.25890e-01,-3.00948e-02,2.35018e-01,-1.07822e-01,-2.26829e-01,5.23145e-02,2.32152e-01,-1.06226e-02,1.67448e-01,-1.48490e-01,-1.94214e-01,-1.78300e-01,1.38315e-01,-1.60690e-01,2.08009e-01,2.41330e-01,-1.70573e-01,2.80140e-02,6.01067e-02,-3.41953e-01,-2.19695e-01,8.22077e-04,1.06600e-01,-5.22652e-02,-1.43657e-01,1.29610e-02,-5.05587e-01,3.94598e-02,-1.70117e-01,-2.00529e-01,4.55793e-02,3.59930e-02,-2.56901e-01,-9.32437e-02,1.82820e-01,7.28617e-02,5.47765e-02,6.95463e-03,-1.00510e-01,3.49038e-01,2.70721e-01,1.58030e-01,2.28077e-02,2.83868e-02,1.76296e-01,2.63917e-01,-6.75590e-02,1.41396e-01,6.61115e-02,-1.70032e-02,7.19079e-02,2.30261e-01,6.95903e-02,1.08880e-01,-2.32736e-01,-1.16013e-01,1.64501e-02,1.97979e-02,2.92821e-01,2.10923e-01,3.37095e-01,
1.49187e-02,3.18466e-01,2.65487e-01,-2.83573e-01,5.48295e-03,6.80954e-02,-2.75166e-01,2.84906e-01,9.66763e-02,7.44730e-02,-4.87457e-02,-2.20856e-02,2.46791e-01,1.67580e-01,1.80190e-01,-1.12264e-01,-2.05592e-01,-9.60991e-02,2.96238e-02,-1.69331e-02,-2.50312e-01,-2.76543e-01,-1.93436e-01,1.46698e-01,-6.07489e-03,-2.64959e-01,4.20497e-02,2.64912e-01,-6.78015e-02,-2.03041e-01,1.24334e-01,-3.24459e-01,5.80533e-02,2.37007e-01,6.08225e-02,3.00798e-01,-2.47250e-01,3.88049e-02,-1.59211e-01,2.09941e-01,1.74269e-01,-2.13874e-01,9.96555e-02,-1.96838e-01,7.27645e-02,-1.14265e-01,-4.58447e-02,3.02835e-02,2.58153e-01,6.73608e-02,-7.97623e-02,-3.57622e-01,-1.09825e-01,5.34139e-02,2.90295e-01,-1.37653e-01,1.64897e-01,1.97271e-01,-8.20998e-02,-8.84924e-03,1.69441e-01,-4.54957e-02,-1.02533e-01,4.00271e-03,
8.56700e-02,-5.90269e-02,-2.97302e-01,1.19195e-01,9.24972e-02,-1.03649e-01,-3.70595e-01,-2.10069e-01,-3.66405e-02,1.58153e-02,2.50034e-01,2.60778e-02,4.29485e-01,3.74977e-02,-2.59029e-01,6.85426e-02,-1.28077e-01,1.87687e-01,2.78435e-01,-9.15407e-02,-6.29224e-02,-1.52926e-01,-8.42484e-02,1.13823e-01,-3.87889e-01,1.05989e-01,-1.23704e-02,1.26936e-01,7.44757e-02,3.10062e-01,-9.26623e-02,2.30845e-01,7.28594e-03,-1.44145e-01,3.20810e-01,1.52572e-01,2.24454e-02,1.42913e-01,3.60876e-02,2.82913e-01,-1.54501e-02,-3.35486e-01,2.50684e-01,4.88493e-02,4.45781e-03,-2.44625e-01,-1.48523e-01,-3.14097e-02,-2.63063e-01,-2.26286e-01,1.86403e-01,5.32948e-02,7.57950e-02,-1.33987e-02,7.18278e-02,-2.96704e-02,-2.78569e-01,5.05565e-02,1.63630e-01,6.65394e-02,1.30532e-01,-1.40356e-03,-1.66261e-01,-2.42141e-02,
-4.38209e-02,1.50583e-01,-5.43392e-02,3.46340e-01,-5.37371e-02,3.30818e-01,6.07139e-03,-8.52287e-02,-9.22986e-03,-7.96743e-03,-1.10693e-01,6.18049e-02,-3.01984e-01,-1.46375e-01,1.57059e-01,-3.78596e-01,-1.18360e-01,7.44469e-04,-4.49081e-02,1.95291e-01,-1.57471e-01,-2.52503e-02,5.71509e-02,-3.01984e-02,-9.34730e-02,2.44794e-02,4.02466e-02,-9.92468e-02,-6.55982e-02,9.45116e-02,-3.64261e-01,-3.77573e-01,-9.97523e-02,-2.07826e-01,1.80818e-01,3.45051e-01,1.51708e-01,5.81169e-02,-1.04738e-01,1.13376e-01,1.55176e-01,-9.45963e-02,-5.35456e-02,-9.36200e-02,1.10827e-01,-2.07833e-01,-1.68622e-01,6.84282e-02,4.38780e-02,2.87625e-01,1.00135e-01,1.83346e-01,4.03822e-01,-3.00248e-01,8.60332e-02,3.04755e-02,1.20752e-02,-1.76269e-01,1.13193e-01,1.86349e-01,9.31847e-02,-1.27474e-03,4.12482e-01,5.74083e-03,
7.04747e-02,1.52663e-01,2.46676e-01,-5.87323e-04,-3.47758e-02,6.57715e-03,-5.35133e-03,-3.87435e-01,5.46707e-02,-4.47783e-02,-1.37339e-01,-2.23188e-01,-2.34472e-01,3.43840e-01,-3.81641e-01,3.79876e-02,-6.59135e-02,1.94439e-01,-1.27946e-01,1.81086e-01,6.42634e-04,-5.45140e-02,1.16318e-01,1.85225e-01,-5.38564e-02,1.73864e-01,-5.58880e-02,9.39293e-02,1.65131e-02,2.73520e-01,-8.20754e-02,-5.44129e-02,-2.31251e-01,6.21723e-03,-1.47994e-01,-3.11547e-01,-2.40453e-01,-8.55227e-02,8.78102e-02,4.64440e-01,-1.15035e-02,-6.29628e-03,1.50815e-01,-9.85194e-02,-1.75090e-01,-9.39967e-03,4.33080e-02,-6.79520e-02,6.37736e-02,1.08985e-01,-1.83682e-01,1.02667e-01,-5.65246e-02,3.49257e-02,1.13057e-01,-3.73714e-01,6.46057e-02,1.06559e-02,-8.21546e-02,-1.88801e-01,-2.28156e-01,-3.67825e-01,2.15608e-01,2.51807e-01,
-9.86851e-02,-4.64085e-02,2.45364e-02,3.19071e-01,-1.37489e-01,2.22480e-01,2.91485e-02,2.26688e-01,-2.73392e-02,-7.56903e-02,1.59812e-01,9.17960e-02,2.97653e-03,-8.74462e-03,-1.29085e-01,1.82433e-01,-2.07799e-03,1.14346e-01,-1.26319e-01,-1.88889e-01,2.07682e-01,4.14384e-02,1.46282e-01,2.21048e-01,2.93406e-01,2.94384e-01,-1.73159e-01,2.37528e-01,-1.07100e-02,-5.47960e-02,2.57508e-01,-1.42277e-01,3.91100e-02,-7.78825e-02,3.37829e-01,-9.68500e-02,-2.05034e-01,-3.71280e-02,1.93874e-01,6.34859e-02,-7.60629e-02,-4.58404e-02,-5.88686e-02,-1.09742e-01,1.61198e-01,-1.29478e-01,9.50820e-02,-2.92715e-01,-1.27295e-01,2.23269e-01,9.87629e-03,3.05488e-02,-5.15370e-01,-2.09509e-01,-4.53944e-03,-2.33875e-02,2.31288e-01,-1.48364e-01,1.13235e-01,4.17408e-01,2.82784e-01,3.16574e-02,4.38596e-02,-4.32694e-02,
-1.95284e-01,-2.47155e-03,4.10391e-01,7.56481e-02,1.15268e-01,1.55978e-01,3.33081e-01,-7.59675e-02,5.10763e-02,-2.27730e-02,2.71803e-01,-8.64170e-02,-1.48241e-01,-2.66295e-01,4.16151e-02,2.22801e-01,5.41763e-02,2.31339e-01,-3.75151e-01,4.10487e-03,1.83288e-02,-1.52974e-03,-3.14075e-02,2.18019e-01,1.15426e-01,-2.16319e-01,-2.33554e-02,-1.65232e-01,-4.56564e-02,1.52202e-01,1.10518e-02,-5.22556e-02,-2.82804e-01,1.48190e-01,-1.93049e-01,1.53245e-01,6.48969e-02,1.27847e-01,-3.05058e-01,3.48099e-01,-2.26689e-01,6.32282e-02,2.16946e-01,2.04648e-01,-4.40531e-02,-7.58135e-02,-2.86627e-02,-1.22062e-01,-4.35907e-02,-2.34476e-01,9.49084e-02,-1.12311e-01,1.91562e-01,-2.94848e-04,1.35242e-01,5.70993e-02,-1.34820e-01,9.20081e-02,1.28257e-03,1.91671e-01,4.01633e-02,2.29937e-01,-3.55684e-01,-1.76958e-01,
3.95799e-02,1.13063e-01,3.14320e-03,-2.78359e-01,4.14434e-01,3.22592e-02,6.12812e-02,-1.74990e-02,-3.04744e-01,-2.89604e-01,-8.88666e-02,-6.01736e-02,4.20160e-02,-3.28387e-01,-1.47286e-01,2.85179e-01,-1.65237e-01,-2.36958e-01,2.29340e-01,1.53720e-01,-6.61481e-02,-1.67639e-01,1.94598e-01,1.26883e-01,1.51227e-01,1.53129e-01,-4.60974e-02,1.96845e-01,-2.85778e-02,-6.79087e-02,-6.56280e-02,1.37743e-01,-1.25192e-01,2.79606e-01,1.29446e-01,4.55352e-02,2.69685e-01,1.41840e-01,1.60086e-02,-1.65614e-02,8.09233e-02,1.31005e-01,2.83202e-01,-1.98112e-02,-7.99237e-02,9.54014e-02,-3.55585e-01,-7.32468e-02,-9.05138e-02,-6.40671e-02,-4.49852e-02,-9.46020e-02,5.19316e-02,-1.33462e-01,-1.48329e-01,4.27793e-02,3.04148e-01,-2.93588e-01,-3.08329e-01,7.92017e-02,-4.26578e-02,-1.76108e-01,2.21948e-01,-2.83060e-01,
3.57614e-01,-1.53791e-01,-3.41999e-02,-2.44774e-01,4.21590e-01,1.12895e-01,4.89634e-02,5.96281e-03,-3.64865e-02,8.02597e-02,-1.08909e-01,-3.50195e-02,-1.73944e-01,6.21999e-02,-2.39658e-02,-6.50474e-02,1.14482e-01,1.75850e-02,-1.53781e-01,1.25158e-01,-2.15482e-01,-3.67299e-01,-3.08738e-01,-2.38524e-02,1.51473e-01,3.05440e-01,-2.51861e-01,7.34508e-02,-6.62227e-02,3.03973e-01,6.15651e-02,1.10597e-02,3.36768e-02,5.71105e-02,8.47324e-02,-2.28238e-01,7.93025e-02,-1.25674e-01,-2.57654e-01,1.37944e-02,-1.16241e-01,-1.37512e-01,-1.04409e-01,-1.62541e-01,-9.60142e-03,3.51121e-01,2.26321e-01,1.19694e-01,6.64918e-02,8.25455e-02,3.23043e-01,8.44818e-02,-1.02930e-01,-3.92544e-02,1.65796e-01,3.83436e-01,-1.23108e-01,2.38784e-01,2.20754e-01,7.59589e-02,1.85990e-01,-2.88560e-03,1.23109e-01,-1.47083e-01,
2.30605e-01,-2.04355e-01,-1.11493e-01,-1.46754e-01,-3.92557e-01,-2.29965e-01,-3.39476e-02,3.62925e-04,-1.17471e-02,9.09856e-02,2.22695e-01,-2.50823e-01,-9.99968e-02,-1.71721e-01,-1.32752e-02,-9.07346e-02,2.59159e-01,5.92623e-02,2.10180e-01,-8.10095e-02,-4.89747e-02,4.71314e-02,2.29018e-01,-1.57569e-01,2.74499e-01,-8.62399e-02,-1.89303e-02,1.44323e-01,1.28978e-01,5.87706e-02,-2.79948e-01,-3.61273e-01,-3.37451e-01,1.63147e-01,-4.64649e-02,-3.01295e-01,-7.72724e-02,-2.53791e-01,9.79287e-02,-1.16749e-01,-2.04930e-01,-2.29911e-01,2.65855e-02,-1.02229e-01,2.69216e-01,-1.34286e-01,-2.06272e-01,4.75912e-03,-1.43298e-01,-5.02014e-02,9.14570e-02,-2.78486e-01,1.21751e-01,-1.47911e-01,1.11421e-01,-1.09764e-01,-7.09277e-02,2.22046e-01,-1.23098e-01,-5.95913e-02,8.19068e-02,-3.87004e-02,6.56121e-02,-3.68868e-01,
1.70095e-02,-3.11267e-01,-1.83636e-01,-6.64537e-02,1.26692e-01,-2.28889e-01,5.92242e-02,1.30686e-01,1.10914e-02,-2.68892e-01,-1.37375e-01,6.69082e-02,2.90447e-01,-1.30542e-01,-4.20304e-02,1.79713e-01,-2.68229e-01,2.59174e-01,-1.06954e-01,-2.06234e-01,-3.28202e-03,-1.13009e-01,-9.23451e-02,3.00464e-03,7.95040e-02,2.00899e-01,-8.76507e-02,-9.64872e-02,3.46900e-02,-9.70636e-03,-1.83916e-01,-4.11532e-01,2.80241e-01,1.23638e-01,-3.66642e-02,-8.16719e-02,-8.95896e-02,1.60189e-01,-4.91134e-02,2.75075e-01,1.22123e-01,2.34541e-01,-3.40949e-01,3.52496e-02,-8.70308e-02,1.15131e-01,1.24457e-01,-2.05432e-02,-1.28695e-01,2.39227e-01,-2.60566e-01,-9.90925e-02,3.07162e-01,8.85215e-02,-3.32757e-02,-3.97720e-01,-2.58134e-01,5.37136e-02,-5.25540e-02,4.48386e-02,-1.70262e-02,2.93539e-01,1.69654e-01,-1.46978e-01,
-1.19777e-01,2.03145e-02,-1.49437e-02,4.24791e-02,-6.00811e-02,-2.40604e-02,1.80788e-01,-1.44283e-01,-1.96262e-01,-1.94338e-02,2.00413e-01,1.60850e-01,1.09699e-01,-3.03137e-02,1.61430e-01,-1.49599e-01,-5.03451e-02,-2.18800e-01,1.44040e-02,-4.33735e-01,-3.26500e-01,1.43487e-01,-8.99771e-02,1.87561e-01,1.18142e-01,4.49389e-02,-1.10711e-01,1.04129e-01,-1.46409e-02,1.09398e-01,-1.55689e-01,1.77339e-01,1.17445e-01,1.02887e-01,-2.44836e-01,9.26917e-02,3.76339e-01,1.19315e-01,1.75344e-01,2.18145e-01,-6.84471e-02,-1.60125e-02,-5.49590e-02,9.40944e-02,3.66903e-01,5.16730e-02,1.01654e-01,-1.51374e-01,-2.21111e-01,2.62657e-01,1.91102e-01,1.55746e-01,-1.71955e-01,1.13273e-01,4.45622e-01,-9.67242e-03,2.43004e-01,2.34068e-01,-1.54558e-01,-2.34252e-01,-2.94019e-01,1.29522e-02,1.35994e-01,1.05620e-01,
-1.61694e-01,6.19833e-02,2.85860e-01,-1.32455e-01,-4.30874e-02,2.19759e-01,-3.90439e-01,1.43752e-01,1.32458e-01,2.75812e-01,1.78639e-01,6.62699e-02,-5.38326e-03,1.22604e-01,-1.72858e-01,-7.93193e-02,1.39147e-01,1.60643e-01,2.58120e-01,-7.32601e-02,-6.42115e-02,5.18832e-02,-1.55440e-01,2.63388e-01,3.19003e-01,-8.85004e-02,8.38268e-02,1.06370e-01,-7.42796e-02,1.02087e-01,-1.88566e-01,1.24455e-01,-3.07656e-01,-3.58349e-02,1.76891e-01,-2.99395e-02,6.83929e-02,8.92053e-02,3.19616e-02,-1.14564e-01,1.92701e-01,2.38034e-01,-3.33603e-01,-2.97778e-01,-1.34839e-01,2.29840e-01,5.70584e-02,2.30533e-03,-2.00139e-01,6.22831e-03,2.87558e-01,1.49058e-01,2.08936e-01,2.95738e-01,-2.47512e-01,-1.36307e-01,-5.04869e-02,-5.31952e-02,-2.53899e-01,1.81171e-01,-1.68252e-01,1.59200e-01,-1.64795e-03,4.56445e-03,
-1.04714e-01,2.28449e-01,-4.27551e-02,-1.35398e-01,9.41324e-03,-1.39355e-01,1.71756e-01,1.32319e-01,1.81604e-02,1.88886e-01,3.41266e-02,-1.43236e-01,7.13151e-02,-4.03700e-01,-3.02570e-01,-3.06077e-02,-1.83679e-01,6.01328e-02,-1.31793e-01,2.68066e-01,1.17001e-01,2.82015e-02,-4.03424e-02,-1.00497e-01,-5.89605e-02,7.88312e-02,-1.66629e-01,1.72330e-01,-2.27451e-01,6.71291e-02,-2.70353e-01,-2.21362e-02,1.49256e-01,8.21808e-02,-3.52851e-01,-1.21827e-01,1.39973e-01,1.57272e-01,2.22691e-01,-2.25909e-01,2.64025e-01,-4.70472e-02,-2.48404e-01,-5.03375e-02,4.32672e-02,-2.50813e-01,2.10945e-02,-3.01954e-01,1.23056e-01,-2.78910e-01,1.59720e-01,2.56935e-02,-6.80918e-04,9.79090e-02,3.55471e-02,-5.98109e-03,-4.27503e-02,2.58506e-01,-1.81402e-02,2.14764e-01,3.39126e-01,-1.58618e-01,2.30500e-02,4.29502e-01,
2.20757e-01,-7.19313e-02,-3.86703e-01,3.37268e-01,8.55071e-02,1.40641e-01,-1.04101e-01,2.40800e-01,4.13285e-02,2.23271e-01,-8.24395e-02,2.42573e-02,1.35645e-01,2.11421e-01,-4.66449e-02,5.56696e-02,-1.01680e-01,-1.23282e-02,-3.35321e-01,-1.00527e-01,1.06738e-01,2.00897e-01,-9.35574e-02,-1.31161e-01,8.40036e-02,8.04765e-02,7.56528e-02,4.54234e-01,2.09829e-01,1.86688e-01,-1.02222e-01,3.34465e-02,-2.03249e-01,3.39345e-02,-3.05576e-01,2.97023e-02,-6.27322e-02,1.71723e-02,-2.72798e-01,-3.43086e-03,8.64458e-03,3.48900e-02,-4.13843e-02,1.88653e-01,-1.95288e-01,-1.36674e-01,-3.48042e-01,-1.77776e-01,2.92662e-01,7.39557e-02,1.14371e-01,-2.38484e-01,-5.46635e-02,2.64199e-01,5.82441e-02,2.44880e-01,-3.21591e-03,-1.83411e-01,-2.21835e-01,1.77658e-02,-2.65031e-01,3.95452e-02,1.17711e-01,-8.06037e-02,
1.56933e-01,7.69611e-02,1.85624e-01,2.04495e-01,-5.72661e-02,6.09995e-02,2.58293e-03,-2.28826e-01,3.02897e-02,-1.76167e-01,-3.58260e-02,1.80696e-01,6.64318e-02,-6.65614e-02,-1.75908e-01,8.90816e-02,4.61160e-02,-3.06916e-01,-6.24757e-02,1.30100e-01,1.84103e-01,1.04435e-01,7.05875e-02,2.51538e-01,3.33849e-01,-1.83500e-01,1.30454e-01,1.73020e-01,-8.53568e-02,-1.83306e-01,-4.06923e-02,-5.68027e-02,2.06157e-01,3.84121e-02,2.01198e-01,1.82234e-03,-9.44147e-02,-1.68182e-01,1.32303e-01,-9.04032e-03,2.54902e-01,-4.44117e-02,-1.01713e-01,1.59580e-01,-7.94456e-02,1.26605e-01,-2.44129e-02,1.39923e-01,-1.24992e-01,-1.89111e-01,-3.48918e-02,-2.06270e-02,-2.93289e-02,4.62827e-02,4.67070e-01,2.82369e-01,-6.93737e-01,-5.81430e-02,-1.77757e-01,-2.02333e-01,9.19941e-02,-2.87281e-02,1.95770e-01,2.74385e-02,
1.18373e-01,-7.44130e-02,2.08250e-01,-2.86528e-02,1.03122e-01,1.29509e-01,1.65857e-01,2.07876e-01,-1.22481e-01,-2.72089e-01,1.08886e-01,1.30583e-01,-9.28436e-02,-2.15465e-01,8.30670e-02,-8.76635e-03,1.86943e-02,5.99438e-02,-2.17120e-01,-5.51060e-02,1.58293e-01,-1.39838e-01,-2.39131e-01,-1.38426e-01,-1.65895e-02,-1.02991e-01,7.83192e-02,2.04542e-01,3.31672e-01,2.28045e-01,-9.24163e-03,-9.51582e-02,-1.38976e-02,-3.05128e-01,-1.12805e-01,1.66151e-02,-1.35458e-01,2.37339e-01,3.08956e-01,-3.00746e-01,1.27375e-01,-5.01014e-01,3.34373e-01,-4.15199e-01,-7.06581e-02,1.28129e-01,5.44945e-02,9.00215e-03,-2.89413e-01,1.68834e-02,-1.99389e-01,-7.87861e-02,8.97858e-02,5.58967e-02,-3.87083e-02,2.26348e-02,-1.44408e-02,-4.43752e-02,-3.68183e-02,-9.17405e-02,-2.95630e-01,1.33127e-01,-5.63347e-03,2.23407e-01,
8.35262e-02,-1.56282e-02,-4.94005e-02,3.22688e-01,-2.87632e-02,-2.15751e-01,-1.66137e-02,-1.10624e-01,4.09850e-01,1.42090e-01,-2.01213e-01,5.90193e-02,3.07338e-01,-2.08849e-01,1.29097e-01,1.54415e-01,5.54887e-02,-2.95135e-01,3.73401e-02,-2.84802e-01,-1.05609e-01,-3.03671e-01,-3.46736e-02,-1.16986e-01,9.53990e-03,-9.95944e-02,-4.87227e-02,-2.78649e-03,-1.86165e-01,3.32273e-02,-3.45724e-02,8.55386e-03,-1.97434e-01,1.87684e-01,-3.35265e-01,8.33582e-02,-2.78678e-01,-1.17846e-01,2.37103e-02,2.18689e-02,-1.03563e-01,2.26388e-01,2.26556e-01,-4.91071e-01,-1.00096e-01,1.24844e-01,8.23156e-02,-1.28975e-01,-3.27195e-02,-1.73329e-01,7.09934e-02,3.66468e-01,-2.18507e-02,-3.61884e-01,3.06621e-02,7.37360e-04,-4.47896e-02,-1.82197e-01,-6.44345e-02,1.04657e-01,7.63835e-04,6.36940e-02,7.99416e-02,1.15245e-01,
-2.57641e-02,-4.24885e-01,5.16636e-02,9.00528e-02,6.14498e-02,3.84872e-01,9.55753e-02,-8.85545e-02,7.34253e-02,6.82587e-02,6.76002e-02,7.54942e-02,2.74194e-01,-1.00644e-01,8.43600e-02,1.65548e-01,2.82886e-01,-1.33054e-01,-1.53115e-02,3.45080e-01,-1.55388e-01,-5.38380e-02,-1.45192e-02,2.66910e-02,-1.02870e-01,7.58015e-04,4.20536e-01,9.71350e-02,-2.70055e-01,6.84185e-02,2.58570e-02,1.28067e-01,5.86323e-02,3.00313e-01,2.00315e-01,-1.94567e-01,-3.47190e-02,1.99541e-01,1.29322e-01,-7.97182e-02,-1.72476e-01,-9.98604e-02,-2.13508e-02,-7.24979e-02,2.65318e-01,-1.68168e-01,1.77124e-01,-3.42079e-01,3.58712e-01,3.31436e-01,-1.89817e-02,-9.06736e-02,2.16524e-01,-1.20641e-03,-1.65500e-01,-1.29546e-01,-1.59194e-01,-2.39203e-02,-2.54014e-02,-2.12814e-01,-6.42153e-02,-1.30305e-01,-4.91439e-02,4.57708e-02,
1.45876e-01,-2.07810e-01,-2.28858e-02,-7.43556e-02,1.17640e-01,-7.50694e-02,6.66753e-02,1.48861e-02,-6.57936e-02,3.38523e-01,-1.88546e-01,-8.77260e-02,-4.33986e-01,1.06267e-01,1.66447e-01,-1.44536e-01,-6.86324e-02,-2.86070e-01,-3.99299e-02,-4.67655e-02,1.22689e-01,-1.58878e-01,2.05552e-01,-1.17691e-01,-8.43997e-04,1.90693e-01,5.38821e-02,1.92479e-01,-3.95076e-01,-8.07280e-02,1.39177e-01,2.02233e-01,4.89297e-03,-3.51289e-01,3.97342e-02,1.00729e-01,2.63209e-03,9.17609e-02,3.53649e-01,4.53583e-01,1.66561e-01,1.54385e-01,3.75753e-02,-1.07495e-01,2.14662e-01,-8.09251e-02,-1.21687e-02,-8.81605e-02,-7.18819e-02,-2.21106e-01,3.96555e-02,-3.76736e-01,3.26963e-02,-2.51400e-03,-9.02870e-02,-1.16824e-01,-1.70099e-01,5.38648e-02,-8.57888e-02,4.26621e-02,-9.55357e-02,3.62664e-01,-8.48349e-02,-4.16052e-02,
2.34682e-01,1.40043e-01,7.32496e-03,-3.28812e-02,-1.81942e-01,1.75250e-01,-4.30917e-02,-1.25451e-01,3.34796e-01,-2.56323e-03,1.65055e-01,-8.85741e-02,1.20873e-01,5.61357e-02,4.48172e-02,-2.47523e-01,-1.95215e-01,-7.35764e-03,-1.59158e-01,-1.74156e-02,-5.88894e-02,-5.24230e-01,1.01420e-01,-2.69498e-02,9.98318e-02,-7.21020e-02,6.52124e-02,6.93117e-02,7.47087e-03,1.36711e-01,2.47161e-01,-4.20410e-02,1.10272e-01,4.74230e-02,-1.04609e-01,-2.81061e-01,4.78696e-01,-6.20328e-02,3.39509e-01,-2.81132e-01,4.75021e-02,2.35010e-01,2.12578e-01,2.50924e-01,-1.55255e-01,-1.45933e-01,-1.03947e-01,8.49371e-02,-1.71892e-02,1.30665e-01,-5.26863e-02,7.07751e-02,2.60777e-02,2.18476e-01,8.78051e-02,-2.19291e-01,3.43205e-02,-1.99543e-01,2.54582e-01,-7.95384e-03,6.91534e-02,2.20205e-01,-1.74259e-02,-1.76166e-01,
2.90650e-01,4.61171e-02,-7.58650e-02,-7.26867e-02,-2.72942e-01,-6.75385e-02,-6.48200e-02,3.71681e-02,-4.73875e-01,2.07346e-02,3.67275e-01,1.40550e-01,-1.44357e-01,1.35652e-01,2.04916e-01,8.95721e-02,8.13120e-02,5.26509e-02,-2.88425e-02,9.31873e-02,-2.01177e-02,-9.04903e-02,-1.56064e-01,1.07657e-01,-8.76624e-02,-3.04277e-01,-1.31702e-01,-8.67913e-02,-3.76491e-02,6.88880e-02,-1.24888e-02,-4.13458e-02,3.77122e-01,2.12651e-01,-1.55779e-01,-5.12820e-02,-1.24453e-01,2.64195e-03,1.40289e-02,1.09688e-01,2.14208e-01,7.53040e-02,2.08181e-01,7.99914e-02,1.81107e-02,-1.45334e-01,2.82066e-01,-3.04421e-03,1.85743e-01,-1.62313e-01,2.02708e-01,8.03669e-02,-1.11645e-01,-9.47374e-02,-2.92378e-01,-7.29532e-02,-1.86022e-01,-1.39240e-01,-9.24855e-02,3.96971e-01,-3.30483e-01,-1.54741e-01,3.09494e-01,-1.57841e-01,
-1.07889e-01,-2.69592e-01,3.61328e-02,7.11845e-02,1.54955e-01,2.00311e-01,-7.26273e-02,3.87550e-01,-1.47382e-01,-1.85740e-01,7.99483e-02,8.98292e-03,-7.29637e-02,-2.44169e-02,8.44390e-02,-2.06199e-01,1.08245e-01,4.42449e-02,-2.64752e-01,-1.57024e-01,-1.54521e-01,6.52755e-02,3.40948e-03,4.42559e-02,-4.77233e-02,1.06117e-01,-6.33356e-02,-1.42609e-01,-3.95860e-01,-2.39576e-02,-2.07409e-01,1.87632e-01,-8.60869e-02,4.00148e-01,1.19877e-02,-5.75887e-02,-3.69294e-01,-9.14853e-02,1.98757e-01,-3.20313e-03,1.48677e-01,-1.52276e-02,4.26698e-02,1.90286e-02,-1.27668e-01,-1.90177e-01,-4.27778e-01,3.03967e-01,-7.67018e-02,-2.92219e-01,-8.99208e-03,2.55631e-01,-1.53919e-01,1.94628e-01,-1.98702e-02,-1.41178e-01,5.53561e-02,4.63020e-02,3.13497e-01,-2.83761e-01,6.10519e-02,3.01012e-02,1.48364e-01,-4.82146e-02,
-6.15851e-02,1.71519e-02,-8.92214e-03,5.57489e-02,1.92142e-01,1.92324e-01,-7.75448e-03,-1.92670e-01,-2.98250e-03,4.33675e-01,5.56767e-02,-4.60801e-01,1.58544e-01,2.08457e-02,2.89994e-01,1.68392e-01,1.23360e-01,3.79409e-01,-2.10784e-01,-1.53115e-01,1.25035e-01,-6.05436e-02,-1.47277e-01,-1.92286e-02,1.98665e-02,6.48123e-02,-2.73248e-02,1.02094e-01,-1.43435e-01,-6.56492e-02,-1.63176e-01,-1.78566e-02,3.64667e-01,-5.42608e-02,5.15126e-02,1.16957e-01,3.69828e-02,3.02719e-02,2.30683e-01,-1.00109e-01,-2.48167e-01,1.81613e-02,-1.84126e-01,-5.92462e-02,2.63535e-02,-2.89981e-02,3.83943e-02,4.57929e-01,-1.56747e-01,-1.65268e-01,-1.88586e-01,-8.13117e-02,7.87470e-02,-1.11601e-01,1.91867e-01,3.64651e-02,1.38613e-01,-2.71802e-01,-2.70108e-01,3.81455e-02,-5.87944e-02,-3.80602e-01,-7.50188e-03,-8.43250e-02,
-2.14251e-01,1.14925e-01,-1.71339e-01,-7.97394e-02,7.70645e-02,2.08782e-01,7.60461e-02,1.16239e-01,1.22623e-01,9.19103e-02,2.68542e-01,-2.15390e-01,6.24803e-02,-1.10685e-01,-2.15746e-01,-4.06626e-01,1.17998e-01,5.16111e-02,7.38814e-02,-1.79217e-01,3.30705e-02,-4.77002e-02,8.76501e-02,-2.81208e-01,1.49414e-01,9.66598e-02,2.83677e-01,8.81916e-03,-9.78549e-02,-2.79392e-02,3.04608e-01,1.50070e-01,3.04655e-01,1.76735e-01,-2.50720e-02,-6.35126e-02,-1.18437e-01,-2.49967e-01,-2.63690e-01,1.63467e-01,1.70652e-01,-1.81370e-01,1.36674e-01,1.93118e-01,2.60470e-04,3.52276e-01,-2.28846e-01,-1.25159e-01,-1.37385e-01,7.39126e-02,-2.01022e-01,6.04032e-02,1.73467e-01,-2.78755e-01,-3.30964e-02,-1.57844e-02,-1.15120e-01,2.00151e-01,-9.16743e-02,2.97012e-01,-2.88965e-01,-7.25649e-02,7.74562e-02,2.10819e-01,
4.25246e-03,1.60949e-01,-2.06207e-01,2.75582e-01,2.23046e-01,1.39414e-01,-8.01768e-02,6.80570e-03,1.85413e-01,-2.08834e-01,7.46018e-03,-1.23120e-01,-9.86745e-02,3.23328e-02,2.21088e-02,-2.29253e-02,-2.01307e-01,1.78084e-01,1.09158e-01,-1.14624e-01,1.19976e-01,-1.64242e-01,3.01930e-01,2.01847e-01,5.78235e-02,8.85838e-02,1.86103e-01,-1.98498e-01,1.30177e-01,-2.72036e-01,-1.06093e-01,-6.59454e-02,6.76765e-02,1.69645e-01,-1.42179e-01,-3.40374e-01,1.49866e-01,6.90559e-02,-5.04148e-02,1.37660e-01,2.42860e-01,-1.48786e-01,-1.57516e-02,-3.82662e-01,2.12354e-01,-3.14809e-01,2.07224e-01,2.01491e-01,1.27589e-01,-6.46492e-02,4.13384e-02,1.36061e-01,-8.40302e-02,3.92665e-02,-2.13626e-01,4.16050e-01,-7.78917e-03,2.46803e-01,-2.12322e-01,-1.44105e-01,-2.18306e-01,7.07915e-02,-2.56219e-01,-1.22722e-01,
-2.75695e-01,-2.76270e-01,1.00464e-01,-3.81485e-02,-1.78251e-01,1.47178e-01,-6.18254e-02,-2.40575e-01,-1.83195e-01,-3.11888e-01,-3.01568e-01,-2.29592e-01,9.09202e-02,1.80376e-01,-1.44201e-02,-5.98657e-02,-2.15481e-01,3.84884e-02,-1.98372e-01,-2.86204e-01,4.69415e-03,3.26211e-02,-2.19884e-01,5.90932e-02,8.36235e-02,-2.47143e-01,1.02956e-01,5.06821e-02,3.31668e-01,1.61923e-01,5.32871e-02,3.80225e-01,-2.50484e-03,7.19998e-02,9.61194e-03,-1.32405e-01,1.85538e-01,-2.23145e-01,1.17360e-01,-1.11272e-03,1.81233e-01,-7.85624e-02,-2.12700e-01,-1.52959e-01,1.11916e-01,3.59528e-02,-5.56019e-02,-4.17276e-02,3.75219e-01,-3.29338e-01,7.46085e-02,-1.53453e-01,1.53209e-01,-3.94881e-01,-1.84109e-02,-5.72492e-02,6.99670e-02,-1.58780e-02,2.50422e-02,1.34526e-01,2.01639e-01,1.56087e-01,1.32364e-01,2.74676e-03,
3.09707e-01,-9.47527e-02,7.69242e-02,9.30543e-04,2.73649e-02,1.20382e-01,1.84303e-01,5.10167e-02,1.68768e-01,-1.38253e-01,4.75081e-02,3.25594e-01,3.58762e-02,3.63709e-01,-5.83572e-02,1.14528e-01,-2.59229e-01,4.45428e-01,1.24072e-01,8.67998e-03,-2.58695e-01,9.19866e-03,3.11641e-01,-3.77260e-01,4.12503e-01,-1.81779e-01,-1.87461e-01,-6.20265e-02,-1.50560e-01,1.68177e-01,-9.95952e-02,1.63752e-01,1.16477e-01,-3.72663e-02,-7.72956e-02,3.78031e-01,-6.19098e-02,-6.66013e-02,1.64350e-01,5.75643e-03,-4.62425e-02,-4.92114e-02,6.68306e-02,9.48719e-02,1.96698e-01,1.12021e-01,-6.35583e-02,2.89820e-02,8.30619e-02,-9.84273e-03,1.44119e-02,1.83730e-02,7.59247e-02,-6.17131e-02,-2.70572e-01,8.33465e-02,2.25973e-02,4.39682e-02,-2.66682e-01,-1.54430e-01,2.77513e-01,-1.04720e-01,-5.70271e-02,1.74957e-01,
-2.52109e-02,5.39984e-02,-2.08368e-02,2.43635e-01,-2.71612e-01,2.54076e-01,1.82245e-01,1.87027e-01,-2.16886e-01,6.39651e-02,2.17504e-02,-3.64562e-02,1.02947e-01,-4.00780e-02,-3.89533e-01,1.06022e-01,4.27600e-02,-1.21885e-01,1.35032e-01,-3.11902e-02,7.72041e-02,-4.47527e-01,-1.31456e-01,-7.14609e-02,-2.02877e-01,8.95362e-02,5.51092e-02,-3.11299e-01,-5.92885e-02,2.05316e-01,3.30842e-01,-1.10143e-01,-3.56245e-01,1.21490e-01,-3.13992e-01,1.95756e-01,2.14230e-02,4.42418e-02,9.77640e-02,8.59046e-02,2.11223e-01,-1.24205e-01,-3.82713e-01,1.83794e-01,1.01700e-01,1.15528e-01,9.85761e-02,2.99702e-01,-1.51053e-01,1.97774e-02,1.38727e-01,-2.53230e-01,-1.25361e-01,-7.26746e-02,-8.42217e-02,-2.20395e-03,-1.89341e-02,-1.59633e-01,-1.73087e-01,-2.09597e-01,7.56069e-02,-1.17241e-01,2.53431e-03,-7.61389e-02,
3.55747e-01,-2.51805e-01,2.06404e-01,7.69671e-02,1.50852e-01,-1.53979e-01,1.38659e-01,-2.08468e-01,2.31928e-01,3.54998e-03,-1.75395e-01,-6.19047e-02,1.29038e-01,-9.24316e-02,1.41904e-01,-2.78281e-04,-8.83925e-02,6.81983e-02,1.53169e-01,5.19949e-02,2.36730e-01,3.19606e-01,1.18419e-01,1.69501e-01,-2.31564e-01,9.76048e-02,9.39970e-02,-3.29241e-02,-1.18083e-01,2.99912e-02,-4.58209e-02,1.22114e-01,-1.17564e-01,2.10331e-01,-1.08052e-01,2.33529e-01,-5.91020e-02,-2.19956e-01,7.28951e-02,-1.84039e-01,4.23906e-01,-3.36919e-01,-5.46570e-02,1.20211e-01,3.64466e-02,1.97689e-01,1.01687e-01,1.95154e-01,3.62525e-03,2.12768e-01,2.04701e-01,-1.11004e-01,-5.79908e-02,7.95890e-02,8.97196e-02,-2.03042e-01,2.44489e-01,6.85986e-02,1.38880e-01,3.80537e-01,-1.93110e-01,-1.22601e-02,-5.95165e-02,-1.48864e-01,
1.25882e-01,-8.24544e-02,-2.28630e-01,1.96105e-01,-3.48946e-01,5.15096e-02,1.44566e-01,1.71753e-02,6.28100e-02,2.92061e-01,2.67503e-01,-1.69412e-01,-2.17163e-01,-7.00001e-02,6.77809e-03,-8.20173e-03,-3.08138e-01,-7.01220e-02,3.46160e-02,-4.10325e-03,4.70954e-02,1.85506e-01,-2.14871e-01,1.99099e-01,9.64799e-02,1.15419e-01,-7.99003e-02,2.48874e-03,1.36969e-01,-5.56320e-03,-4.34856e-02,2.18361e-01,9.63944e-02,1.38063e-01,1.24974e-01,3.65232e-02,-1.22678e-01,2.91725e-01,-1.78280e-01,-3.68467e-02,3.57178e-01,2.39771e-01,2.76341e-01,-2.07077e-01,-7.10512e-02,3.28625e-01,1.38109e-01,-4.48749e-02,-3.86069e-02,7.26835e-03,-1.59099e-01,-1.53572e-01,2.11265e-01,-9.26239e-02,-2.29185e-02,5.79877e-03,1.50171e-01,8.48939e-02,2.03306e-01,-4.33226e-01,3.09014e-01,-2.15306e-01,-5.62910e-02,-1.42877e-01,
-2.31829e-01,-2.28143e-01,-2.52969e-01,-9.63995e-02,-2.02118e-01,-1.49759e-01,2.17123e-01,-2.11516e-01,-6.04180e-02,-8.69725e-02,-1.64110e-01,-1.22091e-01,4.36580e-02,-2.39721e-02,1.84210e-02,-1.41511e-01,2.80425e-02,7.03735e-02,-1.81023e-01,-1.76553e-02,1.47302e-01,-8.42954e-02,-9.16438e-02,6.37790e-02,1.16920e-01,-2.01892e-01,1.54952e-01,3.21267e-01,-2.86610e-01,-2.88371e-02,-8.74638e-02,-4.48528e-01,1.21100e-01,1.67354e-02,1.47984e-01,8.62678e-02,1.67957e-01,-1.59240e-01,-1.14558e-01,2.12305e-01,1.14513e-01,-1.77474e-01,1.75106e-01,1.22270e-02,-1.86995e-01,2.12912e-01,-3.55651e-02,-6.43332e-03,-8.77011e-02,3.30544e-02,4.69320e-01,1.55114e-01,-1.80308e-01,1.80809e-01,-3.97513e-01,2.08181e-02,1.36089e-01,-2.29599e-01,-4.08412e-02,-2.47753e-01,6.59206e-02,-8.15277e-02,-2.90943e-01,1.28944e-01,
1.88571e-01,9.60377e-02,1.47678e-01,1.10158e-01,1.62170e-01,-5.21477e-02,-3.50313e-02,1.19570e-01,-7.51733e-02,6.91948e-02,4.37256e-02,-1.73427e-01,-1.50118e-02,-1.19402e-01,2.79487e-01,-3.59081e-02,-3.55401e-01,1.53354e-02,-5.94939e-02,-1.99692e-01,-2.89708e-01,6.36015e-02,2.52299e-02,-2.98444e-02,-1.69138e-01,-1.44908e-01,-1.12919e-01,-1.63303e-01,5.42927e-02,8.37705e-02,-1.52351e-01,-7.38286e-02,-2.40786e-01,1.89843e-01,2.92816e-01,-3.50441e-01,7.29523e-02,-2.38069e-01,5.34611e-03,2.06347e-02,1.19562e-01,1.33434e-01,-7.24314e-02,9.63949e-02,2.25425e-01,1.66804e-01,-4.19641e-02,-1.67022e-01,-1.88011e-01,9.92946e-02,-4.72378e-02,-3.16097e-01,-1.49230e-01,2.43206e-02,-1.21436e-01,1.45289e-01,-3.03774e-01,-4.11035e-01,1.21223e-01,7.09094e-02,-8.38146e-02,-2.11971e-01,-2.65351e-01,4.73237e-01,
1.75337e-01,-9.61124e-02,1.58860e-01,-6.49294e-02,1.26806e-02,-1.19816e-01,-4.59998e-01,1.37772e-02,-3.04695e-01,-6.96620e-02,2.68554e-01,-1.56828e-01,-9.59714e-02,-3.16161e-01,-2.70458e-01,6.52116e-02,-1.93902e-01,9.08988e-03,-3.40764e-01,-3.09347e-03,9.73503e-02,-1.44320e-01,6.66031e-02,-2.97149e-01,1.52607e-01,1.18995e-01,1.27372e-01,7.13290e-03,9.70120e-02,-2.58768e-01,-5.33130e-03,1.58341e-01,-1.62598e-02,-8.57254e-02,-7.79835e-02,3.66794e-01,-7.77450e-02,-3.14300e-01,4.06909e-03,2.61907e-02,5.32164e-02,1.05633e-01,-9.53875e-02,-8.86218e-02,1.55967e-01,-1.57823e-02,1.44790e-01,-1.15163e-01,2.14850e-01,2.38472e-01,1.62578e-01,3.30338e-01,1.47774e-01,4.77429e-02,2.01423e-01,-8.99668e-02,-9.59507e-03,-1.75979e-01,1.09650e-01,-1.45431e-01,-1.17645e-01,-1.49167e-01,-3.48507e-01,-1.20768e-01,
1.70097e-01,1.79563e-01,2.57933e-01,1.68427e-01,-8.79096e-02,6.49069e-02,2.53057e-01,1.27837e-01,-8.89739e-02,2.26598e-01,-2.55277e-02,3.77287e-02,-1.38033e-01,1.24415e-01,-1.82200e-01,3.37836e-01,-6.63596e-02,-8.81270e-02,1.62138e-03,-2.49314e-01,-3.19380e-01,1.31858e-01,1.56028e-02,-6.63062e-02,-3.30793e-01,-7.86084e-02,-7.42698e-02,3.40659e-01,-4.70119e-02,-4.45602e-01,4.80693e-02,9.66962e-02,1.62232e-01,6.65313e-02,-1.13035e-01,-2.39457e-01,1.80321e-01,-2.23349e-01,-1.75583e-02,1.46052e-01,-7.85206e-02,-4.46576e-01,-1.40266e-01,-6.58423e-02,-2.34045e-01,7.49018e-04,-1.81882e-02,-2.75985e-02,-1.41563e-01,7.87887e-02,-1.08330e-02,2.05155e-01,4.02736e-01,8.45223e-02,-1.89490e-01,-2.45570e-02,6.34721e-04,-8.34122e-02,9.68362e-02,1.62907e-02,1.65283e-01,1.04415e-01,9.45719e-03,-2.02159e-01,
-7.58547e-03,5.20858e-02,-3.28465e-01,-1.74147e-02,1.22362e-01,-3.37331e-02,-1.73750e-01,6.55227e-02,1.33831e-02,-9.40219e-02,-9.00765e-02,-4.47053e-01,-3.35375e-01,5.19283e-02,1.90273e-01,2.83856e-01,2.24081e-01,2.24529e-01,2.20159e-02,1.26375e-01,-1.08441e-01,1.75029e-01,-5.21270e-02,7.47692e-02,-1.70126e-01,-1.77540e-01,-1.35077e-02,6.83178e-02,4.26887e-02,9.92021e-02,3.85112e-01,9.60227e-04,-8.26022e-02,1.61709e-01,-1.41174e-01,1.99202e-01,1.49061e-01,2.94884e-02,1.55658e-03,-8.26166e-02,1.79826e-01,-7.58039e-02,3.42118e-02,-8.93087e-02,3.31199e-01,1.41932e-01,-1.37802e-01,-1.43932e-01,-8.26696e-02,1.56918e-01,-1.59943e-01,3.80025e-01,-1.63800e-01,1.69632e-01,1.19675e-01,-2.02016e-01,-2.98381e-01,-1.01891e-01,-2.62339e-01,-7.10244e-02,3.22490e-01,2.19298e-01,9.27210e-02,3.16108e-02,
-4.58427e-02,6.86441e-02,-1.67223e-01,1.08696e-01,8.91089e-02,-4.20087e-01,-3.87140e-01,2.42326e-02,6.98287e-02,-1.23277e-01,1.45700e-01,2.05100e-01,-4.10767e-01,2.29050e-01,-1.83374e-01,1.61061e-01,-9.93147e-02,-4.36236e-02,-6.50820e-02,5.74210e-02,-6.13549e-02,3.61019e-02,-2.31968e-01,9.97676e-02,1.00311e-01,-6.56380e-02,5.52853e-01,-9.68598e-02,-3.74024e-01,1.59007e-01,-7.61598e-02,-1.30535e-01,9.00769e-02,1.99538e-01,-1.61925e-01,-6.93587e-02,4.34042e-02,9.93413e-02,2.19207e-01,-2.58846e-02,-2.12465e-01,-1.62014e-01,-1.24964e-01,6.57642e-02,4.05781e-02,1.85127e-01,-8.15018e-03,-4.23495e-02,-1.09243e-01,-4.65577e-02,-1.62047e-01,-1.90715e-01,1.46687e-01,-1.54331e-01,9.60375e-02,2.25051e-01,3.29353e-01,-1.60184e-01,1.87628e-01,1.16678e-01,5.17902e-02,5.17771e-02,-4.93844e-02,4.69049e-02,
5.39170e-02,-4.26605e-01,4.73143e-02,1.17082e-01,-1.57373e-01,1.85180e-01,-5.37918e-02,-2.40046e-01,-2.43546e-01,2.01616e-01,1.31148e-03,6.26953e-02,-4.99658e-02,9.21010e-02,-7.14326e-02,2.95240e-01,-2.65010e-01,-2.08144e-01,-1.13833e-01,9.22391e-02,-3.26517e-01,-1.28157e-02,3.38753e-02,-1.22385e-01,7.93724e-02,4.57441e-02,2.52300e-01,-2.58937e-01,-9.31586e-02,6.98947e-02,1.23704e-03,-1.56932e-01,1.01721e-01,-1.08158e-01,-9.98185e-03,-4.30912e-02,1.87547e-01,-7.74594e-02,-3.40388e-01,-2.46635e-01,1.74642e-01,2.59659e-02,9.01267e-02,-2.36850e-01,-1.90016e-01,-1.46657e-01,-2.27298e-01,8.38354e-02,-2.46279e-01,-4.32659e-02,-1.97052e-01,5.72040e-02,-3.11990e-01,1.19012e-01,1.26474e-01,-1.62215e-01,3.93235e-02,3.28375e-01,-2.44807e-01,3.30813e-01,2.77726e-02,-4.34404e-02,-1.84690e-01,9.84997e-02,
2.16176e-01,-2.40635e-01,-1.80205e-01,-1.57943e-01,-1.90836e-01,-8.52749e-02,2.16462e-01,1.00317e-01,-1.68264e-01,1.71577e-02,-4.11550e-02,2.31787e-01,-1.20148e-01,9.67871e-02,1.99987e-01,-3.54375e-01,1.61432e-02,7.10495e-02,-2.75007e-03,3.49517e-02,-1.10629e-01,-2.02262e-01,1.89478e-01,3.35994e-01,-5.19321e-02,2.35625e-01,1.43637e-01,1.59399e-01,3.16125e-01,-1.83471e-01,9.56235e-02,2.29633e-02,-2.29168e-01,2.58805e-01,4.10971e-03,9.05693e-02,-2.89666e-02,2.42697e-01,1.43775e-01,3.00767e-02,-1.44458e-01,-5.00466e-02,-2.63181e-01,6.74846e-02,-2.39574e-01,6.85640e-02,-3.67320e-02,2.81780e-02,7.69351e-02,-1.72357e-01,-1.56511e-01,3.26042e-01,1.58888e-01,-9.34982e-02,2.05526e-01,1.23716e-02,-7.23659e-02,-1.12025e-01,-2.13516e-01,2.60652e-01,9.20368e-02,-2.00839e-01,-3.90809e-01,2.41131e-01,
9.56380e-02,-2.82148e-01,1.07651e-01,1.26372e-01,-3.06196e-03,5.05989e-02,-1.71192e-01,-1.73055e-01,4.46971e-01,-3.37563e-01,2.42722e-01,-2.45783e-01,-1.32358e-01,6.18755e-02,3.08892e-02,-6.18413e-02,7.30443e-02,-1.37240e-01,-1.46004e-01,2.26276e-01,-1.86238e-01,-2.17496e-01,-1.85648e-01,-2.36505e-01,-1.36110e-01,-9.47856e-02,-1.09137e-01,3.02268e-01,1.83009e-01,-3.97590e-01,-1.89185e-01,8.89326e-02,-1.15777e-01,4.19547e-02,1.34746e-02,1.29705e-01,-1.83774e-02,1.99974e-01,-1.08999e-01,6.57636e-02,9.08146e-02,3.61218e-02,-2.66146e-01,3.47839e-01,4.07430e-03,-3.60210e-02,1.86650e-01,-1.26795e-01,-3.76460e-01,-1.66199e-01,-7.41704e-02,-1.59695e-02,-2.28443e-01,-9.57307e-02,-2.36106e-01,5.10456e-02,1.72440e-01,1.44692e-01,-7.35865e-02,5.55538e-02,-3.25064e-02,-4.45359e-02,1.65446e-01,2.91587e-02,
-9.85070e-02,1.22538e-01,-1.06081e-01,2.80035e-01,1.45894e-01,2.13129e-01,-1.17850e-01,-3.50007e-01,1.48450e-02,3.33261e-02,-1.36673e-01,2.51064e-01,-3.10470e-01,-4.46689e-01,-1.55077e-02,-1.08461e-02,1.93262e-01,9.54218e-03,2.82120e-01,-1.76969e-01,-2.77335e-01,-8.55803e-02,-9.25035e-02,-3.18730e-02,1.24080e-01,-8.68596e-02,-8.95366e-02,1.99396e-01,1.97259e-01,1.02467e-01,-9.13434e-02,-1.06004e-01,1.69323e-01,-7.27489e-02,-1.58776e-01,3.60012e-02,-1.18218e-01,1.89558e-02,1.94352e-01,8.50532e-02,5.01251e-02,-1.63250e-02,-1.49541e-01,1.07443e-01,1.17748e-02,2.69523e-01,-1.56259e-01,5.36513e-03,3.59340e-01,-1.38194e-01,-2.26860e-01,-8.05031e-02,-2.28970e-01,2.45069e-01,-1.82842e-01,-2.18878e-01,-6.16100e-02,8.64930e-02,2.28232e-01,1.22079e-01,-8.49047e-03,-2.08081e-01,-3.05261e-01,-2.30071e-01,
-1.46055e-01,2.07668e-01,1.03232e-01,3.83918e-01,-3.79212e-02,-3.67439e-01,2.45051e-01,-3.28970e-01,-2.03203e-01,-5.72792e-02,7.65975e-03,-2.60563e-03,1.26727e-01,2.24002e-01,6.36923e-02,-1.49946e-01,-9.63033e-02,1.42547e-01,1.63427e-02,2.63996e-01,-9.67265e-02,-8.10802e-02,-4.61289e-01,-1.19799e-01,3.07938e-01,4.00050e-01,-1.11925e-01,6.54906e-02,-1.55427e-02,-2.49551e-01,2.96309e-01,-4.06087e-03,-1.59999e-01,2.43928e-01,8.69025e-02,1.24197e-01,-5.90817e-02,-7.99841e-02,1.61141e-02,-1.94771e-01,-6.64473e-02,-4.67684e-03,4.62584e-02,-1.67566e-01,2.99209e-01,-1.21419e-01,-2.08285e-01,1.43109e-02,-5.02730e-02,-8.74030e-02,-2.96584e-02,-5.73245e-02,1.73293e-01,2.81074e-01,-1.84368e-01,-1.02590e-02,-1.35961e-01,4.84834e-02,8.95499e-02,9.67927e-02,-1.78104e-01,3.76555e-02,2.19454e-02,-9.74051e-03,
-6.43063e-02,-2.34450e-01,2.94561e-01,1.76704e-01,9.50359e-02,-1.99436e-01,-2.93070e-01,-7.16448e-02,-1.37427e-01,1.35886e-01,-1.45891e-01,-1.62195e-01,-1.93310e-03,-1.14952e-02,-3.41621e-02,-2.08628e-01,1.33958e-01,3.39941e-02,1.85463e-01,1.13859e-01,-1.88919e-01,1.30595e-01,1.58303e-01,-9.87895e-02,3.11780e-01,-4.95676e-02,-4.01023e-01,-4.33879e-02,9.25999e-04,6.83784e-02,2.76659e-01,-3.63821e-02,2.71963e-01,1.33781e-01,-2.19263e-01,-1.18532e-01,2.01112e-02,4.62273e-01,-1.26369e-01,-3.47181e-02,1.78525e-01,-2.37611e-01,-1.22307e-01,1.47047e-02,-3.13367e-01,-2.31952e-01,-8.78291e-02,-4.41553e-02,-7.37476e-02,1.46048e-01,1.42147e-01,-7.25970e-02,-2.52024e-02,-3.53219e-01,7.04333e-02,2.23294e-02,-3.16840e-02,-3.10389e-01,6.51202e-02,-2.07016e-01,-1.21421e-01,1.12527e-01,-2.01375e-01,5.47036e-02,
-6.47058e-03,-2.01105e-02,9.22352e-02,9.87802e-02,1.06156e-01,-2.09870e-01,-5.00044e-02,1.75072e-01,6.38679e-02,8.95454e-02,-6.55353e-02,-4.23734e-02,1.00380e-01,-1.17992e-01,-1.37837e-02,1.06621e-01,2.49346e-01,-1.80415e-01,-2.15881e-01,3.54402e-02,-4.33685e-01,-1.63416e-02,2.67333e-01,1.67049e-01,1.26946e-01,2.28628e-01,3.08962e-01,-8.82114e-02,4.67696e-01,3.84895e-02,1.32611e-01,-7.90229e-02,2.38097e-01,-2.27884e-01,-4.15557e-02,-6.18220e-02,-1.19586e-01,-3.64569e-02,-1.56074e-01,6.70912e-02,4.73943e-02,-5.02382e-03,8.52138e-02,1.00843e-01,3.14112e-01,1.75829e-02,7.21728e-02,2.27111e-01,-6.22529e-02,-3.16404e-01,3.31850e-01,-8.02756e-02,1.79137e-01,2.35527e-01,-1.37765e-01,-1.86378e-01,1.95929e-01,-1.50020e-01,7.34065e-04,-3.43680e-02,1.68734e-01,-9.60874e-02,2.34101e-01,2.51461e-01,
-3.04128e-01,-3.55363e-02,-8.34349e-02,2.07161e-02,2.83093e-01,-6.04715e-02,-7.41559e-02,-1.51792e-01,-1.37417e-01,-5.55200e-02,1.51129e-01,2.26235e-02,-1.20538e-03,1.51289e-02,5.87331e-02,-1.89334e-01,-2.21788e-01,-2.50767e-01,-4.51967e-02,-2.41846e-01,-8.53205e-02,2.14505e-01,1.74714e-01,-1.91443e-01,8.10000e-02,-5.73939e-02,-5.11532e-02,3.36005e-01,-1.91554e-01,2.72529e-01,2.43466e-01,-9.88855e-02,-3.49607e-01,2.09983e-02,-1.38748e-02,-1.05031e-01,-1.63602e-01,3.31144e-02,-6.72314e-02,-1.47253e-01,1.18229e-01,-5.24122e-02,1.37619e-01,1.98883e-01,-5.35043e-02,-1.97320e-01,6.55798e-01,2.95155e-01,9.70607e-03,7.51729e-03,-1.83936e-01,1.03649e-01,2.24942e-01,1.47182e-01,-6.30437e-02,7.47919e-04,-4.98951e-02,-1.90163e-02,-1.71003e-01,1.35936e-01,2.66113e-01,-1.53480e-01,2.16293e-02,-1.21161e-01,
