// Neural Network File Format by Kyle Julian, Stanford 2016
7,2,1,64,
2,64,64,64,64,1,4,1,
0,
-3.4028235e+38,-3.4028235e+38,
3.4028235e+38,3.4028235e+38,
0.0,0.0,0.0,
1.0,1.0,1.0,
-4.03888e-01,-2.59696e-01,
-2.09664e-01,-2.56535e-01,
-8.91697e-02,-1.55380e-01,
-1.43105e-01,-5.71258e-02,
-1.37924e-01,5.39920e-02,
2.44374e-01,1.92071e-01,
-4.39980e-02,-1.76251e-01,
1.86694e-01,1.95420e-01,
-3.24338e-01,5.67883e-02,
-2.53460e-01,-1.16782e-01,
-2.03514e-01,-1.81589e-02,
1.71867e-01,1.64402e-01,
3.04196e-01,6.32646e-03,
-6.55806e-02,3.09701e-01,
1.88880e-01,2.47591e-01,
1.57799e-01,3.23631e-02,
2.37608e-01,-4.12185e-02,
-2.63572e-02,-4.82337e-02,
-6.85216e-01,6.69138e-03,
-3.36126e-02,-8.72509e-03,
-7.93127e-02,-1.39147e-01,
2.02182e-01,9.71391e-02,
-6.03744e-02,-1.14680e-01,
-4.04617e-02,2.69771e-01,
3.68785e-01,2.58818e-01,
1.85730e-01,1.05852e-01,
-9.45419e-02,8.10576e-02,
2.18042e-01,1.25252e-01,
-3.80580e-01,3.29998e-02,
-1.33559e-01,9.89823e-02,
-1.44761e-01,-3.13200e-03,
-3.69425e-01,-1.61317e-01,
-1.52823e-01,-3.59468e-01,
8.34819e-02,3.75182e-01,
1.42392e-01,1.74630e-01,
5.01123e-02,3.13319e-01,
1.78261e-01,1.55761e-01,
1.80579e-01,1.38150e-02,
-1.46305e-01,-1.58198e-01,
1.00655e-01,1.37847e-01,
4.74731e-02,-3.50950e-01,
5.70985e-02,3.09271e-01,
-3.20284e-01,3.30833e-02,
-2.29501e-01,-8.54102e-03,
1.89855e-01,2.10075e-01,
2.17572e-01,5.39187e-02,
-6.83712e-02,-2.88865e-04,
-1.19084e-01,9.04131e-02,
1.36946e-01,2.63832e-01,
-1.51959e-01,-1.20484e-01,
-9.38408e-02,4.25489e-01,
-2.62744e-01,-1.06384e-01,
-2.33527e-01,5.18111e-02,
-1.58904e-01,1.21756e-01,
-7.28408e-02,-7.08542e-04,
-1.27591e-01,-1.33103e-03,
-2.03929e-01,-2.34156e-03,
-2.49036e-01,-9.88821e-02,
1.85730e-01,-8.70596e-03,
-1.49107e-01,-2.82542e-01,
-4.74287e-02,-9.75254e-02,
2.28443e-01,5.13240e-02,
-1.64212e-01,3.66530e-01,
-2.61658e-01,-2.88449e-01,
3.65136e-02,
-2.76880e-02,
-2.51598e-02,
1.21441e-01,
-1.32797e-01,
-1.02714e-01,
-5.16160e-02,
-8.42838e-02,
-8.97820e-02,
8.94478e-02,
1.39374e-01,
-1.55151e-01,
-1.55862e-01,
-7.79446e-02,
-6.04533e-02,
-1.85909e-01,
-2.62731e-02,
-1.09614e-01,
5.25157e-02,
-1.53704e-01,
1.16458e-01,
-1.58040e-01,
1.05868e-01,
-8.59363e-02,
-1.12010e-01,
-1.78349e-01,
-5.45059e-02,
-8.06453e-02,
1.13722e-01,
-1.01434e-01,
-4.62408e-03,
3.69050e-02,
1.67397e-02,
-8.94894e-02,
-9.21337e-02,
-7.60718e-02,
-1.49423e-01,
-1.80127e-01,
9.02285e-02,
-9.22261e-02,
-1.21310e-01,
-8.32148e-02,
1.50764e-01,
-2.13933e-02,
-1.06002e-01,
-1.41543e-01,
-9.98986e-02,
9.71218e-03,
-8.87176e-02,
1.34763e-01,
-1.00108e-01,
-5.45908e-02,
1.63831e-01,
-1.38387e-01,
-9.03262e-04,
-1.79474e-03,
-1.99102e-03,
5.87075e-02,
-7.40554e-02,
-8.30969e-02,
-5.31501e-02,
-1.39490e-01,
-8.00950e-02,
9.43979e-02,
-3.12533e-01,8.47119e-02,-1.64266e-01,8.76400e-02,2.81640e-01,5.39835e-02,-2.95262e-02,8.03174e-02,-3.14047e-02,1.15194e-01,-4.30910e-02,9.35891e-02,-1.11377e-01,1.21574e-01,4.29767e-01,7.12890e-02,-2.03983e-01,2.88753e-02,1.50145e-01,8.90932e-02,1.54228e-01,5.26872e-02,2.79067e-01,-2.50256e-01,4.31122e-01,1.37978e-01,2.49887e-01,2.57708e-01,-5.26357e-01,-1.24258e-01,6.42241e-02,-1.11064e-01,-2.19403e-02,3.13941e-01,-1.36433e-01,1.03446e-01,3.36118e-01,-3.89235e-02,-1.97149e-01,3.03173e-01,-8.07159e-02,1.28225e-01,-1.56549e-02,-1.60960e-01,3.45362e-02,6.19444e-02,3.73137e-02,2.08661e-01,2.79014e-01,7.02217e-02,-1.20381e-01,9.20296e-02,-1.11979e-03,-3.38821e-01,-4.32799e-02,1.67214e-01,4.31783e-02,2.64564e-01,-1.69080e-02,-1.44360e-01,1.37888e-01,4.60476e-02,4.08519e-01,-2.37844e-02,
2.33213e-01,6.33910e-02,3.50784e-01,1.03130e-01,-2.92717e-01,-1.72259e-01,4.60307e-02,1.70639e-02,-8.34163e-02,-7.47662e-02,1.98454e-01,2.76196e-01,-2.36905e-01,-2.72661e-01,2.57853e-01,-5.78807e-02,-3.91061e-02,2.31848e-02,8.90769e-02,-1.10590e-01,-2.53277e-01,-3.82465e-01,-1.19282e-01,-1.28292e-01,-2.49392e-01,1.86122e-01,1.72982e-01,-1.50696e-01,5.10113e-03,-1.63481e-01,-1.92428e-01,-7.91153e-02,2.64608e-02,-9.90410e-02,-9.14152e-02,5.38563e-02,-1.14294e-01,1.63186e-02,-1.56662e-02,6.87479e-02,-2.00773e-01,-2.57510e-01,-3.01461e-01,5.85836e-02,-2.78079e-01,1.08501e-02,-1.23377e-01,1.49369e-01,4.01493e-01,-2.59176e-02,-1.31183e-01,-2.24797e-01,-1.38594e-01,3.16563e-02,-1.43616e-01,-4.43717e-03,7.90634e-02,2.00283e-01,5.81721e-02,-1.40343e-01,7.43947e-02,-3.86845e-01,-1.66830e-01,1.85300e-02,
1.34478e-01,-8.54625e-02,-3.56762e-01,7.41252e-02,-1.47863e-01,1.92585e-01,2.11512e-01,1.83898e-01,3.04534e-01,1.81720e-03,-6.57035e-02,1.45938e-01,-1.16729e-01,-3.70782e-02,-1.59831e-01,-2.64977e-01,-1.57679e-01,-1.21391e-01,6.17602e-02,-1.58158e-01,-3.76289e-02,9.28611e-02,4.05125e-02,-7.78257e-02,-1.06565e-01,-6.93702e-02,-6.91341e-02,-1.22879e-01,-2.75420e-01,-1.97479e-01,1.53820e-01,1.16938e-02,-1.14955e-01,2.40457e-01,3.75351e-01,-2.30714e-01,-4.09142e-01,1.94269e-01,2.62049e-01,9.28022e-03,9.23379e-02,-1.11809e-01,5.10161e-01,1.38273e-02,-2.31002e-02,-1.69497e-01,4.17519e-02,1.53984e-01,3.27164e-01,-7.42986e-02,-4.71032e-02,-1.35186e-01,9.61888e-02,-4.63077e-02,1.86918e-02,2.24601e-01,1.77256e-01,-4.33724e-02,-2.23453e-01,4.94795e-02,-8.76494e-02,-2.47105e-01,-2.54388e-02,2.64392e-01,
1.32123e-01,-5.86594e-02,1.21957e-01,-2.19591e-02,8.60605e-02,-4.31877e-01,-3.13719e-01,7.89717e-02,1.74492e-01,-2.04462e-01,-2.58715e-01,-3.29654e-01,-4.39985e-01,3.70299e-02,-1.37253e-01,-1.08630e-01,1.41351e-01,5.99143e-03,8.49488e-02,-1.62318e-01,2.49012e-01,9.21273e-02,4.67714e-02,-1.91642e-01,-3.09403e-01,2.51858e-02,-2.78395e-01,-4.38698e-01,-2.90310e-01,8.61864e-02,-3.69088e-01,-1.06436e-01,1.17666e-01,2.62961e-02,9.16246e-02,7.17295e-02,4.34218e-02,1.53429e-01,-2.48818e-03,1.11044e-01,2.07692e-01,3.39760e-02,-2.71021e-01,2.04072e-01,1.08809e-01,-2.07909e-01,4.41168e-02,3.90951e-02,-7.27347e-02,-1.66376e-01,1.04383e-01,-1.35082e-01,-2.64200e-01,-2.20776e-02,-7.40953e-02,-1.76103e-01,-8.81212e-02,-2.40599e-01,-1.24175e-01,7.79329e-02,-2.70657e-01,-1.31256e-01,2.63523e-01,-1.16549e-01,
-1.91170e-01,-1.29526e-01,-6.76262e-02,-1.58205e-01,2.79015e-03,1.44073e-01,-1.68395e-01,1.48962e-01,-1.11446e-03,2.44052e-01,2.12543e-02,2.50999e-01,1.51975e-01,2.31444e-01,-7.67470e-02,3.85483e-01,9.24919e-03,-3.20011e-01,1.80300e-01,-1.62870e-01,-1.42137e-01,2.98815e-01,-3.94207e-01,2.61622e-01,6.20379e-01,1.29324e-01,3.02235e-01,2.57964e-01,-1.74511e-01,-1.47832e-01,-9.42406e-02,5.49300e-03,-9.55348e-02,-1.35842e-01,1.72953e-01,2.00362e-01,1.35854e-01,4.41680e-01,-2.19811e-01,7.33455e-02,-1.62602e-02,1.07693e-01,-6.18448e-02,-3.91656e-02,-4.07123e-02,-1.41323e-01,2.53904e-02,-1.07843e-02,1.74112e-01,-3.98129e-02,3.50185e-01,-2.45503e-01,-4.38589e-01,1.21695e-03,-9.96687e-02,-2.15550e-02,1.71440e-01,2.03363e-01,8.00439e-03,1.20401e-01,-3.05840e-01,1.94568e-02,1.05609e-01,-3.72525e-01,
-1.29978e-01,2.92272e-01,1.23133e-01,-9.73223e-02,-5.44263e-03,-2.92940e-01,1.27236e-01,3.38793e-02,3.21493e-01,2.04923e-01,-2.56433e-02,1.23437e-01,-5.25635e-03,-8.57670e-02,-8.94388e-02,2.25669e-01,4.26886e-03,-2.08853e-01,-7.89222e-02,9.45528e-03,1.31334e-01,7.32263e-02,7.59154e-02,7.75010e-02,-9.32730e-02,-7.89135e-02,2.26246e-01,-3.70682e-02,-2.04483e-01,4.83163e-02,3.09976e-01,1.42224e-01,7.03146e-02,-3.91277e-02,-2.22317e-01,-8.32255e-02,-8.00995e-02,-1.00096e-01,3.94426e-01,-1.64864e-02,4.28647e-02,-1.56348e-01,-4.12409e-01,2.96541e-02,1.32465e-01,1.17920e-01,2.07777e-01,-2.46994e-01,-1.40374e-01,-2.36162e-01,9.72605e-02,-1.86119e-02,-6.69400e-02,4.55550e-01,-1.55669e-01,-1.58435e-01,-9.30690e-03,2.31673e-01,3.06629e-01,1.16935e-01,1.82637e-01,-1.52340e-01,1.49798e-02,3.80552e-01,
6.67819e-02,-1.24324e-01,2.52295e-01,5.29159e-01,9.61773e-03,1.36562e-01,1.49938e-01,-3.76841e-01,-2.66496e-01,-6.17294e-02,2.63563e-01,-3.21490e-02,-2.12461e-01,-2.46987e-01,6.42176e-04,-1.28149e-01,-1.63810e-01,-2.96016e-02,3.78932e-02,-2.49956e-01,3.89201e-01,-4.92070e-01,-1.60639e-01,-6.86472e-03,1.09413e-01,-4.47056e-02,-1.32421e-02,2.58161e-02,-2.11429e-01,1.32032e-01,3.04443e-01,1.62693e-01,-1.87140e-01,-2.78220e-01,1.53885e-01,-5.89304e-02,3.20425e-02,-8.27206e-02,1.36208e-01,1.68119e-01,-8.17623e-02,-1.91407e-01,2.81355e-02,-1.47908e-01,1.21224e-01,-1.53177e-01,-4.18470e-02,-1.67846e-01,-1.81255e-01,-6.97271e-02,-2.66966e-02,3.27366e-02,8.38005e-02,6.33957e-03,2.92540e-02,9.29778e-03,1.17691e-01,-9.14834e-02,-5.27123e-02,2.48312e-01,-3.11920e-01,1.93672e-01,-1.36429e-01,1.41018e-01,
9.07861e-02,-2.38693e-01,-1.80355e-02,3.19663e-02,-9.94842e-02,-7.49409e-02,-2.69619e-01,1.19934e-01,2.46557e-01,2.18446e-01,-1.94573e-01,2.85028e-03,-1.21401e-01,-2.13000e-01,9.80864e-03,-8.87737e-02,-4.44616e-01,-6.17201e-02,-1.20157e-02,-1.84356e-01,-9.48929e-02,4.65386e-03,-1.44571e-01,-8.42256e-02,-3.26257e-02,1.14444e-01,2.87214e-03,-1.05304e-01,3.94805e-02,6.18579e-02,3.10564e-01,2.44009e-03,5.17982e-02,2.31549e-02,4.29422e-02,-1.17441e-01,-2.93458e-02,1.84314e-01,-2.35041e-01,6.89211e-04,-3.24946e-01,2.89905e-01,-2.26120e-02,-1.84215e-01,-1.91113e-01,3.03251e-01,3.39899e-01,-3.08399e-01,-1.15679e-01,-2.57258e-01,-1.71509e-01,-9.58273e-02,-1.96576e-01,-2.98791e-01,-1.83647e-01,-1.29369e-01,-8.07604e-02,-2.72294e-01,1.64212e-01,-1.47006e-01,2.45014e-01,2.30837e-01,7.15518e-03,-1.18732e-01,
-1.82436e-01,3.24650e-02,5.88377e-02,1.53144e-02,-1.18527e-02,-2.84758e-01,-2.25840e-02,2.63206e-01,-1.89229e-02,2.30786e-01,-1.31400e-01,9.26302e-02,-1.56612e-01,7.24435e-02,7.36544e-03,-3.08648e-01,-3.92371e-01,-1.08503e-01,6.76704e-02,1.82723e-01,-1.53725e-01,-1.65152e-01,-4.19595e-02,1.82854e-02,7.86618e-02,-4.07131e-01,-4.37455e-02,5.48681e-02,2.01262e-01,1.84489e-01,-8.45555e-02,5.21667e-01,9.05256e-02,1.98213e-01,-7.79186e-02,5.84455e-02,-1.98065e-01,-1.81905e-02,2.47022e-01,1.37638e-01,-1.33965e-01,-2.92890e-01,-6.86399e-02,1.70488e-01,2.53843e-01,8.27426e-02,-2.43380e-01,1.93446e-01,-2.12082e-01,2.58321e-01,-2.43362e-02,-6.27744e-02,1.37667e-01,-3.42856e-01,1.03451e-01,4.13493e-02,2.56764e-01,-7.27363e-02,-3.90591e-03,2.52544e-01,-1.76314e-01,-8.03091e-02,2.11233e-02,2.78701e-02,
8.23695e-02,-3.26371e-01,-2.77004e-01,-2.18996e-01,4.13130e-02,-9.15895e-04,-2.68600e-01,-3.03935e-01,9.65839e-02,-8.56052e-02,2.43348e-01,-1.31281e-01,5.09677e-02,-2.37619e-01,-1.40435e-01,-1.82840e-01,1.48850e-01,-3.39409e-01,1.60750e-01,1.66623e-01,-2.69108e-01,-7.71566e-02,-7.44420e-02,-6.12375e-02,4.50304e-02,1.82951e-02,-1.82775e-01,1.34826e-01,-1.35966e-01,1.63782e-01,4.32857e-02,4.22725e-02,3.12724e-02,7.11756e-02,-3.12680e-01,-6.62448e-03,2.45366e-01,1.28381e-01,-2.42566e-01,4.02763e-01,1.11770e-01,-5.61834e-02,6.80236e-02,-2.01233e-01,3.12840e-01,-9.45999e-02,-1.04989e-01,-9.98708e-02,-3.47090e-02,-2.52910e-01,-2.56198e-01,-8.84098e-02,-7.09396e-02,2.73391e-02,-3.80432e-02,9.65990e-02,-3.48816e-02,-8.53388e-02,-6.85478e-03,2.28007e-01,1.77013e-01,-3.82080e-01,-3.47218e-01,-2.64897e-02,
-2.79457e-01,-2.79975e-01,5.43956e-02,-7.38721e-02,1.56448e-01,3.03280e-02,1.65267e-01,6.42270e-02,-1.34226e-01,1.83576e-01,1.05736e-01,3.12424e-01,7.22400e-02,8.08989e-02,-4.54686e-01,-1.55139e-01,1.26419e-01,8.89470e-02,-2.27381e-01,2.14491e-02,-1.97275e-01,-2.28183e-01,1.29788e-01,-5.33239e-02,2.03495e-01,2.23216e-01,2.42155e-01,-2.67971e-01,-2.13472e-01,3.22146e-02,-2.92853e-01,-7.53664e-02,-2.34257e-02,3.60232e-01,1.56773e-01,1.18158e-01,2.50328e-01,-1.08464e-02,-3.09913e-01,-3.27909e-02,-2.20131e-01,-7.86022e-02,3.08688e-01,1.32864e-01,1.81664e-01,1.27554e-01,-4.61186e-04,-1.15772e-01,-5.55709e-02,-1.09515e-01,3.51293e-03,-1.05573e-01,-7.15534e-03,2.37491e-02,-4.30119e-01,9.03817e-02,3.29705e-02,-1.93199e-01,3.10380e-01,-1.59797e-01,-1.70019e-01,8.40951e-02,-7.00908e-02,-1.55895e-01,
-1.21026e-01,7.85688e-02,-2.21658e-02,2.40864e-01,-6.28345e-02,-2.80279e-01,-1.26791e-02,1.99042e-03,-2.84840e-01,2.07320e-01,7.60840e-02,-3.87366e-01,6.38215e-02,-1.20148e-02,-1.41450e-01,1.06664e-01,-3.49255e-01,-1.39066e-01,2.87748e-02,-1.39606e-01,-2.07976e-01,-2.09477e-02,1.08856e-01,6.47540e-02,-7.62833e-02,-2.59933e-01,-2.32049e-01,-2.13281e-01,-7.89343e-02,7.71648e-03,1.35280e-01,-7.40292e-02,5.46079e-02,-7.69118e-02,3.31786e-02,-3.53377e-01,1.03220e-01,-9.71523e-02,-2.49052e-01,-3.41679e-02,2.76685e-01,-1.79147e-01,6.96873e-02,-1.68547e-01,-2.46314e-01,1.76421e-02,2.02421e-01,-2.00886e-01,-1.95231e-01,1.50622e-01,-3.79359e-01,-4.29958e-01,3.02395e-01,3.44355e-01,1.76378e-01,1.64704e-01,-4.05507e-02,-3.79711e-03,-1.65825e-02,-3.48857e-01,-3.42233e-01,-3.61389e-01,-1.19046e-01,-2.34849e-01,
2.81563e-01,-6.84599e-02,-2.92028e-01,3.75560e-02,1.13190e-01,-9.21881e-04,-5.69153e-02,-1.41922e-01,-3.95094e-02,-1.80906e-01,1.54240e-01,7.45043e-02,1.71601e-01,2.98229e-01,-1.28091e-01,7.47839e-03,-2.12987e-02,1.18541e-01,-1.21899e-01,-2.41905e-01,-7.76306e-02,-2.47818e-01,1.10137e-01,-8.65052e-02,3.20431e-01,-5.45049e-02,2.19240e-02,1.99044e-01,-4.99885e-02,-3.57132e-01,-1.32752e-01,2.59983e-01,1.41225e-01,-1.46821e-02,1.45695e-01,-4.21889e-02,-3.30712e-01,2.86924e-02,-5.13809e-03,-7.66735e-02,1.88997e-01,9.29450e-02,-4.97968e-01,3.70080e-01,1.38731e-02,1.13844e-01,3.05947e-02,-2.40057e-01,-1.03187e-01,-1.87462e-02,-4.35571e-01,1.62978e-01,-1.73709e-02,1.40696e-02,-1.06990e-01,-2.59886e-01,1.60989e-01,-6.77253e-02,3.15842e-03,-5.88312e-02,2.28727e-01,-1.39846e-01,7.52696e-02,1.24160e-01,
-3.18357e-03,2.31986e-01,-3.04793e-01,-1.68990e-02,8.56765e-03,-1.61258e-01,-7.59042e-02,-9.17743e-02,-4.10022e-02,-6.69098e-02,-8.20261e-02,2.18818e-01,1.09814e-01,-1.65955e-01,5.50171e-02,2.52230e-02,-5.72794e-02,-2.83754e-02,1.50546e-01,8.82288e-02,1.20549e-01,3.14515e-02,1.02942e-01,-2.69093e-01,-1.67197e-01,8.94781e-03,1.05205e-01,1.79721e-01,-6.11024e-02,7.37372e-03,-2.36380e-02,1.09134e-01,-1.50333e-01,-6.57460e-02,4.17594e-01,2.47084e-01,-2.62655e-02,6.29884e-02,-1.59917e-01,-7.93332e-02,-1.95243e-01,2.03262e-01,-5.00384e-02,-2.20636e-01,-1.60559e-01,2.51104e-01,-1.18204e-01,4.58613e-01,-3.17474e-01,-5.83618e-02,-1.72690e-01,6.13641e-02,9.76949e-02,2.92711e-01,-2.28098e-01,-1.45567e-01,-3.07040e-01,-1.85989e-01,1.60627e-02,1.84119e-01,-3.80043e-01,-3.07449e-01,-8.21485e-02,-1.46777e-01,
6.58890e-02,-2.49858e-01,-1.30975e-01,3.94610e-02,-1.55172e-01,1.68317e-01,-3.24295e-01,2.88072e-01,2.13508e-01,1.73026e-01,-2.02200e-01,8.58042e-02,1.51510e-01,1.89040e-02,-8.79312e-02,2.82226e-02,2.08569e-02,3.67160e-01,3.12066e-01,8.39645e-02,-4.21042e-02,-4.05260e-02,1.29917e-01,8.25679e-02,1.73255e-03,2.01339e-01,1.37491e-01,2.67340e-01,-1.17910e-01,-2.62136e-01,-5.24256e-04,9.58895e-03,-1.20691e-01,3.43285e-02,-8.68560e-02,-8.82327e-03,9.30050e-02,-1.00882e-01,1.35576e-01,5.93685e-02,-8.85860e-02,-2.34855e-01,-7.84957e-02,-1.15664e-01,1.81104e-01,1.88666e-01,-4.45662e-01,-2.89564e-01,2.26481e-02,-2.13717e-01,-2.17138e-02,-1.81046e-01,-1.51944e-02,-2.08750e-02,9.25799e-03,6.49054e-02,-2.20560e-01,1.64511e-01,-2.17966e-01,-2.17870e-01,-3.36805e-01,2.43939e-01,-2.65272e-02,-3.83368e-01,
3.91675e-01,-1.79473e-01,-6.50661e-02,2.05085e-01,-1.16752e-01,2.03033e-01,-9.34065e-02,2.64821e-01,-2.03242e-01,5.27771e-01,1.63798e-01,5.84528e-02,1.01073e-01,2.61581e-01,2.30209e-01,-1.06672e-01,1.45060e-02,1.55284e-01,-2.84147e-01,-3.58421e-02,1.66713e-01,2.73093e-01,5.03700e-02,7.76023e-02,1.72499e-02,-2.82021e-01,9.38692e-02,1.96764e-01,-1.10822e-01,7.67139e-02,-4.62652e-02,-9.54347e-02,-1.46985e-03,-1.09271e-01,-1.29502e-02,-3.83111e-02,1.04152e-01,-1.46069e-01,1.64452e-01,2.91958e-01,-1.88053e-01,1.72093e-01,2.30608e-01,-4.29132e-03,2.26202e-01,1.91410e-01,-9.76477e-02,2.43163e-01,1.97668e-01,-6.97271e-02,2.29061e-01,1.84087e-01,-2.25930e-02,1.18258e-01,-4.33098e-02,-2.59129e-01,3.21117e-01,-1.24733e-01,2.29943e-01,1.47243e-02,1.81546e-01,-2.30729e-01,-2.83400e-02,-3.43475e-01,
8.63223e-02,1.02840e-01,-8.52961e-02,4.55463e-02,-4.45636e-02,2.34444e-01,2.51310e-01,1.69555e-02,2.69829e-01,4.61484e-01,-3.33214e-02,-1.03645e-01,1.20579e-01,-8.00245e-02,2.28163e-01,-2.37060e-02,7.57089e-02,-1.74843e-01,-5.42628e-01,-5.97924e-02,1.89029e-01,-6.13098e-02,-1.86354e-02,-7.69981e-03,3.48077e-01,2.63296e-01,-5.96354e-02,2.24379e-01,1.79681e-01,-1.88304e-02,6.44704e-02,2.51030e-01,2.49186e-01,2.62730e-01,2.02753e-01,2.19442e-01,1.92726e-01,1.44481e-01,-2.72711e-02,2.14127e-01,2.89520e-01,-2.13764e-01,-1.90979e-01,-4.03691e-02,-8.94493e-02,1.69319e-01,-2.30555e-01,1.05421e-01,2.30913e-01,2.72786e-01,1.89436e-01,1.33181e-01,-2.08088e-01,-2.20898e-01,3.14526e-02,-2.48356e-01,-1.81380e-01,-1.02692e-01,1.33102e-01,-2.84103e-01,-1.27293e-01,-5.40107e-03,-2.17550e-01,1.69097e-01,
-7.26899e-02,-1.56307e-01,-2.62404e-01,1.20975e-01,6.93897e-02,-2.48989e-01,-3.13491e-01,-6.48487e-03,-1.61331e-01,-1.70041e-01,-1.83545e-02,2.13682e-01,-3.23476e-01,-1.92527e-01,1.24959e-01,1.21497e-01,-3.27312e-01,3.01300e-02,-2.51738e-03,-1.99614e-01,-1.33397e-01,3.30091e-01,-1.26426e-01,1.52412e-01,3.02641e-01,2.38842e-01,-1.82017e-01,1.19033e-01,6.36180e-02,-7.25510e-02,-2.32247e-01,-5.88262e-02,-3.45192e-01,6.59989e-02,-2.66387e-01,1.39525e-01,-7.84157e-02,-3.19796e-01,-1.34797e-01,2.34289e-02,2.61263e-01,1.81325e-01,3.52750e-01,1.59098e-01,-2.05538e-02,3.40218e-01,-1.98424e-01,-4.43554e-02,4.88087e-02,-9.18913e-02,-6.72616e-02,-1.75276e-01,-1.65753e-01,-3.31332e-03,6.34399e-02,-1.54039e-02,1.47396e-01,2.70204e-03,3.24826e-01,-6.42317e-02,-3.08566e-01,1.34608e-01,-2.29549e-01,1.40432e-01,
-1.24926e-01,-1.70289e-01,-2.71029e-01,8.72176e-02,-4.47601e-01,-3.51141e-01,6.43186e-02,-4.42783e-02,-2.35034e-01,-2.30417e-01,-3.29283e-01,1.51978e-01,8.52026e-02,1.17624e-01,-2.97369e-01,2.52305e-01,1.69337e-01,8.46867e-02,-1.19686e-01,9.66172e-02,1.27396e-01,-1.27969e-03,-3.76376e-01,-4.13097e-01,-9.10063e-02,1.89217e-01,-8.35669e-02,-1.91752e-01,5.65097e-02,6.12522e-03,5.11409e-02,-8.66658e-02,3.13522e-02,-4.44468e-01,-1.75852e-01,-3.55243e-02,-8.21064e-02,1.38105e-01,1.00669e-01,2.51479e-01,4.00668e-02,-3.97720e-02,6.05081e-02,1.01265e-02,3.47351e-03,9.19467e-02,1.61427e-01,-2.83089e-02,-4.01759e-02,3.91495e-01,4.74809e-02,-6.52495e-02,2.22576e-01,-7.65635e-02,-6.96468e-02,3.63531e-01,-1.96089e-01,-1.76395e-01,1.41926e-01,-2.91464e-02,1.83155e-01,4.78973e-03,1.81015e-01,-2.33607e-02,
1.30504e-01,1.74639e-01,-2.23204e-01,-2.47572e-01,-1.11255e-03,2.63314e-02,-1.59744e-01,-5.32764e-01,9.97480e-02,1.53374e-01,-9.38082e-02,2.71807e-01,-3.50264e-01,-1.94594e-01,-6.24670e-02,-2.81281e-01,-7.85843e-02,-8.92201e-02,-4.45332e-01,8.61192e-02,-1.46713e-01,3.04584e-02,9.76052e-02,1.10697e-02,9.43017e-02,-1.22982e-01,-1.95976e-01,-1.05932e-01,-2.09501e-01,-1.19261e-01,8.39503e-02,1.04658e-02,-1.08004e-01,-1.08039e-01,5.79060e-02,-1.53750e-01,-1.21026e-01,-3.18232e-01,1.37755e-01,-1.93443e-01,-8.60841e-02,-4.39894e-02,-1.35959e-01,-1.80769e-01,6.88384e-02,-1.73057e-01,-5.67096e-02,-1.85670e-01,1.98771e-02,3.11840e-01,9.00204e-02,1.43609e-01,-2.41806e-01,1.45860e-01,-1.02541e-01,1.43703e-01,-9.57223e-02,2.00917e-01,1.74033e-01,3.62924e-03,-8.65609e-02,2.29887e-02,1.52020e-01,-2.77351e-01,
1.83286e-02,-2.78920e-01,-5.35084e-02,-1.31728e-01,-4.90060e-01,8.52578e-02,5.79589e-02,1.35174e-01,3.65648e-02,1.90078e-01,-8.16808e-02,-2.65162e-02,-1.30819e-01,-4.67906e-01,-1.96771e-01,5.43741e-02,-3.24464e-01,-2.46354e-01,-8.10473e-02,-5.49005e-02,3.02032e-01,-1.96785e-01,2.97207e-01,-9.54122e-02,1.29549e-01,-1.14274e-01,-5.49032e-02,4.10110e-02,1.46441e-01,-7.09052e-02,-9.18483e-02,-2.47503e-01,-2.55380e-01,-1.22782e-01,-1.56149e-01,1.46461e-01,8.45415e-02,-1.61674e-01,-2.53056e-01,-7.44106e-02,-7.15648e-02,-8.69147e-02,1.32469e-01,3.93774e-01,-2.37382e-02,-1.42716e-01,9.84265e-02,-5.75463e-03,-4.45613e-01,-1.08893e-01,3.87272e-02,1.70007e-01,1.72595e-02,1.00143e-01,8.32552e-02,4.65579e-02,5.20710e-02,1.63645e-01,-2.95336e-01,-9.37557e-02,-5.03537e-02,-3.14644e-01,7.20211e-02,2.27364e-01,
-5.47446e-02,1.97790e-01,-9.24210e-02,1.09880e-01,2.90607e-02,9.98847e-02,1.87590e-01,-7.32798e-02,1.24717e-01,-6.68558e-02,9.75944e-02,5.22745e-02,-5.71436e-01,9.22914e-02,-2.46933e-01,1.69375e-01,-1.47092e-01,3.16111e-02,-1.09383e-01,-6.45489e-02,-1.89185e-01,-2.18215e-01,-8.12844e-02,-2.33584e-02,-1.75232e-01,-1.72706e-01,2.05929e-01,2.07298e-01,5.90365e-02,3.08988e-01,-1.51239e-01,-1.19294e-01,1.46954e-01,-1.97999e-01,1.05944e-01,-2.63276e-01,2.07876e-01,-7.10366e-02,-4.21339e-02,-2.79724e-01,-5.20746e-03,-5.94749e-02,3.42311e-01,-1.00461e-01,5.04190e-02,1.75829e-01,-1.51176e-01,-9.80110e-02,-1.75516e-01,2.09808e-01,8.57995e-02,-1.40949e-01,-9.06752e-03,-2.05446e-01,1.67273e-01,-3.74573e-01,-1.30599e-01,1.07634e-04,-3.24392e-01,1.97765e-01,2.76872e-01,-3.93642e-01,4.74509e-02,1.07557e-01,
1.96840e-01,2.89370e-04,-2.62383e-02,-2.48783e-01,-8.43749e-02,3.93578e-01,5.52416e-02,2.01106e-01,-1.36203e-01,-1.03643e-01,4.37045e-02,1.02174e-01,9.11996e-02,-1.05912e-01,3.19028e-01,3.21613e-01,-5.72108e-02,7.56251e-02,-1.67855e-01,1.93514e-01,-3.00535e-01,4.40103e-01,-1.23317e-01,8.08046e-02,4.86735e-02,2.21909e-01,-2.01411e-02,6.97476e-02,5.89093e-02,-2.54956e-02,-2.10660e-01,-1.48422e-01,-2.74777e-01,3.12225e-01,4.96229e-01,1.48975e-01,4.70002e-01,2.66143e-02,2.00709e-01,3.95417e-01,-1.14477e-01,6.72236e-02,-2.08629e-01,-8.80453e-02,1.66929e-01,-5.74827e-02,-8.56374e-02,-2.60822e-01,-2.14307e-01,-3.39522e-02,-2.08959e-01,-1.36597e-01,-5.18886e-02,-1.87110e-01,-1.26936e-01,5.14682e-02,2.83419e-01,-1.03766e-01,1.01936e-01,-1.11251e-01,-9.92744e-02,1.23881e-01,2.60856e-01,-7.80120e-02,
-2.50634e-02,1.11347e-01,-1.16307e-01,2.42178e-01,-2.03033e-01,2.04198e-01,-4.44725e-01,1.50536e-01,3.44225e-01,-1.86663e-01,3.54637e-01,-1.89984e-01,1.95369e-01,6.96124e-03,4.31334e-02,2.76460e-01,-8.77378e-02,2.58390e-02,7.17903e-02,2.67210e-01,4.15268e-02,-1.52386e-01,-5.64617e-02,4.71277e-02,2.56628e-01,8.44902e-02,1.26155e-01,-1.82243e-02,2.63324e-02,-7.95625e-03,-2.18535e-01,7.19703e-02,-1.51574e-01,3.62311e-01,-5.72174e-03,-4.56249e-01,1.57404e-01,-6.18285e-02,8.24772e-02,9.08224e-02,-2.85612e-01,1.29488e-01,1.88172e-02,1.26682e-01,-5.02915e-02,2.05346e-01,1.61291e-01,3.47694e-02,1.33862e-01,3.65950e-01,1.90068e-01,1.37625e-01,-2.48408e-01,2.06517e-01,3.02238e-02,2.30684e-01,-3.73367e-02,-1.99889e-01,3.73373e-02,2.95277e-02,-2.13593e-01,-2.55975e-02,-1.00973e-01,1.94321e-02,
1.91542e-03,-1.20697e-01,1.34575e-01,1.60168e-01,7.06447e-03,-1.55177e-01,1.23535e-02,-3.32037e-01,2.95297e-01,1.27254e-01,1.43932e-02,-1.46105e-01,1.46325e-03,-9.87760e-02,-1.67236e-01,4.21511e-01,-1.88079e-01,-3.43656e-01,-5.68702e-02,1.78502e-01,-3.85075e-02,-1.95767e-02,2.41751e-01,-1.49315e-01,-3.15119e-01,-1.97861e-01,6.29390e-02,1.42877e-01,-4.84946e-02,-9.94259e-02,-8.23271e-02,-2.85680e-01,-4.85870e-02,-2.99589e-01,-1.45002e-01,1.11901e-01,-1.64139e-01,5.62886e-02,-1.44181e-01,-1.94248e-01,-5.37196e-02,8.82309e-02,-4.91788e-02,1.45191e-01,1.18903e-01,-1.59908e-01,-2.24572e-02,6.75211e-02,2.20493e-01,2.77519e-01,-3.28270e-01,-1.10294e-01,2.65903e-01,7.07481e-03,-1.24804e-01,1.41929e-02,2.92094e-01,-3.00134e-01,-7.78388e-02,9.68690e-02,-8.92488e-02,3.99984e-01,-3.25544e-01,-8.61748e-02,
-2.64810e-01,2.73431e-01,-1.81861e-01,1.61797e-01,7.91792e-02,-1.04070e-01,-7.83709e-02,1.83340e-01,-2.25234e-01,1.36163e-01,1.40517e-01,-1.65998e-01,2.26698e-01,-3.01962e-01,-1.11854e-01,-3.77928e-01,9.47479e-02,-2.02762e-01,3.47011e-01,1.61522e-01,-9.51617e-03,-5.24668e-02,1.65512e-01,-2.34420e-01,3.55284e-02,1.82388e-01,-1.35397e-01,9.36444e-02,1.76085e-01,-7.28517e-02,-2.43977e-01,-1.56210e-01,-5.13750e-02,-3.43144e-01,6.55760e-02,-1.44601e-01,-2.24075e-01,5.84598e-02,-3.73474e-02,-2.68571e-02,-1.42791e-01,2.37387e-01,7.75141e-02,-2.60094e-01,1.58264e-01,-5.56249e-02,-1.84212e-01,-2.50473e-01,3.44419e-02,1.47105e-01,2.43703e-01,-8.84660e-02,-3.99683e-02,1.00612e-02,2.99162e-02,-2.17084e-01,3.43204e-01,-8.25117e-02,7.30948e-02,-3.36215e-01,-3.88694e-02,3.43520e-02,1.08384e-01,3.30203e-01,
1.89756e-01,-2.41179e-01,-1.88248e-01,2.21854e-01,2.33174e-01,-1.41051e-02,1.46776e-01,8.75774e-02,2.99297e-01,1.14087e-01,-1.07431e-01,1.55564e-01,1.51409e-01,-2.98931e-02,2.47037e-01,-5.80818e-02,7.60039e-02,-2.67714e-01,-4.59097e-02,1.77914e-01,-2.50994e-01,-2.82631e-01,2.66997e-02,2.00003e-01,2.92672e-01,2.10974e-01,-2.30755e-02,2.10123e-01,-1.23754e-01,-7.18348e-02,-2.73673e-01,1.58272e-01,-1.69528e-01,-1.68777e-01,1.42024e-01,-3.32206e-02,5.05295e-01,-2.61800e-02,2.93717e-01,2.34228e-01,1.35186e-03,5.15973e-01,1.10788e-01,2.05522e-01,-1.63570e-01,1.32485e-01,-7.86752e-03,6.51797e-02,9.83114e-02,-1.83574e-01,3.11710e-01,-3.94095e-01,3.46219e-01,-2.54882e-02,1.05227e-01,3.44601e-02,-8.16332e-02,8.24661e-02,3.63977e-02,-1.14742e-01,-4.94243e-02,1.18318e-01,1.79082e-01,-2.38697e-01,
-3.21177e-01,-5.82981e-01,1.19193e-01,1.00176e-01,-7.00470e-03,-8.77001e-02,6.15420e-02,-2.34645e-01,-3.08834e-01,-1.25805e-01,2.02198e-02,-3.52445e-02,1.84371e-01,-3.14776e-01,1.82197e-01,6.41569e-02,-5.88478e-02,1.88944e-01,-1.77400e-01,1.60216e-01,-1.61182e-01,1.35270e-01,1.33413e-01,1.40864e-02,-1.35666e-01,-9.73504e-02,9.76757e-02,2.67473e-01,-3.88558e-02,-7.81699e-02,2.09064e-02,-4.34955e-02,1.37085e-01,8.21039e-02,-8.66038e-02,-1.00326e-01,-1.31722e-01,3.11438e-01,1.97390e-01,-2.56176e-01,3.48386e-02,-2.16989e-02,8.88209e-02,1.69598e-01,-7.85163e-03,-1.75331e-01,-3.68224e-03,-1.38880e-02,7.23662e-02,-1.76859e-02,-3.97821e-02,-1.92964e-01,-3.79835e-01,1.40858e-01,1.23500e-01,-1.36333e-01,-4.64526e-01,-2.53925e-01,1.13199e-01,2.89992e-02,-1.02186e-02,-9.90503e-02,3.45700e-01,6.12734e-02,
-8.63868e-02,-1.08127e-01,-1.85723e-01,4.03696e-02,-2.53101e-01,1.76572e-01,5.48342e-02,-2.53598e-01,2.42540e-01,-1.23933e-01,-1.70170e-01,-5.64312e-02,-1.28630e-01,-1.05786e-02,2.37230e-01,-2.77248e-01,6.72657e-02,1.45720e-01,1.68717e-01,-1.86351e-01,-1.93638e-01,-2.61972e-02,-2.15660e-02,-1.21219e-01,3.23259e-01,-2.87881e-02,7.96237e-02,2.14221e-01,3.55878e-01,1.68289e-01,-1.94658e-01,-1.21728e-01,4.61151e-03,8.81048e-02,-2.26959e-01,1.31194e-01,2.04927e-01,2.83109e-01,4.01627e-02,-5.23169e-02,2.26320e-02,-1.77201e-01,1.26794e-01,-2.45429e-01,1.33248e-02,2.01820e-01,3.27389e-01,8.24429e-02,7.76569e-02,-3.90858e-02,-5.65058e-02,-9.61167e-02,1.15972e-01,3.62684e-01,-1.87570e-01,-4.99603e-02,4.69982e-01,-1.19132e-01,-4.29743e-02,-7.06423e-02,-2.24036e-01,1.54582e-01,3.96772e-01,-2.84469e-01,
-1.64844e-01,-5.01628e-01,-1.71600e-01,-1.68539e-01,1.08282e-01,3.34132e-02,1.67631e-01,2.13528e-01,5.57477e-02,7.88571e-03,-1.45973e-01,9.56443e-02,8.98217e-02,-3.78145e-02,2.99805e-01,1.76478e-01,-3.83959e-02,1.60478e-01,1.18026e-02,-2.83855e-01,-1.34611e-01,7.12765e-02,-1.35272e-01,-5.08540e-02,2.93741e-01,4.85125e-02,-2.74981e-01,1.55506e-01,-1.68373e-01,2.20534e-01,-2.92432e-01,-2.45817e-01,3.06677e-01,3.25622e-01,2.85829e-01,2.69501e-01,-1.31606e-02,1.32425e-02,-2.81203e-02,-1.85945e-03,-3.41620e-01,3.66011e-01,-2.72062e-01,-2.15406e-01,3.26928e-01,3.09697e-01,-3.40674e-02,-2.11129e-01,2.60488e-01,-3.33008e-03,2.77782e-01,7.92608e-02,6.65562e-02,2.12750e-01,1.46738e-01,1.74668e-01,-4.71230e-02,2.78972e-01,-1.66413e-01,-3.78605e-02,-1.06550e-01,6.35874e-02,-2.92689e-01,-2.33552e-01,
-1.98850e-01,-2.44399e-01,-2.48037e-01,1.96952e-01,-1.59623e-01,2.12451e-01,-1.18101e-01,8.51315e-02,-1.23242e-01,6.76123e-02,-1.79433e-01,1.67907e-01,-1.21330e-01,-1.59442e-01,-3.81447e-01,5.46178e-02,7.93424e-02,8.67033e-02,2.29753e-01,2.18844e-02,-3.68723e-02,-1.54140e-01,-2.00365e-02,1.34055e-01,1.79263e-01,-5.78281e-02,3.58634e-02,8.95342e-02,3.00057e-01,7.79803e-02,1.52928e-01,-2.13473e-01,-2.03794e-01,4.48240e-01,2.82477e-01,-7.98042e-02,2.97217e-01,-1.12897e-01,3.55054e-03,-3.18722e-02,2.28229e-01,3.99587e-01,-4.81244e-01,-7.78493e-02,2.00146e-01,-9.23311e-02,2.92644e-02,3.80319e-01,3.41431e-01,-1.18751e-01,6.63131e-02,-1.59865e-01,-3.84124e-02,-1.71370e-01,4.77491e-02,-1.32866e-01,7.60617e-02,2.04307e-01,3.28878e-01,-1.58998e-02,-8.64064e-03,9.40376e-02,-1.23609e-02,-2.52910e-01,
-9.71353e-02,-2.36555e-01,-1.56597e-01,-2.68663e-01,1.69482e-01,-1.58930e-01,-2.20272e-02,1.66721e-01,4.28366e-02,1.10036e-01,3.04935e-02,1.08429e-01,-1.70100e-01,-3.14385e-01,5.16377e-02,1.52736e-01,3.00303e-01,3.84012e-01,-1.97592e-01,2.13452e-01,3.03609e-03,-4.01010e-02,-3.32266e-01,2.12679e-01,3.11375e-02,5.85950e-02,1.44093e-01,5.81936e-02,-3.08672e-01,1.51794e-01,6.23689e-02,1.44807e-01,1.42141e-01,-2.01150e-01,-6.50645e-02,-2.86505e-01,-4.18794e-02,-1.96931e-01,-8.72881e-02,-1.27988e-01,1.55836e-01,-2.91914e-02,-1.70158e-01,-1.53310e-01,-1.57968e-01,-1.48004e-01,2.49022e-01,2.81308e-01,-8.95679e-02,-9.79914e-02,-8.76611e-02,1.09621e-01,4.95458e-02,-2.42215e-02,-2.09427e-02,-3.72132e-02,3.56129e-01,-2.68843e-01,-2.48232e-01,-2.32213e-01,-2.11382e-01,-2.52013e-02,-1.16595e-01,1.87528e-01,
1.44080e-01,-3.27638e-02,-2.80879e-01,2.31084e-02,-1.50285e-02,4.60040e-01,-1.75145e-01,1.33341e-01,-2.04154e-01,-3.70585e-02,-1.08255e-02,1.14226e-01,-2.83928e-01,5.17553e-02,9.34251e-02,1.70992e-01,-7.94026e-02,-1.95016e-01,-2.65137e-02,-6.16679e-02,3.93538e-02,-1.09256e-01,2.25924e-01,9.97392e-02,-2.53363e-01,8.55795e-02,2.60481e-01,-1.67822e-01,1.03146e-01,-1.75555e-01,-1.59043e-02,5.76568e-01,3.70257e-01,5.52846e-02,-1.11657e-01,3.56658e-01,1.26018e-01,-7.01310e-02,5.00814e-02,3.05708e-02,-1.12471e-03,3.01931e-01,1.65672e-01,-1.62190e-01,3.89056e-01,-8.09287e-02,8.05075e-02,3.98402e-02,1.06155e-03,1.55013e-01,1.04474e-01,-2.19334e-01,-9.49613e-02,1.69005e-01,2.25921e-02,5.67264e-02,8.27970e-02,5.36509e-03,-1.36030e-01,-3.61055e-01,-6.19679e-02,4.87709e-02,-4.96158e-02,8.21057e-02,
-6.32715e-01,-6.01478e-02,-1.03242e-01,1.68555e-01,2.28574e-02,5.08872e-01,-1.79994e-01,-6.40123e-02,1.40317e-02,1.03091e-01,-3.43974e-01,2.92310e-01,-2.26930e-02,-5.68593e-02,3.18924e-01,-4.58962e-02,1.24629e-01,-1.91331e-01,-1.45830e-01,-9.78945e-02,2.09764e-01,8.68212e-02,-2.21800e-01,2.00527e-01,2.91109e-02,1.86065e-01,-1.11682e-01,-1.41016e-01,-2.66761e-02,-2.58326e-02,-3.25159e-01,2.50625e-02,6.02655e-03,1.00151e-01,1.06124e-02,-2.56866e-01,-9.39550e-03,2.32147e-01,-1.67692e-01,9.33958e-02,-2.04096e-01,2.49815e-01,-8.13091e-02,1.68473e-01,-4.57840e-02,-3.63109e-02,-2.11041e-01,-2.54760e-02,-1.57462e-01,-1.68674e-01,-3.16883e-01,-1.11217e-01,9.87684e-02,1.55849e-01,1.63506e-01,2.80802e-02,1.65928e-01,6.65244e-02,6.45093e-02,1.82298e-02,1.10453e-01,-4.80302e-02,-7.60626e-02,-3.15234e-01,
9.50870e-02,3.06723e-02,2.97110e-02,-3.15814e-02,-2.00027e-01,9.93249e-02,8.12446e-02,-1.16039e-01,1.77087e-01,-2.70093e-01,-1.65036e-01,-1.91153e-01,5.12802e-02,1.44019e-01,-1.81082e-02,-1.78375e-01,-2.72445e-01,1.66824e-01,-7.51919e-02,3.08971e-01,9.80359e-02,1.88403e-01,-1.48108e-01,-2.62828e-01,2.94325e-01,7.73062e-02,4.10066e-01,-2.02105e-01,-4.76439e-02,3.43745e-01,1.38115e-01,7.39207e-02,2.10652e-01,-2.11497e-01,8.01567e-02,1.28710e-01,-9.38503e-03,-1.51263e-01,-1.32995e-01,-2.15168e-01,-6.39793e-02,1.52801e-01,-5.57936e-03,1.37842e-01,4.92096e-02,-2.69807e-01,-2.54220e-01,-1.98914e-01,1.95732e-01,-2.89043e-01,-1.54695e-01,-9.08898e-02,6.49669e-02,7.23537e-04,3.06074e-01,8.77032e-03,5.34275e-02,1.50983e-02,2.94619e-01,-1.11030e-01,-1.97338e-01,-2.60479e-01,-8.59349e-02,1.75053e-02,
-4.55103e-02,-1.30160e-01,-1.71108e-01,2.10999e-01,-2.35921e-02,-1.95814e-01,1.42139e-01,5.37687e-02,-1.60348e-01,-1.91674e-01,-4.52425e-02,1.68458e-01,1.50723e-01,2.55100e-01,-1.31849e-01,2.08608e-02,-1.55895e-01,-4.32634e-01,-1.20901e-01,-7.60364e-02,-3.33657e-02,1.16241e-01,1.29260e-02,-2.01427e-01,1.09352e-01,8.20468e-02,-5.25889e-02,-2.47810e-01,-4.54038e-02,2.28037e-01,-4.69705e-03,-6.71353e-02,-1.69617e-01,1.23135e-01,-3.46542e-01,-1.26138e-01,2.48329e-01,-6.38366e-02,4.26933e-01,-1.84391e-01,-1.22742e-01,-5.61753e-02,-8.30843e-02,-1.94653e-01,-1.74063e-01,-2.07996e-01,-1.51970e-01,8.42882e-02,-3.53613e-02,-1.42442e-01,-2.48368e-01,2.02724e-01,-2.38291e-01,1.27639e-01,-1.35100e-01,-3.60446e-01,3.58782e-03,-6.83313e-03,-3.51479e-01,-2.20285e-01,-5.14982e-02,1.27867e-01,-2.29003e-01,1.22542e-02,
-1.22789e-02,1.39281e-01,-5.05333e-01,1.82411e-01,-1.26622e-01,4.38373e-02,1.39486e-01,2.99570e-01,8.68704e-02,-7.65844e-02,9.44758e-02,3.02221e-01,2.40466e-01,-1.25047e-01,2.82028e-01,1.29693e-01,-2.31340e-02,2.07141e-01,-1.03283e-01,-2.16531e-01,-2.47809e-01,9.87419e-02,1.54286e-01,1.90556e-01,1.34791e-01,1.08776e-01,-1.33772e-01,-9.19443e-02,-1.96645e-01,2.36765e-01,-7.69994e-02,2.53878e-01,-3.37727e-01,4.52216e-02,-3.49441e-03,1.02670e-01,2.88278e-01,1.90337e-01,-5.62124e-01,-6.89876e-02,-8.01504e-02,-1.63561e-01,-2.40129e-01,8.42896e-02,2.94516e-01,-7.61824e-02,-7.65353e-02,5.63585e-02,2.42219e-01,-2.31281e-01,2.74188e-01,-7.75329e-02,-8.10985e-02,5.99152e-02,2.64737e-01,4.11472e-02,-1.99301e-02,-1.55893e-01,7.49106e-02,5.73203e-02,1.78912e-01,3.84369e-01,1.59324e-01,-3.27488e-01,
-3.18762e-01,1.82253e-01,-2.57750e-01,-3.81832e-02,-2.61362e-02,9.64306e-02,-2.50994e-01,1.60740e-02,-2.12778e-01,-1.21926e-01,-2.34309e-01,-3.47147e-02,-8.18818e-02,5.34658e-02,2.49606e-02,-7.42313e-03,3.15688e-02,1.87832e-01,-3.66282e-01,-1.07020e-01,-1.55021e-01,1.59961e-02,1.36902e-01,2.86984e-01,1.91188e-01,-1.92337e-01,1.64840e-01,-1.69354e-01,4.09832e-02,-2.54372e-01,2.09770e-01,-2.80048e-01,9.57407e-02,2.05294e-02,-5.26437e-02,2.01261e-01,1.96663e-01,1.70475e-01,1.50323e-02,3.74403e-01,-1.48895e-01,1.26929e-01,-1.37844e-01,3.85433e-02,-1.23497e-01,1.26960e-01,-2.24574e-01,-1.74880e-01,3.46136e-01,-2.40501e-01,2.75650e-01,-7.80154e-02,1.63735e-01,3.87462e-02,-2.04719e-01,-5.51837e-02,-5.87413e-02,-3.03471e-01,-2.81678e-01,2.60190e-01,-1.70936e-01,-3.31982e-02,-5.85340e-02,2.06864e-01,
-1.92887e-01,-1.52497e-01,2.30584e-02,5.94089e-02,-3.27834e-02,2.47761e-02,-7.84548e-02,5.42310e-02,-3.32150e-02,-1.99540e-01,-6.31859e-01,-1.15127e-01,-7.22758e-03,-3.50128e-02,6.40913e-02,1.36907e-01,2.02983e-01,-4.73232e-02,8.58336e-04,-2.01445e-01,-2.42376e-01,1.41532e-01,1.86596e-01,1.36610e-01,9.15760e-02,1.39054e-01,3.77245e-01,3.48526e-01,-3.04291e-02,1.22509e-01,-2.87512e-01,2.12778e-01,-3.57113e-01,7.36930e-03,4.23503e-01,-9.43500e-02,3.87232e-02,-8.17109e-02,-1.66311e-01,4.77121e-01,3.49937e-02,-1.69700e-01,9.11720e-02,-3.13161e-02,1.61017e-01,-3.19840e-02,8.51240e-02,-1.40293e-01,2.59163e-01,3.41601e-04,1.58644e-02,3.47487e-01,-2.06020e-02,5.88669e-02,-3.37589e-02,-1.06310e-01,-3.66963e-02,6.70962e-02,1.73773e-01,-2.60375e-01,1.13002e-01,8.35641e-02,-2.12162e-01,-1.90709e-01,
1.68734e-01,-1.48145e-01,4.18769e-02,1.34832e-01,1.86160e-01,2.07985e-02,-3.34826e-01,1.91532e-01,5.44669e-02,4.24919e-02,2.57395e-01,1.29729e-01,-2.20793e-01,-8.87524e-02,2.11768e-01,-1.23356e-01,-2.10156e-01,6.88609e-02,-1.87708e-01,8.73761e-02,-1.12101e-01,-1.06048e-01,1.67228e-01,-2.73058e-01,1.97005e-01,-3.63438e-01,3.10442e-01,-1.83360e-01,2.97572e-01,1.43392e-01,-5.75150e-02,1.66055e-02,-1.37496e-01,-1.38695e-01,6.16113e-02,-1.87691e-01,-4.54349e-02,4.91134e-01,2.28116e-02,-2.89606e-02,2.97916e-01,2.87702e-02,1.14995e-01,-1.19368e-01,-7.74192e-02,-3.23205e-01,-4.20735e-02,-3.59043e-02,-2.88523e-01,1.34498e-01,2.03867e-01,1.96225e-01,4.12514e-01,2.24672e-02,-1.34680e-01,4.32512e-02,-1.08386e-01,3.32823e-01,-2.95565e-03,-7.84185e-02,-1.26610e-02,4.21837e-02,-2.94737e-01,1.03155e-01,
1.37114e-01,1.56289e-01,-1.13325e-01,-3.61819e-02,-4.64526e-02,-3.86357e-01,8.24571e-02,-2.03899e-01,-9.60582e-02,3.29547e-01,-1.28165e-01,1.26952e-01,-6.37537e-02,1.36441e-01,2.00798e-01,-7.16945e-03,-4.46200e-02,1.26097e-01,-5.07582e-02,6.55439e-02,-9.15043e-02,-3.46118e-01,1.52774e-02,-4.10808e-02,1.81574e-02,2.92649e-01,2.15033e-01,-1.38337e-01,2.98677e-01,9.65412e-02,1.67001e-01,-2.65869e-01,-7.07443e-02,2.25038e-01,5.41851e-02,-1.40944e-01,-3.70371e-01,-1.00622e-01,-8.83037e-02,2.95738e-01,8.59542e-02,1.81708e-01,1.40917e-01,1.00918e-01,1.71719e-01,-3.12060e-01,5.05752e-02,-1.27271e-01,-1.89024e-01,-5.42289e-02,-7.55673e-02,-1.05850e-01,-3.05602e-01,1.32464e-01,2.29411e-01,-7.09201e-03,2.36928e-02,-9.83850e-02,-4.90712e-01,1.35837e-01,-4.94929e-02,-3.09982e-02,-8.38388e-02,-2.05594e-01,
-7.30478e-02,8.27223e-02,-1.09208e-01,3.82489e-01,4.10952e-02,-1.47639e-01,3.09994e-01,1.33915e-01,3.54016e-01,-1.26556e-01,2.42462e-01,-1.16987e-01,-1.53391e-01,-1.53654e-01,-9.23393e-02,-1.93924e-01,8.70562e-02,1.82543e-01,1.05839e-01,-9.40702e-02,-2.32957e-01,1.98549e-01,8.80223e-02,2.91582e-01,3.85475e-02,7.62415e-02,2.39856e-02,5.04640e-02,1.31274e-01,-1.70017e-01,2.83302e-01,-5.58571e-02,3.60393e-01,-3.43761e-02,-1.40943e-01,1.57425e-01,6.25526e-02,3.56440e-02,7.39278e-02,2.30012e-01,-2.93144e-01,1.71828e-01,1.80121e-01,2.77948e-01,1.98704e-02,-3.63784e-01,1.20592e-01,1.34857e-01,-2.69191e-01,3.76509e-01,-5.05533e-02,1.75870e-01,1.97746e-01,4.00676e-02,-7.47550e-02,-2.47717e-01,-2.15262e-02,1.85844e-01,1.29070e-01,2.57831e-02,-1.41064e-01,-7.42767e-02,-1.06379e-01,-1.64549e-01,
-1.32207e-01,-2.04062e-01,-2.90135e-01,4.32297e-02,2.58993e-01,-1.17456e-01,2.00190e-01,2.23257e-01,6.20655e-02,1.77829e-01,3.02633e-01,-1.35301e-01,-4.44915e-01,6.78346e-02,-1.55216e-01,-7.97819e-02,1.38063e-01,-4.29114e-02,-1.19530e-01,-1.46363e-02,1.48020e-01,1.43960e-01,-1.19039e-02,-2.25988e-01,-1.81963e-01,-8.27828e-02,1.48580e-01,2.36719e-01,3.40100e-01,3.72477e-02,3.52914e-02,1.30819e-01,-1.95816e-01,-5.98886e-02,9.64803e-02,8.05461e-03,1.93828e-01,3.52902e-02,-4.82123e-02,1.34311e-01,-1.37592e-01,4.90340e-02,-2.04059e-01,1.35462e-01,-2.95803e-01,8.97860e-02,-2.50753e-01,-2.29352e-01,1.82392e-01,-7.01967e-02,-2.15924e-01,-1.68554e-02,-2.61711e-01,3.22709e-01,1.05024e-01,4.53208e-01,1.08312e-01,2.26127e-02,-1.08250e-02,2.21451e-02,-1.38823e-02,9.84362e-02,6.34200e-02,-2.82043e-02,
1.28681e-02,-3.19091e-02,-9.94420e-02,2.60258e-01,-1.34088e-01,-7.31271e-02,-2.11987e-01,-1.64503e-01,2.73120e-02,1.24451e-01,-1.71972e-01,2.48073e-01,3.98420e-02,4.11311e-01,3.56714e-01,1.01928e-02,2.31620e-01,1.33791e-03,-2.97588e-03,-1.44091e-01,-9.52597e-02,2.47428e-01,1.47319e-01,3.67191e-02,1.50941e-01,9.98144e-02,-1.77898e-01,4.10649e-01,2.14134e-01,8.31135e-03,3.21603e-02,-4.73299e-02,1.08423e-01,2.64840e-02,2.55636e-01,-2.64303e-01,4.39023e-01,3.44766e-02,-2.06900e-01,-1.76427e-01,-3.31366e-01,1.69622e-02,-4.83971e-02,1.54491e-01,3.50757e-01,-7.41498e-02,6.53033e-02,1.21685e-01,-7.80201e-03,-2.58529e-01,1.57315e-01,-2.21204e-01,-8.69799e-02,-2.02378e-01,-2.53923e-01,3.76318e-01,5.27874e-02,7.42075e-02,5.69945e-02,-1.87458e-01,-2.31036e-01,1.37591e-02,-1.55680e-01,3.36221e-01,
-5.05215e-02,-3.19295e-01,3.55569e-04,1.05151e-01,3.20800e-02,-4.42501e-01,-2.83612e-01,-8.63089e-02,1.27935e-01,4.66222e-02,2.90909e-02,-8.72641e-03,1.73012e-01,-1.52000e-02,3.99426e-02,-3.44025e-01,-1.86399e-01,-8.60809e-02,5.74183e-02,-1.69010e-01,7.66923e-02,-6.50592e-02,-9.02468e-02,2.45487e-01,-2.13067e-01,1.47394e-01,2.71662e-01,-3.32660e-01,1.58339e-01,-3.95588e-01,4.09438e-02,-6.59146e-02,-4.75322e-02,-8.07089e-02,2.54840e-01,1.55626e-01,4.01939e-01,-8.60397e-02,2.80038e-02,-3.06848e-01,3.76241e-02,-1.50885e-01,6.48062e-02,-2.29889e-01,8.30692e-02,-9.74892e-03,-7.31442e-02,2.10552e-02,-4.30035e-02,3.19370e-01,-7.74994e-02,2.47402e-01,1.12010e-01,2.07539e-03,3.36408e-01,8.34295e-02,2.78840e-01,-3.00057e-02,-1.24417e-01,1.91489e-01,1.74893e-01,-2.55677e-01,5.58743e-02,9.87386e-02,
-1.71947e-01,-1.33499e-01,-2.66959e-01,-1.99648e-01,-2.82359e-02,-1.85321e-01,-1.52127e-01,-2.67889e-01,-1.89961e-01,1.75906e-01,3.52737e-01,-3.08753e-01,-2.13665e-01,-1.53100e-01,-5.13648e-02,-3.72274e-02,-2.78543e-01,-1.60230e-01,1.56243e-01,5.35303e-02,8.84841e-02,9.06037e-02,1.44097e-01,-9.62282e-02,1.39132e-01,-2.17174e-02,1.19535e-02,-3.96085e-01,3.51873e-01,-8.94764e-02,-1.73036e-01,1.90129e-01,3.98538e-02,-3.18292e-01,2.82553e-01,-1.50659e-01,-7.72285e-02,-1.99398e-01,1.64797e-01,6.26845e-02,-3.96024e-01,-2.89467e-01,2.14840e-01,1.36735e-01,-4.42937e-03,4.78794e-02,3.98382e-01,2.07139e-01,1.68080e-01,-1.64400e-01,-1.62421e-01,-2.40477e-01,2.44432e-01,-9.99572e-02,1.55966e-01,-2.69163e-01,-1.49483e-01,2.16460e-01,-2.43667e-01,6.70372e-02,-1.82644e-02,1.58424e-01,-1.18404e-01,-3.21321e-02,
-4.42837e-01,-1.57227e-01,7.06600e-02,6.45989e-02,-6.78253e-02,1.68310e-01,-1.28900e-01,6.93597e-02,4.33741e-01,-4.61697e-02,1.29603e-01,6.75197e-01,8.26456e-03,9.26669e-02,2.18079e-01,1.13074e-01,1.12476e-01,7.56248e-02,1.85019e-01,6.33104e-02,3.80608e-02,8.20695e-02,6.70101e-02,-8.16693e-02,3.22632e-01,-3.20006e-01,-2.70726e-01,-9.55227e-02,1.55704e-01,-6.13572e-02,-9.12550e-02,-1.06086e-01,-6.26390e-02,-1.93569e-01,2.71329e-01,2.13820e-01,2.47235e-01,-1.86441e-01,-6.22243e-02,3.24029e-01,1.78568e-01,-1.37856e-02,9.64529e-02,-5.69918e-02,1.58112e-01,3.81812e-02,1.68763e-02,-1.45194e-01,2.13799e-01,-7.90466e-02,-1.24321e-01,-4.05694e-02,-2.20962e-01,-1.07196e-01,8.64283e-02,-8.88808e-02,-7.42766e-02,-3.33182e-01,-6.68026e-02,-3.73006e-01,-6.06554e-02,-6.09632e-02,-6.78529e-02,-2.71917e-01,
4.23969e-03,-1.01639e-01,5.75804e-02,2.38679e-02,2.56524e-01,2.82224e-01,7.02146e-02,8.32776e-02,-1.64267e-01,1.57977e-01,-3.90341e-03,5.50485e-02,-3.48387e-01,8.68868e-02,-1.31947e-03,-6.77520e-02,-1.48103e-01,-1.00633e-01,1.67325e-01,1.94071e-02,-4.49296e-02,2.08260e-01,1.28281e-01,-2.34547e-01,1.09893e-01,4.49086e-01,-3.87184e-02,4.98772e-02,1.59170e-01,-1.82372e-01,-3.10464e-02,-5.12696e-02,-2.19017e-01,-2.37107e-02,-2.47290e-01,-1.23769e-01,-7.53863e-02,-6.11887e-02,2.43412e-02,-2.39920e-01,1.51313e-03,-2.26356e-01,-2.80459e-01,1.88113e-02,9.30771e-02,-1.27644e-01,2.78276e-01,-9.65360e-02,6.98994e-02,1.46216e-02,2.10723e-01,6.80492e-02,4.17837e-01,-4.29531e-02,1.24268e-01,1.49196e-02,-1.50893e-01,-5.23776e-01,-6.03516e-03,9.15977e-02,-7.98930e-02,-3.84198e-01,-1.66403e-01,-2.10485e-01,
2.79797e-01,1.16708e-01,5.23887e-02,6.66174e-02,4.79294e-01,1.02293e-01,2.76175e-01,7.37413e-02,8.95810e-02,9.30266e-02,-2.18747e-01,2.78849e-02,1.09987e-01,-7.21812e-02,-2.07023e-01,4.83091e-02,-3.77901e-01,1.77192e-01,-1.57747e-01,-2.83485e-02,8.94234e-02,-2.43880e-01,-1.35119e-01,2.66300e-01,1.56195e-02,-1.63028e-01,-9.58469e-02,-1.74715e-01,4.48082e-01,-8.95808e-02,-2.26690e-01,1.82248e-02,-1.77045e-02,-3.31615e-01,-2.03811e-01,-2.22471e-01,7.29323e-02,1.32259e-01,-9.93855e-02,1.44046e-01,-1.15276e-01,1.79645e-02,1.25994e-01,-1.90142e-01,3.22418e-01,-7.23343e-02,6.76635e-02,1.75892e-01,2.38022e-01,-3.20927e-02,-2.98349e-01,2.51559e-01,-9.01114e-02,1.62091e-02,-1.49963e-01,9.21018e-02,-1.88734e-01,1.89772e-01,-9.99251e-03,4.17162e-02,-2.27261e-01,-2.50453e-01,1.58483e-01,1.88760e-01,
-1.56750e-01,3.50589e-02,2.98588e-01,2.33552e-01,-1.51918e-01,2.40840e-02,5.74094e-02,-1.41382e-01,-5.02898e-02,3.24492e-02,-8.30807e-02,-1.14368e-01,-5.55547e-02,-1.06968e-01,-2.35469e-01,-1.72486e-01,-3.85568e-01,1.20171e-01,-5.08775e-02,3.53019e-01,-1.78218e-01,1.82040e-01,1.05515e-02,1.36311e-01,1.44811e-01,1.85022e-01,-1.91779e-01,3.14670e-02,3.33121e-02,5.90976e-02,1.58461e-02,2.81388e-01,7.66276e-02,-1.79973e-01,1.53105e-01,7.54259e-02,-8.47225e-02,-9.29086e-02,-2.98876e-02,-8.53392e-02,2.42372e-01,4.24079e-02,-1.31646e-01,2.10495e-03,-1.21220e-01,6.11138e-02,-1.16311e-01,1.69644e-01,-2.18195e-02,-1.55919e-01,1.07754e-01,9.25766e-02,-1.32391e-01,1.82380e-01,-4.65073e-01,2.69869e-01,7.06769e-02,-2.35020e-03,-4.60764e-01,-2.68572e-02,4.36459e-01,-6.88794e-02,-9.87788e-02,-8.39372e-02,
1.50895e-01,2.28395e-02,-2.18489e-01,-8.45705e-02,2.50621e-01,-2.37027e-01,-1.38191e-01,-1.80558e-01,-3.50963e-02,-2.08951e-01,6.88027e-02,8.68268e-02,-2.02590e-01,-2.44181e-02,-1.37001e-01,-5.53518e-02,-3.18879e-01,-2.64016e-02,2.38214e-01,7.75448e-02,5.66755e-01,-1.62327e-01,2.62678e-01,5.58188e-01,-8.44076e-03,-1.97269e-02,-7.15140e-02,8.36140e-02,1.13010e-01,3.85477e-01,3.51949e-02,-1.58088e-01,5.65091e-02,2.88830e-02,2.33570e-02,1.39101e-01,-1.27279e-01,1.89086e-01,2.13605e-01,-5.27471e-02,-2.77899e-01,-2.22491e-01,1.14705e-01,7.13691e-02,-2.46668e-01,-2.18119e-01,1.09241e-04,-7.45977e-02,1.30147e-02,1.60059e-01,7.73248e-02,-1.27265e-01,1.59399e-01,-2.14435e-02,-3.93662e-02,1.64424e-01,7.50486e-02,-1.35137e-01,-5.79643e-02,-3.74748e-01,1.98007e-01,-2.50410e-01,-6.39439e-02,-1.73469e-01,
3.36634e-01,2.37130e-01,2.80579e-01,2.12226e-01,5.66749e-02,1.12222e-01,-3.90952e-01,2.76493e-01,-1.34352e-01,2.36686e-01,-1.31911e-01,4.23707e-01,-6.62245e-02,-6.64882e-02,-1.81106e-01,2.80819e-02,2.05559e-01,-2.00815e-03,-2.20593e-01,2.91988e-01,-9.16551e-02,2.68631e-02,2.04662e-02,-3.61593e-02,2.94554e-01,6.62133e-02,-2.37283e-01,3.42250e-01,1.13214e-02,7.96909e-02,9.83999e-02,1.78969e-01,1.92224e-01,2.18337e-01,1.86875e-01,2.04095e-01,2.87957e-01,2.02467e-01,-6.32538e-02,3.62638e-02,-1.88284e-01,-1.53010e-02,2.34711e-01,8.33327e-02,-3.43196e-02,1.70823e-02,1.14424e-01,-1.18607e-01,3.83836e-01,5.30648e-02,-2.20433e-01,2.21743e-01,2.66662e-01,2.62623e-01,3.86751e-01,-2.16239e-01,8.14971e-02,1.76293e-01,-1.16450e-01,6.35910e-02,-1.57780e-02,1.73822e-01,1.36090e-01,1.82684e-01,
-9.12383e-02,-3.58649e-01,-1.34848e-02,3.71586e-02,4.12476e-03,3.53642e-01,-1.39095e-01,3.56711e-02,1.99641e-01,1.70850e-01,-1.17796e-02,2.22130e-02,-3.35373e-02,4.54106e-01,7.21574e-03,8.81819e-02,1.77916e-01,1.04874e-01,1.17340e-02,3.58784e-02,-4.38025e-01,6.03408e-02,3.25960e-01,2.94300e-01,2.39551e-01,2.99469e-01,-9.22925e-02,-1.02614e-01,-1.28974e-01,3.02299e-01,1.13815e-01,-1.09017e-01,-4.18107e-01,-1.51276e-01,6.22996e-02,3.00076e-01,-1.27232e-01,1.93284e-01,-6.22416e-02,2.79114e-01,-2.35602e-01,1.61218e-01,-2.67059e-01,-1.84840e-01,-2.06825e-02,2.59115e-01,-1.80613e-02,3.55462e-01,-5.35995e-02,1.00872e-01,-1.59732e-02,-1.03306e-01,-1.44670e-01,1.06953e-01,3.06224e-01,2.13984e-02,-5.34137e-02,8.02108e-02,1.58097e-01,-1.39277e-01,-1.03354e-01,3.22382e-02,1.70098e-01,2.49845e-01,
1.64533e-01,-4.66346e-02,-7.95110e-02,3.36256e-01,1.18601e-01,-1.24168e-02,9.17801e-03,-7.10461e-02,1.86334e-01,3.44232e-01,-2.78968e-02,-8.39099e-02,1.34302e-01,-7.51330e-02,2.60648e-02,1.62038e-02,1.70656e-01,1.99321e-01,5.55328e-02,-4.55197e-02,1.51161e-01,5.30751e-02,-6.47603e-02,6.49001e-02,7.34323e-02,-2.77403e-01,6.63518e-02,-6.97097e-02,2.05791e-01,1.41783e-01,-1.95462e-01,3.33290e-01,-2.34185e-01,2.23313e-01,-1.20206e-01,2.92620e-01,-1.53005e-01,-3.64573e-01,-5.86767e-03,-1.28300e-01,-1.56120e-01,6.60605e-02,1.22872e-01,-2.14895e-01,-2.53804e-01,-4.51053e-01,8.78462e-02,-2.74096e-01,7.82786e-02,2.73177e-01,-4.18537e-02,-2.75319e-01,2.76971e-01,-5.30870e-02,-2.87088e-01,-1.04813e-01,-1.40886e-01,1.77874e-02,-1.57915e-01,2.79106e-01,1.50406e-01,-2.90565e-01,7.76820e-02,3.39798e-01,
1.24674e-01,-1.02680e-01,-2.16043e-01,-6.95580e-02,2.94236e-01,2.34046e-01,-6.72467e-02,-1.36831e-01,-1.00989e-01,9.46960e-02,-3.20373e-01,-2.04586e-02,4.05461e-02,-3.60202e-02,1.02665e-01,-2.01421e-01,-1.43638e-01,8.24212e-02,3.69498e-01,8.87016e-02,-6.75943e-02,5.59190e-02,-3.56634e-01,-1.62152e-01,-2.15548e-02,-1.90709e-01,2.89270e-02,-2.06487e-01,-1.78278e-01,6.22126e-02,6.46674e-02,-2.86097e-01,-5.61271e-02,-5.98766e-02,4.21806e-02,-2.53612e-02,2.38211e-01,-8.73943e-02,-1.54803e-01,7.83643e-02,-3.19235e-04,-2.85407e-01,-1.21349e-01,5.24355e-01,-4.94538e-02,6.95676e-02,-2.87138e-02,1.08859e-01,-9.28778e-02,3.42725e-01,5.68169e-02,-2.69934e-01,-1.57334e-01,3.30386e-01,-1.18369e-01,-1.34193e-01,-5.44290e-02,-1.83768e-03,-7.85376e-02,-1.58487e-01,1.58504e-01,1.90540e-01,-1.96430e-01,1.53568e-01,
-7.60706e-02,4.23026e-02,-7.84483e-02,2.43105e-01,9.49233e-02,1.53385e-01,-3.14823e-01,1.13046e-01,1.51819e-01,3.97890e-03,3.07409e-01,1.85201e-01,2.95226e-01,-5.59374e-02,-9.83958e-02,-2.81474e-01,-3.55957e-02,3.75357e-02,-5.06378e-01,-1.14996e-01,1.18588e-01,3.29203e-01,-2.04048e-01,2.81790e-02,6.99403e-02,2.11720e-01,2.48435e-01,4.16578e-01,-5.25539e-02,1.53613e-01,-1.70610e-01,-1.11908e-01,-2.91443e-01,1.46186e-01,2.55058e-02,2.34991e-01,3.84004e-02,1.05603e-01,-2.39945e-02,2.52887e-01,-1.17183e-02,5.49867e-02,-1.79265e-01,2.51427e-02,4.53260e-01,2.20429e-01,2.87147e-01,1.66298e-01,8.55292e-02,2.09666e-02,1.12365e-05,-4.78538e-01,8.28023e-02,-8.03169e-02,1.04665e-01,2.69294e-02,-9.53206e-02,2.96724e-01,-2.10504e-01,-3.22855e-01,-8.27880e-02,8.96517e-02,1.48317e-03,-1.79030e-01,
-9.84976e-02,1.43984e-01,-1.87597e-01,2.44968e-01,1.90498e-01,1.76622e-02,-1.69230e-01,-5.31334e-01,9.06003e-02,3.45508e-01,1.00745e-01,-2.54648e-02,1.00871e-01,-1.97694e-01,-2.41199e-01,2.99241e-01,-2.01470e-01,9.49010e-02,1.63688e-01,-1.69182e-01,-3.37431e-01,8.01965e-03,-2.62142e-01,-1.84712e-01,-2.99850e-01,-3.71645e-02,6.49032e-02,-1.07329e-01,-4.54648e-02,7.55342e-02,-3.99979e-02,-1.01489e-02,2.37931e-02,9.31819e-02,-5.32587e-02,1.73526e-01,-6.66443e-03,6.53495e-02,2.46196e-01,4.74465e-02,-2.18732e-02,-2.83962e-02,-2.44822e-02,2.17291e-01,-7.07907e-02,2.35185e-05,-3.36520e-02,-1.78493e-02,-5.48155e-02,-3.27282e-01,1.96509e-01,4.33363e-01,1.00124e-01,-9.94762e-02,1.87564e-01,1.33170e-01,1.17888e-01,-2.27310e-02,-2.63121e-02,-3.25688e-01,-1.13978e-01,-1.68375e-01,1.42038e-01,6.30510e-02,
1.32653e-02,-1.64897e-01,1.26066e-01,-2.02939e-01,8.04647e-02,-7.85329e-02,-3.40818e-01,-5.20004e-02,-3.93183e-03,-5.68855e-03,1.85572e-01,2.11308e-02,2.69996e-02,-3.60446e-01,-1.56205e-01,7.36920e-04,-1.77669e-01,-3.11567e-01,1.36528e-01,-6.07422e-01,-4.95409e-02,5.94703e-02,1.51855e-01,-1.83453e-01,-2.77108e-02,1.04756e-01,2.21560e-02,-1.98096e-01,2.65392e-01,3.71928e-01,2.70640e-01,2.97551e-02,1.54749e-01,-2.08545e-01,-6.39318e-02,-4.28314e-01,-1.21519e-01,-3.36484e-01,-5.37743e-02,5.68176e-02,-1.00041e-01,5.06215e-03,1.29837e-01,1.86348e-01,-4.34691e-02,-1.26027e-01,-4.45087e-01,1.21723e-01,5.42381e-02,2.73252e-01,-1.46307e-01,-1.54564e-01,3.78523e-01,2.73182e-03,-2.05062e-01,1.76263e-02,3.06526e-03,-1.30146e-01,-2.83421e-01,-6.95018e-02,-1.19503e-01,-9.92826e-02,3.44155e-01,-8.08202e-02,
-5.70730e-02,-2.76320e-01,-2.01135e-02,-5.77951e-02,-3.17054e-02,-4.08032e-02,5.45666e-04,-1.95679e-01,1.01025e-01,-1.95399e-01,2.94109e-02,2.12391e-01,8.60490e-02,1.86842e-01,-2.49101e-01,3.94711e-02,-4.35565e-01,8.86489e-02,-1.07636e-01,3.98981e-02,7.84850e-02,4.55869e-02,3.05249e-02,-1.70787e-01,-2.92013e-01,4.09550e-02,-1.51152e-01,1.48041e-01,6.79578e-02,-1.90265e-01,-1.88081e-01,-4.41378e-02,2.83380e-01,1.05948e-01,-2.01596e-02,-2.20109e-01,-6.34336e-02,-1.93631e-01,-3.50015e-01,4.27379e-01,-7.35100e-02,-2.11497e-01,-8.92909e-02,-3.02685e-01,-3.58904e-01,-3.37771e-01,-3.92724e-02,7.64198e-02,-1.54643e-01,-1.16442e-01,3.47308e-01,-1.69522e-01,1.16080e-01,1.94446e-01,1.56290e-01,-2.01630e-01,1.41298e-01,1.84274e-02,1.21320e-01,1.00867e-01,-2.28477e-02,1.33698e-01,6.66019e-02,1.06637e-01,
1.58911e-02,-1.05692e-01,-2.30904e-02,2.40321e-01,4.74529e-01,5.99720e-02,-8.57382e-02,6.31078e-02,-3.13003e-02,-3.61141e-01,-2.85942e-01,-1.48567e-02,2.17680e-01,-2.23537e-01,-5.51130e-02,1.06399e-01,1.57228e-01,-1.55084e-01,-2.07106e-01,-1.64521e-02,-1.96466e-01,-6.67412e-02,2.25022e-01,-2.93854e-01,-5.87817e-02,-1.58828e-01,-1.92875e-04,-1.70688e-01,1.46855e-01,4.87384e-02,2.35516e-01,-7.74946e-02,1.16538e-01,-1.22981e-01,-6.21703e-03,1.21651e-01,-1.80789e-01,-2.69637e-01,-5.19168e-02,-4.68202e-02,-8.89226e-02,-2.16962e-01,-4.90888e-02,1.71062e-02,-2.45083e-01,9.98514e-02,2.54640e-01,1.21010e-03,-1.71270e-01,-1.10890e-01,1.78028e-01,-1.71274e-01,-3.87278e-01,-1.92001e-01,8.84088e-02,1.85765e-01,3.42424e-01,8.52199e-02,-7.50414e-02,1.81151e-01,-6.48236e-02,-2.59904e-01,-6.72793e-02,-2.75920e-01,
-8.94687e-02,2.54964e-01,-6.71303e-02,-1.21523e-01,-1.44564e-02,1.99140e-01,-1.85643e-01,2.92251e-01,-5.05026e-02,2.15678e-01,1.68095e-02,1.50571e-03,7.74062e-02,-6.83398e-03,-1.80295e-02,-1.43360e-01,-1.61040e-01,5.33592e-02,-7.19636e-02,-3.22622e-01,-1.35666e-01,-2.27371e-01,-2.64095e-02,-1.00215e-01,7.09791e-02,7.85827e-02,-1.56050e-02,3.11040e-01,-1.08124e-01,1.15486e-01,-2.00922e-01,-1.37545e-01,3.29599e-01,-2.72843e-01,5.92699e-02,2.28233e-01,1.08756e-01,-2.08166e-01,3.43352e-01,-3.10566e-02,1.45296e-01,-8.28391e-02,-3.26248e-02,-3.81050e-02,-1.79736e-01,-4.22182e-01,1.41162e-01,1.24604e-01,-8.37609e-02,-1.29543e-01,-2.67147e-01,9.71588e-02,-2.85145e-01,2.94482e-02,6.31137e-02,3.07804e-01,-2.46108e-01,-2.16652e-01,2.40659e-01,2.67942e-01,1.66069e-01,2.15982e-01,-1.70719e-01,7.93861e-02,
8.45567e-02,-2.47095e-01,-3.67148e-01,3.35114e-01,-1.08948e-01,2.10500e-01,-6.47651e-02,1.42959e-01,-6.54777e-02,2.98194e-02,7.00054e-02,3.23147e-01,-3.02661e-02,6.08415e-02,2.03881e-01,-2.76041e-01,5.76275e-02,-5.46919e-01,1.69701e-01,1.91619e-01,-1.64191e-01,2.13022e-01,-1.20787e-01,4.48149e-01,-3.48243e-02,-1.85188e-02,2.87108e-01,6.59772e-03,-2.11242e-02,2.57314e-01,-2.69964e-01,-3.01796e-01,1.92325e-01,9.18239e-02,1.07612e-01,7.41353e-02,-1.22908e-01,-2.29626e-01,-3.32370e-01,1.55303e-01,4.36280e-02,-3.30093e-02,-2.35865e-01,8.31064e-03,-1.57095e-02,2.23110e-01,1.17816e-01,-1.77320e-01,1.21802e-01,-1.58065e-01,4.58953e-03,2.42522e-01,4.40317e-02,-1.44136e-01,-5.88272e-02,1.23558e-01,-2.09679e-01,1.33091e-02,-7.28706e-02,-4.85076e-02,-3.89154e-01,1.98247e-01,2.83332e-01,-6.70958e-02,
-3.03020e-01,-1.29299e-01,-2.24484e-01,-1.39324e-01,-3.77369e-02,1.48328e-01,-1.72424e-01,9.23560e-02,1.10490e-02,4.88649e-02,5.26025e-02,2.34177e-02,1.25456e-01,1.99755e-01,1.56514e-01,-1.03729e-01,-2.99545e-01,1.31956e-01,-6.51567e-02,6.32427e-02,-2.19450e-03,-2.96906e-01,7.46207e-02,-1.41774e-03,-4.67732e-01,2.79222e-01,-2.56138e-01,7.75901e-02,-5.65044e-02,3.08156e-01,1.22550e-01,8.52868e-02,-1.61748e-01,-1.55917e-01,1.74385e-02,4.86339e-02,1.19278e-01,-4.74995e-02,-9.12399e-04,-5.81874e-02,1.72047e-01,4.48378e-02,3.70987e-02,2.69515e-01,-1.15507e-01,-6.50801e-02,2.00894e-01,-3.21574e-01,2.70231e-01,1.33828e-01,-2.43415e-02,1.21618e-01,-7.47637e-02,-1.28576e-01,-3.05092e-01,-2.50102e-01,1.85989e-01,3.44963e-01,-5.96362e-02,2.12939e-01,-3.34458e-01,-1.95094e-01,-4.58594e-02,-7.61633e-02,
-4.28379e-03,-2.66237e-01,-4.01537e-01,4.83569e-01,1.69865e-01,1.44396e-01,-2.98782e-01,3.56004e-01,1.74503e-01,1.59767e-01,1.97851e-01,-1.64935e-01,-1.43556e-01,1.40961e-01,3.10431e-01,4.16557e-01,5.64118e-02,-1.16575e-01,-1.40623e-01,2.75333e-01,-9.15441e-02,-1.71282e-01,-2.63250e-01,9.50335e-02,3.01741e-01,3.22775e-01,-1.55376e-01,6.48661e-02,1.29211e-01,-4.44588e-02,6.27714e-02,-1.52747e-01,-2.68803e-02,1.39908e-01,3.18508e-01,2.13386e-01,-8.90777e-02,-5.00573e-02,-1.26139e-01,-1.11989e-02,-6.30176e-02,-2.92695e-01,1.97294e-01,-1.12672e-01,3.71228e-01,-2.98208e-02,-2.32575e-01,1.44314e-01,8.75896e-02,-7.70279e-02,4.73377e-02,-9.13983e-02,2.01475e-01,2.02791e-01,-2.62725e-01,-1.03023e-01,1.45373e-03,2.66097e-01,1.81726e-01,-1.28935e-01,2.65203e-02,3.40502e-02,3.15664e-01,-1.53341e-01,
5.75035e-03,
-2.62842e-03,
8.62551e-02,
-1.61524e-02,
-1.30619e-01,
-4.15501e-02,
1.02509e-01,
3.45582e-03,
1.37957e-01,
-4.48500e-02,
-1.51337e-01,
1.17777e-01,
-6.33133e-02,
-2.40091e-02,
-1.29737e-01,
1.36203e-02,
-2.01013e-02,
-1.15255e-01,
2.64335e-02,
-1.43820e-05,
5.82728e-02,
6.76038e-02,
-9.85069e-02,
3.91246e-02,
1.65065e-01,
1.57087e-01,
-4.17563e-02,
3.79613e-02,
-9.29908e-02,
-1.09497e-01,
-1.20073e-01,
-1.55754e-02,
6.68282e-02,
-1.15899e-01,
-1.81550e-02,
0.00000e+00,
-1.23201e-01,
-8.76654e-02,
-1.37325e-01,
8.27063e-02,
-5.82111e-02,
1.47734e-01,
-2.69355e-02,
-9.40868e-02,
1.57173e-01,
1.83844e-01,
-1.39061e-01,
5.69915e-02,
2.96352e-02,
-1.00372e-01,
1.15812e-01,
2.67274e-02,
-7.95341e-02,
1.24465e-01,
-1.22722e-02,
-4.71093e-02,
-5.02442e-02,
1.18987e-01,
3.33850e-04,
-1.21733e-02,
-5.07971e-02,
-1.23960e-01,
-1.04651e-01,
-4.55014e-03,
4.40623e-01,-3.78521e-01,-1.70615e-01,-1.95406e-01,1.86150e-01,-1.10212e-01,-8.74785e-03,3.69904e-02,1.85014e-01,-7.06331e-02,-1.08353e-01,6.90509e-02,-4.49595e-02,6.85220e-02,-2.91630e-01,-3.84647e-02,1.09617e-02,6.75718e-02,1.33201e-01,3.09609e-02,2.07342e-01,1.11979e-01,-1.12391e-01,-2.07429e-01,8.81194e-02,-2.20809e-01,-2.94535e-01,-3.91438e-01,5.87551e-02,7.11387e-03,-1.40486e-01,1.18160e-02,-3.94264e-02,-1.69149e-01,-9.12037e-02,-1.41393e-01,-1.75516e-01,-2.45284e-01,-1.13596e-01,4.51044e-01,-2.20316e-01,1.80684e-01,-1.15498e-01,-2.33480e-01,1.29926e-01,-7.97747e-02,-9.20420e-02,3.95031e-02,-2.46361e-01,8.47144e-02,-6.88614e-02,-6.59823e-02,-2.27041e-01,-1.38150e-01,-6.84119e-02,-2.61532e-01,-1.24964e-01,-1.83594e-03,5.80980e-02,1.24326e-01,3.07920e-01,-1.08249e-01,1.47739e-01,-1.03841e-01,
-9.03245e-02,2.65717e-01,2.60212e-01,-1.48769e-01,-4.44594e-02,3.39095e-01,3.18330e-02,-2.00443e-01,-1.55361e-01,3.22646e-01,7.00408e-02,-1.81947e-01,2.55626e-01,-4.09365e-02,2.65185e-01,-3.93744e-02,-1.58489e-01,2.82487e-01,-2.33713e-02,1.11770e-01,3.03745e-01,-4.27997e-01,-7.49972e-03,-1.74923e-01,-1.25481e-01,-7.23590e-02,1.33451e-01,-5.12497e-01,-2.09512e-01,1.72316e-02,-7.24351e-02,1.47985e-01,2.58552e-02,3.04293e-01,9.23845e-02,7.09948e-02,-2.23165e-01,1.01286e-01,-9.02075e-02,-9.93377e-02,-1.53872e-02,-1.16728e-02,1.18403e-01,-2.00562e-01,-1.30162e-02,-3.08538e-01,-8.98541e-02,4.33019e-02,4.17579e-02,-1.77236e-01,-9.13087e-02,2.06891e-02,8.62127e-03,6.30746e-02,-1.00590e-01,-1.64229e-01,-1.26088e-01,2.20503e-02,2.17853e-01,4.98948e-02,3.09125e-01,4.59093e-02,1.98837e-01,-3.54937e-03,
-4.60151e-02,-2.49729e-02,-7.75064e-02,-3.64968e-01,-1.84413e-01,-3.78688e-02,6.30716e-03,1.76919e-01,2.11543e-01,-1.92806e-01,-2.00538e-01,-3.13994e-01,3.85830e-01,-2.44420e-01,-4.21644e-02,1.34542e-01,-1.27976e-01,7.01533e-02,-1.07503e-01,1.20522e-01,-1.88471e-01,-1.07773e-01,3.50412e-02,-2.79975e-01,3.73629e-02,2.54709e-01,-1.54149e-01,-2.70324e-01,-1.57020e-01,-3.98414e-02,1.59835e-01,-3.83541e-01,8.76273e-04,-1.40837e-01,-1.99112e-01,-1.41928e-01,4.73360e-02,2.03265e-02,-2.23760e-02,1.10816e-01,-7.33686e-02,-2.77528e-01,1.30564e-01,1.00069e-01,2.85098e-01,-7.00558e-02,-1.46909e-01,-1.08336e-01,-1.86511e-01,-9.10197e-02,-1.11202e-01,1.38005e-02,1.29006e-01,-1.77398e-01,2.19905e-01,1.91704e-01,-1.62584e-01,3.99900e-01,-4.79139e-02,-1.93014e-01,-1.71821e-01,4.97766e-02,-2.16233e-01,1.40550e-01,
-1.31886e-01,-5.31874e-02,-3.33528e-01,-7.60002e-02,-2.49445e-02,3.39542e-02,-3.29467e-01,-1.60091e-02,-1.70758e-01,1.80200e-01,-1.17224e-01,-1.90465e-01,-1.22432e-01,-3.16964e-01,6.49226e-02,-2.60934e-01,-9.74496e-02,6.15069e-02,-6.75221e-02,8.57901e-02,6.49115e-02,1.02983e-01,3.54431e-01,-1.74424e-01,-1.63795e-02,-1.16675e-02,-1.18988e-01,1.93566e-01,3.67988e-01,-8.30968e-02,1.69636e-01,-1.19069e-01,1.05818e-01,7.33859e-02,1.71151e-01,2.84570e-03,-3.76052e-01,-1.12812e-01,-6.13910e-02,4.81560e-02,2.47589e-02,3.48992e-01,1.05524e-01,-6.57016e-02,-1.63182e-01,-3.40488e-01,-3.58166e-01,1.30731e-01,8.42095e-02,-2.17557e-01,-1.15646e-01,-2.61146e-01,2.08517e-01,3.59342e-02,2.03550e-01,1.99731e-01,1.07544e-01,1.63152e-02,-1.50003e-01,5.71826e-02,1.31133e-01,1.90392e-01,1.08120e-01,6.20044e-02,
-5.28154e-02,6.31831e-02,3.90210e-01,-2.07484e-01,1.96219e-01,-2.87278e-01,-1.17602e-02,2.63482e-01,2.96980e-01,2.12631e-01,-2.09521e-01,-3.94692e-02,-1.72625e-01,-6.22256e-02,-3.24333e-01,-1.82697e-01,1.59084e-01,-1.38994e-01,1.78287e-01,1.19180e-01,1.94313e-01,-2.30437e-01,-7.91864e-02,1.15811e-01,-1.56324e-01,2.52257e-01,1.15721e-01,1.62130e-01,-3.41633e-01,-2.51042e-01,-1.11025e-02,4.45257e-02,7.91239e-03,-1.79925e-01,-8.63307e-02,-2.05044e-01,-2.33660e-01,5.97307e-02,-3.06313e-01,8.87922e-04,-2.76222e-01,3.12619e-01,-3.27158e-01,1.39776e-02,-2.35390e-01,2.16200e-01,-2.64848e-02,-3.13419e-02,-1.52760e-01,-1.25635e-02,-2.78507e-02,-1.94475e-01,-1.15298e-01,3.04292e-01,-1.24647e-01,2.65214e-01,-1.48553e-01,3.13098e-01,2.05816e-01,-5.18966e-02,-1.69403e-01,1.81247e-01,7.99154e-03,-2.23042e-01,
-3.30304e-01,2.03457e-02,-2.69383e-01,-1.34636e-01,4.21505e-02,-1.22204e-03,3.14168e-01,1.37548e-01,2.64165e-01,2.99895e-01,7.81883e-02,8.32579e-02,-1.51718e-01,1.19307e-01,3.09761e-01,-3.03497e-01,-3.01432e-03,1.07278e-01,-2.51060e-02,-2.70051e-02,-1.01947e-02,-2.31204e-01,2.12975e-02,7.54588e-02,-1.09250e-01,-1.16278e-01,-3.37075e-01,-1.28435e-01,2.66653e-01,-3.07496e-01,9.67706e-02,-1.03765e-02,1.49254e-01,-3.79263e-01,1.31902e-01,-5.93467e-02,2.84081e-01,1.06775e-01,-3.00107e-01,1.68881e-01,1.15833e-01,-6.18048e-03,9.92876e-02,-3.26279e-01,-3.16236e-02,-1.07700e-01,1.96855e-02,-7.39040e-02,3.63704e-02,-6.60513e-02,1.37822e-01,1.01119e-02,-6.16501e-02,-9.49794e-02,-2.43584e-01,-6.44760e-02,-1.23249e-01,-1.58358e-01,6.99465e-02,-1.09254e-01,-4.09348e-01,1.18679e-01,-1.52483e-01,2.06830e-02,
-1.72852e-01,-8.64484e-02,7.96573e-02,5.22515e-02,1.07549e-01,-5.29360e-02,8.78184e-02,-7.91856e-02,-2.13558e-02,1.32971e-01,2.62744e-01,1.16260e-02,-1.78261e-01,4.50745e-02,8.82443e-02,-3.54671e-02,-5.61028e-02,-1.34679e-01,1.97711e-01,-1.99589e-01,1.24805e-01,8.63874e-02,6.15022e-04,-9.33534e-02,2.92646e-01,6.13129e-02,5.04626e-02,1.46281e-01,-1.74750e-01,-1.86324e-01,1.83706e-01,-2.57898e-01,-4.88009e-01,1.72713e-01,1.10271e-02,-3.82804e-01,2.47240e-01,9.83679e-03,2.68576e-01,1.84715e-01,9.00065e-02,1.75394e-01,7.20055e-02,-1.34610e-01,1.81907e-01,5.57306e-02,-5.47184e-01,1.53827e-01,2.95663e-02,-1.88986e-01,1.56763e-01,-2.63510e-01,-2.50524e-01,-7.75006e-02,-1.79429e-01,1.40614e-01,-7.35703e-03,1.28132e-01,3.84177e-01,-2.16368e-01,9.64189e-02,-2.29809e-01,-1.05425e-01,-1.72087e-02,
-5.27273e-02,-6.40758e-02,2.19960e-01,-1.93616e-01,-1.35221e-01,-1.28485e-01,1.13589e-01,1.16869e-01,-2.89523e-01,-4.88395e-02,2.48032e-01,1.11339e-01,-1.52351e-01,-9.35177e-02,6.14998e-02,-2.98649e-02,-1.39621e-01,-1.69764e-01,-3.92369e-01,1.14316e-01,-5.73558e-02,8.99338e-02,1.14436e-01,-1.17319e-01,-2.15444e-01,-4.12342e-02,1.84409e-01,-1.08549e-01,-1.65164e-01,-1.03107e-01,-4.20068e-02,-1.71076e-01,7.97650e-02,9.83074e-03,5.70070e-02,6.47215e-02,7.18487e-02,-2.75276e-01,-2.38595e-02,-1.60667e-01,3.15547e-02,-1.10884e-01,-1.07846e-01,-3.57753e-01,-6.15882e-03,7.08584e-02,-1.04547e-01,4.59334e-01,3.84523e-02,2.15927e-01,-2.35792e-01,-2.30709e-01,-8.71898e-02,-2.04378e-01,3.68138e-01,-1.40637e-01,-3.47718e-01,-3.23626e-01,9.04075e-02,-8.51946e-02,-2.16112e-01,2.20825e-01,1.17983e-01,-1.39798e-01,
-1.72023e-02,-2.53508e-01,1.88527e-01,-9.28167e-02,1.95333e-01,9.04571e-02,2.64188e-02,-3.59372e-01,-1.35439e-01,1.22903e-01,1.40547e-01,1.32893e-01,1.14281e-01,9.70334e-02,-9.56123e-02,1.29572e-01,-3.65549e-01,1.50591e-01,2.47884e-01,4.65050e-02,-7.98065e-02,1.81023e-01,-6.11027e-03,1.86416e-01,-6.79292e-02,2.33756e-01,2.11314e-01,2.10939e-01,1.22526e-01,2.40204e-01,1.09505e-01,-3.04550e-01,4.21504e-01,4.36160e-02,-3.48909e-01,-9.68677e-03,8.12460e-02,3.33748e-02,-1.90556e-01,8.10690e-02,1.23837e-01,3.01971e-01,1.23689e-01,-3.08824e-02,-1.21117e-01,1.81123e-01,2.04686e-01,1.39366e-01,-9.42643e-02,9.91286e-03,3.24974e-02,-1.05808e-01,3.86920e-02,-2.49282e-01,-2.14600e-01,-1.97967e-01,-8.05788e-02,3.36327e-01,9.93586e-02,1.18766e-01,-5.34404e-02,6.74185e-02,-3.85735e-01,1.19445e-01,
1.00918e-01,2.95898e-01,4.79525e-02,-2.87428e-02,-2.25330e-01,5.09463e-02,7.98931e-02,-9.43887e-02,-2.57638e-01,1.17566e-02,1.31756e-02,5.12011e-01,-9.55485e-02,-2.39522e-01,-2.03008e-01,1.63793e-01,-1.40970e-01,-6.88894e-02,3.63038e-01,6.84882e-02,-4.14480e-03,-2.95383e-01,1.35599e-01,-2.84720e-01,-2.10471e-01,1.15642e-02,-1.64530e-01,-6.97394e-02,-1.53913e-01,7.85131e-02,2.21729e-01,3.91505e-02,-3.53309e-02,-6.10799e-01,1.15757e-01,-1.22164e-01,-7.78838e-02,4.60598e-02,3.70525e-01,6.01077e-02,6.08127e-02,4.73412e-02,-6.59768e-02,3.96433e-02,-1.31624e-01,-1.43447e-01,-3.61104e-02,-1.46007e-01,-5.73992e-02,5.64350e-02,2.26057e-02,-7.83625e-02,-1.89552e-01,-8.65615e-02,1.91253e-01,8.84932e-03,2.44290e-01,-1.07647e-01,8.81357e-02,1.47641e-01,-1.07921e-01,6.12260e-02,-1.43511e-01,4.30716e-02,
-9.36848e-02,1.08502e-01,6.84715e-02,-1.87572e-01,6.96264e-02,2.33684e-01,1.88470e-01,2.81711e-01,9.63883e-02,-7.62810e-02,-2.45353e-01,2.13231e-01,-1.62135e-01,-1.43004e-01,1.93916e-01,-1.39673e-01,1.66945e-01,-2.86768e-02,2.26522e-01,2.09616e-01,-2.94741e-01,3.02761e-01,-3.18397e-01,-1.08388e-01,1.24388e-01,2.78135e-01,1.15905e-01,-5.77042e-02,-1.72453e-01,1.29543e-02,-2.34308e-01,1.14508e-03,-1.03943e-02,-6.78788e-02,-6.33944e-02,2.37792e-01,-3.34126e-02,4.50220e-02,-2.20406e-01,1.88318e-01,9.85082e-02,1.25327e-01,-5.81594e-02,-7.55420e-02,-1.79722e-01,3.58292e-01,-3.66615e-01,-1.28691e-01,9.75842e-02,1.13831e-01,3.10271e-01,-2.67508e-01,2.64497e-01,-2.16548e-02,7.97575e-02,1.10817e-01,-2.97468e-02,2.03695e-03,-2.53880e-01,4.05674e-02,3.03240e-01,-2.28431e-01,-1.73402e-01,5.09678e-02,
-9.98460e-02,-1.52245e-01,1.54906e-01,-1.10135e-01,9.45444e-02,-2.15985e-01,1.84470e-01,-1.95103e-01,1.46464e-01,2.06613e-01,-7.87741e-02,-1.19938e-01,-1.61203e-01,-1.43160e-01,-1.17182e-01,-2.16297e-01,1.73747e-02,2.18601e-02,3.63342e-02,-2.49292e-01,-1.40928e-01,6.77330e-02,-4.86074e-02,-2.98825e-01,-8.90704e-02,-1.94383e-01,1.92739e-01,-1.23463e-01,1.87873e-01,-3.89637e-02,3.37429e-02,1.05003e-02,-2.98151e-01,-1.64891e-01,-2.00811e-01,3.25984e-01,-2.45635e-01,7.18328e-02,1.52912e-01,3.01852e-02,3.48767e-01,-3.72564e-01,-4.62812e-03,-2.14531e-01,1.18801e-01,1.46309e-01,1.85421e-01,1.95389e-01,-3.58269e-02,-2.74215e-01,1.49641e-01,-1.27418e-01,5.53980e-02,2.74731e-01,2.22568e-01,-1.86262e-01,2.93319e-01,2.03326e-01,3.14658e-02,1.59861e-01,1.32591e-02,2.20173e-01,-1.28420e-01,-2.53290e-01,
-1.35184e-02,5.62004e-02,-1.54501e-01,9.13336e-02,-1.46162e-02,1.20477e-01,2.72656e-01,1.10192e-01,1.56663e-01,1.20345e-01,6.07012e-02,-3.22375e-01,-3.09796e-01,1.90086e-01,-2.35756e-01,7.07643e-02,-4.61447e-02,1.04221e-01,-2.48979e-01,2.27202e-01,-1.17113e-01,-6.02269e-02,2.88669e-02,-2.41847e-02,2.14201e-01,-1.56538e-02,-1.45848e-01,1.47993e-01,-3.98532e-01,-4.54280e-02,8.61514e-02,1.65200e-01,-1.39113e-01,-2.45431e-02,-4.75874e-03,-1.13986e-01,-2.30050e-01,-3.23417e-02,-2.86288e-02,-9.51436e-03,2.62684e-01,1.95014e-01,-1.16850e-01,-2.02535e-01,2.78528e-02,5.11092e-02,3.49508e-01,-4.77670e-02,-1.34216e-01,-1.44827e-01,5.24567e-02,-8.59664e-02,-1.43920e-01,-5.27005e-01,3.20009e-01,5.86940e-02,9.18840e-03,1.21502e-01,-9.40300e-02,-2.45967e-01,7.00384e-02,2.25500e-01,1.29394e-01,-4.82077e-02,
3.44028e-01,2.23252e-01,-5.25434e-02,-1.37377e-01,1.29505e-01,-8.31878e-02,5.04455e-01,2.40221e-02,-7.52650e-02,-8.85241e-02,-2.65252e-01,1.92741e-01,-9.91168e-02,-6.35476e-02,-1.31220e-01,-8.71558e-02,1.44953e-01,1.46752e-01,-2.88444e-01,1.28431e-01,1.54156e-01,2.62352e-02,-2.55988e-02,8.72229e-02,-2.75162e-02,2.33642e-01,9.55351e-02,-6.70150e-02,5.22884e-01,-3.46637e-02,-4.36605e-02,1.59855e-01,4.77608e-01,2.09832e-01,6.93910e-02,-3.89307e-01,4.42951e-03,3.32906e-01,3.01238e-01,-1.18250e-01,8.84138e-02,-9.57608e-02,6.18184e-02,7.41719e-02,3.04098e-01,3.35558e-01,-5.52774e-02,1.62287e-01,2.44013e-02,-1.06797e-02,-1.33432e-01,-1.58191e-01,-1.75083e-01,-1.07285e-02,-1.33721e-01,3.71819e-02,9.61217e-02,1.49906e-01,-5.49552e-02,-3.43393e-01,6.74520e-02,7.97598e-02,-2.03984e-01,-4.57139e-02,
-3.34880e-02,2.87896e-01,1.99208e-01,-5.92314e-02,3.14451e-01,2.07665e-02,1.41556e-01,-1.83496e-03,8.87953e-02,3.68864e-02,-1.09367e-01,1.00843e-01,1.33837e-01,2.69117e-02,-2.96840e-01,2.51528e-01,4.51522e-02,9.57786e-02,-9.93208e-02,-5.48529e-01,-4.92181e-02,1.27651e-01,-2.15956e-01,-4.01863e-01,2.40252e-02,4.94476e-02,-8.82779e-02,3.52159e-01,7.20823e-02,-1.02871e-01,-3.67492e-01,-5.52945e-02,6.94399e-02,6.39059e-02,2.08527e-01,2.72574e-02,4.81418e-02,-2.32781e-02,-1.17382e-01,-1.07612e-01,-8.11781e-02,1.80655e-01,1.20363e-01,-1.53922e-01,2.83034e-01,-1.36504e-01,2.38933e-02,-3.08257e-01,5.04350e-02,-9.80664e-02,-8.54239e-04,-2.91227e-01,-8.30769e-02,2.49188e-02,1.64206e-01,3.76315e-03,-2.11215e-01,3.52470e-02,1.35215e-01,2.34529e-01,-1.85238e-01,-5.07706e-02,1.14482e-01,3.21087e-01,
-2.79773e-01,-1.59699e-01,1.58485e-01,-1.03402e-01,1.53176e-01,7.68649e-02,-1.55835e-01,1.02491e-01,4.75662e-02,-1.42035e-01,-3.46477e-01,3.58419e-01,-2.94175e-01,2.34837e-02,4.04129e-02,1.71868e-01,-2.05439e-01,-3.91827e-01,-1.79603e-01,1.62202e-01,-3.55402e-01,-4.71134e-01,-4.37978e-01,-8.17419e-02,-6.07549e-02,1.25171e-01,-1.36309e-02,3.03110e-02,2.86887e-01,2.73257e-01,-1.42439e-03,-8.92829e-03,-6.03422e-02,7.66023e-02,1.26758e-01,-2.80320e-01,1.38434e-02,-6.37812e-02,-2.07984e-01,6.68952e-02,9.92856e-02,1.52556e-01,-7.84292e-02,2.10500e-02,2.39243e-01,9.41349e-02,-5.34774e-02,-1.90024e-02,7.37794e-02,-3.02678e-01,1.45714e-01,1.84837e-01,9.77622e-02,-1.12388e-01,-1.06981e-02,-1.88383e-01,1.02395e-01,1.43307e-01,2.01249e-01,-6.05054e-02,1.71308e-01,1.22914e-01,1.66049e-01,-6.96631e-02,
6.43026e-02,-6.49830e-01,2.79401e-01,-4.17750e-02,1.21444e-01,-2.37148e-01,1.09493e-01,7.63722e-02,-2.91424e-01,-2.25095e-02,-1.71025e-01,1.11061e-01,-5.21447e-02,-2.62054e-01,4.00427e-01,7.30626e-02,-1.02068e-01,7.95621e-02,2.39295e-01,-7.82124e-02,6.90469e-02,-7.37105e-02,-1.17482e-01,5.59460e-02,2.54909e-01,1.80872e-02,-3.44964e-01,1.14039e-01,-2.18532e-01,-1.62633e-01,-5.44837e-02,-3.21807e-02,9.43796e-02,1.96880e-02,4.30302e-01,6.59013e-02,-3.00079e-01,1.02259e-02,7.36240e-02,-1.15878e-01,1.31144e-01,-9.31566e-02,-6.03435e-02,1.13606e-02,5.86496e-02,-2.29265e-01,3.11163e-01,1.06719e-01,1.25855e-01,1.99368e-02,-1.41695e-01,-3.45133e-02,3.70754e-02,-2.45379e-02,-5.39337e-02,2.54093e-02,-3.00194e-03,1.21259e-01,-8.88755e-02,-2.05216e-01,-1.14506e-01,-1.69450e-01,-4.69202e-02,7.54641e-02,
1.82157e-01,-4.75972e-02,4.82191e-02,6.48704e-02,-3.98436e-02,1.61174e-01,-9.62868e-03,2.37257e-01,3.72802e-02,-2.26588e-02,2.40318e-01,-4.18960e-02,-4.34444e-03,-1.04566e-01,-2.25533e-01,8.62168e-02,-2.87390e-01,-2.40439e-01,-4.13349e-01,3.90482e-02,1.77512e-01,-2.24555e-02,-1.29486e-02,1.12010e-01,-1.82435e-01,3.59419e-01,-8.12024e-02,1.74403e-01,1.19614e-01,-1.53969e-01,1.76068e-01,-9.36506e-02,-2.05881e-01,-5.50260e-03,2.45487e-01,4.39670e-01,-1.66490e-01,1.80039e-01,-6.75204e-02,1.40054e-01,1.53330e-01,-3.74017e-02,-1.87081e-01,4.88862e-02,1.29528e-01,-2.33626e-01,-4.33730e-02,-2.55399e-01,-2.90213e-01,-1.00833e-03,1.96876e-01,-2.24500e-01,4.17875e-02,1.35166e-01,-2.38474e-01,-2.48948e-01,-1.28946e-01,-1.05380e-01,9.86347e-02,-1.53826e-01,1.44515e-01,-1.86549e-02,-3.45212e-01,-1.78146e-01,
2.26916e-01,2.56975e-01,-2.87687e-01,6.03155e-03,2.76001e-01,-9.34968e-02,-1.37182e-01,-2.55922e-01,2.44556e-02,8.51301e-02,3.14032e-01,1.01954e-01,3.23346e-02,-3.04596e-01,1.63578e-01,-6.24360e-02,2.48433e-01,1.81302e-01,-2.90082e-01,-6.81264e-02,-2.81661e-01,1.01111e-01,-3.24814e-02,9.98595e-02,1.35380e-02,-2.34221e-02,8.76073e-02,-1.06425e-01,-2.47995e-01,2.19559e-02,1.22177e-01,-2.18893e-01,1.45824e-02,-3.11040e-01,1.30992e-01,-2.81447e-01,-1.32743e-01,7.10075e-02,-1.52351e-01,-4.59047e-02,1.19522e-01,2.26503e-01,1.17972e-01,5.36564e-01,1.93045e-01,3.01315e-01,3.19397e-01,1.97063e-01,-1.00732e-01,-8.85443e-02,7.67090e-04,1.52690e-02,2.20765e-01,1.76502e-01,-1.64874e-01,-2.16680e-01,-6.15265e-02,3.84151e-02,1.22903e-01,-8.34620e-02,7.19000e-02,-2.85140e-02,4.59710e-02,6.18232e-02,
2.38781e-01,7.60760e-02,-2.42097e-01,-1.55889e-01,-8.98607e-02,-1.03038e-01,-2.99620e-01,2.01370e-01,9.87166e-02,-3.43304e-02,2.23686e-01,3.16876e-02,1.49041e-01,-5.80777e-02,-3.15403e-02,1.44185e-02,-1.72700e-01,-2.18922e-02,-3.56311e-02,4.23612e-03,6.31329e-02,1.24251e-01,-3.82987e-01,2.55467e-02,-7.53618e-02,-5.02156e-03,-9.19092e-03,-1.08371e-01,-8.97202e-02,3.21176e-01,-3.18275e-01,1.74576e-01,-2.00449e-01,9.55717e-02,2.31530e-01,-6.21613e-02,4.37556e-02,4.02690e-01,7.41111e-02,3.42763e-01,1.85613e-03,1.83675e-01,1.37871e-01,-2.00374e-01,-2.66605e-01,-5.46119e-02,1.29645e-01,1.34441e-01,4.27564e-01,-3.83342e-02,-9.42414e-02,-1.11958e-01,2.10191e-02,7.44689e-02,2.30893e-01,5.14392e-03,2.02089e-02,1.88800e-01,1.22285e-01,-1.89897e-01,-2.87989e-01,1.91349e-01,-1.96438e-01,-1.64680e-01,
-2.41095e-03,-7.41149e-02,-4.56935e-02,2.46546e-01,2.83082e-01,-4.80136e-02,-9.62702e-02,-3.06317e-01,-1.39837e-01,2.32015e-01,1.96355e-02,-2.24851e-01,1.38939e-01,-2.45714e-01,-6.39805e-02,-5.99239e-02,-1.91610e-01,-1.18259e-01,1.08346e-01,3.59300e-01,-1.39772e-01,-2.12939e-01,-2.51495e-01,-1.38274e-01,-4.63198e-02,3.50190e-01,-4.03760e-01,3.98169e-02,-1.69515e-02,-9.97850e-02,7.60941e-02,2.75808e-01,-1.72186e-01,1.82188e-01,-1.07088e-01,-1.06088e-01,2.02479e-01,4.74847e-02,5.15650e-02,1.86045e-02,-1.36100e-01,1.08857e-02,2.49632e-01,-1.79166e-01,1.19817e-01,3.56569e-01,1.09992e-01,-3.80530e-07,-1.53582e-01,2.08261e-01,1.35995e-01,-1.04820e-02,8.26619e-02,3.24989e-01,1.89722e-01,1.65429e-01,-7.64876e-02,-1.75938e-01,-1.45611e-01,1.64035e-01,-1.03693e-01,-8.61925e-02,-3.80529e-02,-6.03953e-02,
-1.97684e-01,5.76069e-02,4.83505e-02,-1.95482e-01,2.28071e-01,-1.01616e-01,-3.00560e-02,-2.38604e-01,8.39806e-02,3.93444e-02,4.41236e-01,-2.14230e-02,-2.07394e-02,-4.40978e-02,-1.56273e-01,9.41163e-02,4.23005e-01,1.17019e-01,2.09419e-01,1.07949e-01,2.55612e-01,2.23124e-01,-9.46927e-02,-3.08593e-01,-2.60774e-01,4.53710e-02,-3.71923e-02,1.94326e-01,8.90403e-02,2.96412e-01,2.17667e-01,8.94044e-02,6.23309e-02,1.06824e-01,2.47705e-01,2.93705e-02,2.73348e-01,4.66207e-02,-4.41534e-02,-1.29254e-01,8.50556e-02,-1.49231e-01,-2.23195e-01,5.83430e-02,-1.53506e-02,-1.07075e-01,-1.36070e-01,-3.82310e-03,-2.63737e-02,2.16314e-01,-4.89524e-02,3.97991e-01,2.94956e-01,-1.81462e-02,6.77558e-03,-1.82923e-01,3.66635e-02,3.40689e-01,-2.87853e-01,-3.48858e-01,6.91725e-03,-5.95533e-02,1.09364e-01,2.79220e-02,
8.25604e-02,-3.60632e-02,-1.07426e-01,-1.08983e-01,-1.28855e-01,-3.84149e-01,5.06513e-01,1.10617e-02,1.27480e-02,1.32030e-01,3.74214e-03,1.90696e-01,3.57631e-01,1.46812e-01,-4.27110e-02,1.88468e-01,-4.08079e-01,5.72634e-03,-1.91900e-03,-6.45997e-02,-4.11869e-02,-1.63210e-01,1.33835e-01,-2.73120e-02,1.80418e-01,1.32714e-01,3.13610e-02,4.18110e-01,3.88320e-02,-1.18936e-01,-7.66052e-02,3.82407e-01,-2.47962e-01,-1.94295e-01,-6.06616e-02,-8.17245e-03,-1.44701e-01,-1.75605e-02,-2.98281e-01,1.18919e-01,-1.21106e-01,6.90593e-02,-1.36258e-02,2.79438e-01,-1.12339e-03,1.08919e-01,-3.71510e-01,2.86694e-01,2.31669e-01,-1.23047e-01,2.13019e-01,1.53135e-01,-9.62975e-02,1.01455e-02,2.91510e-02,-1.95441e-01,-1.54551e-01,1.56111e-01,-2.48782e-01,1.04819e-02,3.44929e-02,-6.87140e-02,8.33789e-02,-1.31704e-01,
-3.52300e-01,-1.84826e-01,-8.89336e-02,3.62087e-01,6.39804e-02,-1.83310e-02,1.65922e-01,-1.14931e-01,-1.73318e-01,2.15476e-02,-1.66968e-01,-1.55795e-01,-7.97339e-02,8.38945e-02,8.16469e-02,2.27757e-01,7.99485e-02,-3.44660e-02,-1.94033e-01,-1.25519e-01,-1.86093e-02,2.87024e-01,4.10107e-02,1.41444e-01,-3.34946e-01,-1.01701e-01,1.59308e-01,-4.09481e-01,-1.48176e-01,2.42099e-02,-1.32640e-01,2.93030e-01,-1.14147e-02,-8.30288e-02,6.86136e-02,-1.98157e-01,-1.85771e-01,-1.70045e-01,-5.80854e-02,5.56317e-02,-9.48397e-03,1.91293e-01,5.58194e-02,3.59005e-02,-7.49047e-03,-5.31452e-02,-2.86448e-01,-4.29742e-01,-5.20490e-03,-4.24043e-02,-9.71378e-02,8.01902e-02,-4.87572e-02,5.79201e-02,1.56773e-01,-1.84855e-02,-8.68482e-02,3.28262e-01,-5.98692e-02,-2.15429e-02,-1.13459e-01,3.03088e-02,-4.71695e-01,-2.56241e-01,
-3.25268e-01,-2.41445e-01,-2.16564e-01,-8.24878e-02,-3.32552e-01,9.83051e-03,8.55003e-02,4.16209e-02,-9.27431e-02,6.02692e-02,4.99020e-03,5.94396e-01,-6.30059e-02,-5.81852e-02,-2.63189e-01,-1.19831e-01,-8.25759e-02,3.35495e-01,-6.12457e-02,1.29166e-01,1.06692e-01,1.10920e-01,-1.12008e-01,-4.23083e-02,4.15339e-01,1.90520e-01,2.06973e-02,1.47489e-01,-3.64714e-02,-1.73746e-01,1.69976e-01,9.04271e-02,-2.58691e-01,2.35177e-01,-2.89191e-02,-7.61088e-02,-2.16573e-01,1.43902e-01,1.05381e-01,-3.17728e-02,-4.02876e-02,1.46053e-01,-1.05421e-01,-4.55407e-02,4.19614e-02,4.99695e-01,-2.30934e-02,-4.75217e-01,-7.95253e-03,1.44579e-02,-1.41679e-01,8.09734e-02,1.10930e-01,1.74116e-01,-1.49247e-01,-8.77874e-02,-3.19474e-01,2.26261e-01,1.45827e-01,1.92684e-01,-2.02255e-01,2.01218e-01,1.28314e-01,2.78644e-02,
-8.04083e-02,2.91051e-03,5.56825e-02,-1.04137e-02,2.86364e-01,2.23550e-01,1.85361e-02,-1.90428e-01,2.38071e-01,1.30373e-01,-1.66100e-01,1.19280e-01,-5.91926e-02,-2.19318e-01,-9.47907e-02,-2.44169e-01,-3.15700e-01,-2.89899e-01,-1.80752e-01,-1.25802e-01,1.27031e-01,-2.05085e-02,2.98382e-01,2.76077e-02,-1.25730e-02,8.41956e-02,-2.46763e-01,-4.17409e-02,-2.12446e-01,7.48998e-02,-2.53270e-01,-4.94874e-02,-3.19000e-04,5.33838e-03,2.40619e-01,3.34662e-03,-1.34363e-01,-1.46784e-01,1.02505e-01,1.50391e-01,2.10317e-02,-9.65146e-02,1.03217e-01,1.58597e-01,-1.10306e-02,5.42534e-01,-1.62479e-01,-2.73051e-01,2.49055e-01,3.45995e-01,2.14181e-01,-1.73526e-01,-8.61638e-02,-2.42751e-01,-2.27571e-01,-1.25580e-01,6.58124e-02,4.19243e-01,-1.08233e-01,-2.93905e-02,-2.79798e-01,6.35013e-02,2.59568e-01,-1.56390e-01,
-1.42511e-02,1.00192e-02,-9.92963e-02,-1.18431e-01,-2.23416e-01,-1.12549e-01,-1.63469e-01,-9.96283e-02,-2.53865e-02,3.03876e-01,-8.79344e-02,-1.35870e-01,-2.34026e-01,-9.01703e-03,2.26630e-02,1.35278e-01,-1.54805e-01,-7.40536e-02,-1.30561e-01,1.68524e-01,-2.93097e-01,-1.53466e-01,4.82877e-02,-1.81027e-01,2.45187e-01,-1.66027e-02,1.48321e-01,1.13476e-01,-4.82003e-02,-1.37498e-01,-1.96982e-01,2.11362e-01,2.84445e-01,-1.48723e-01,7.60431e-02,2.21177e-01,2.61092e-01,-2.53271e-01,1.60435e-01,3.42539e-01,4.52524e-02,-9.49003e-02,-7.86052e-02,-6.23538e-02,-1.69547e-01,2.17010e-01,-2.02037e-03,-1.92588e-01,-5.26098e-02,1.57004e-02,-3.24334e-01,-9.69106e-02,-2.77636e-01,3.60994e-01,-8.89859e-02,-1.94480e-01,1.01953e-02,3.19735e-01,1.95989e-01,-3.12145e-01,1.73141e-01,-2.07677e-01,5.94929e-02,3.09082e-01,
1.68536e-01,-1.24996e-01,5.90693e-02,3.02503e-01,2.89344e-02,3.25866e-01,-9.26280e-02,-2.65391e-02,7.72521e-02,5.46232e-02,-2.79202e-01,3.58959e-01,1.08013e-01,-2.78024e-01,1.07054e-02,-9.44333e-03,1.77065e-01,-5.04417e-02,-4.11602e-02,-1.40111e-01,-2.41077e-01,8.17719e-02,2.07064e-01,1.45539e-02,-2.11051e-01,-1.61665e-01,2.08207e-01,-1.08493e-01,1.28822e-01,-1.01921e-01,2.28756e-01,-1.05063e-01,-1.32271e-01,2.83605e-01,-2.16195e-01,8.12975e-02,2.54846e-01,4.36608e-01,-2.49154e-01,1.37904e-01,-5.38780e-02,3.76565e-02,-9.03449e-02,1.31275e-01,-1.08678e-01,-1.42707e-01,2.03624e-01,1.66259e-01,-1.19787e-02,1.31214e-01,7.87645e-02,1.17212e-01,-3.00256e-01,1.25318e-01,1.69491e-01,1.07594e-01,-9.68098e-02,3.65041e-01,-1.25801e-01,-2.51654e-01,-1.27791e-01,-1.31255e-01,2.45886e-01,9.44630e-02,
-2.59827e-01,2.44388e-01,9.87389e-02,-9.84548e-02,2.25341e-01,2.52395e-02,-3.08803e-01,3.08492e-02,-7.60419e-02,-2.25111e-01,-1.23226e-01,8.03910e-02,1.71710e-01,1.21180e-01,-1.55067e-01,2.04980e-02,-2.08564e-01,2.96500e-01,-1.91913e-01,-7.76510e-02,-1.04718e-02,1.83666e-01,-4.51834e-02,1.12710e-02,7.96185e-02,-8.37383e-02,-1.86403e-01,-1.11360e-01,-7.45890e-02,-2.51082e-01,3.17679e-01,1.84099e-01,1.70653e-01,1.51584e-01,3.66361e-01,-1.69912e-01,1.29233e-01,-1.48367e-01,-1.59222e-01,3.07744e-01,2.65101e-01,-3.38510e-01,-3.11381e-01,1.71201e-01,-2.03828e-01,2.28699e-01,2.83412e-02,2.09893e-01,1.62160e-02,4.25951e-03,2.33406e-01,1.82492e-02,-1.05560e-01,1.13720e-01,7.22521e-02,1.94393e-01,-4.52350e-02,2.06160e-01,9.15960e-02,3.21465e-01,1.14163e-01,-1.10838e-01,-1.13122e-01,-1.69573e-01,
-4.97425e-02,9.15912e-02,8.29869e-02,-4.88717e-01,6.10567e-02,1.77880e-02,1.96670e-01,-1.93221e-01,-3.10739e-01,-4.68742e-01,3.01205e-02,-2.65100e-01,-1.72793e-01,1.34785e-01,7.31379e-02,-1.59791e-01,-5.84189e-02,1.06973e-03,-2.37449e-01,-1.43043e-01,-1.44996e-01,-2.16719e-01,-1.26255e-01,1.17597e-01,9.04919e-02,-2.09491e-01,-1.41443e-01,8.35404e-02,-1.25802e-01,-7.75067e-02,1.69554e-01,1.59094e-01,-1.86557e-01,6.93377e-02,-3.25261e-01,-7.69410e-02,-7.55135e-02,2.94148e-01,-2.06267e-02,1.07342e-01,5.09736e-02,5.03347e-02,1.03409e-01,-1.94875e-02,-2.25120e-01,-3.47100e-01,-4.60444e-02,-1.69397e-01,-3.86168e-02,3.39854e-01,-1.45177e-01,-2.74618e-01,4.01667e-02,5.68927e-02,-1.25323e-01,-1.63684e-01,3.10726e-01,4.09474e-02,-8.15167e-02,1.63638e-02,-9.56989e-02,5.23815e-02,1.01190e-01,4.70826e-02,
1.87461e-01,9.69926e-02,6.45617e-02,-1.98503e-02,3.53566e-01,-2.98917e-01,-2.80003e-02,1.38418e-01,4.22754e-02,-2.37199e-02,2.04391e-01,1.52046e-01,-2.72923e-01,1.19758e-01,2.67680e-01,1.98030e-01,2.09121e-02,9.78107e-02,-2.19775e-01,-1.51361e-01,-3.31225e-02,9.75484e-02,-7.09327e-02,2.03192e-01,-3.63698e-03,5.37128e-01,5.52702e-02,-3.08942e-01,1.69234e-01,-2.31886e-01,3.54996e-01,6.68593e-02,2.90045e-01,-4.73917e-02,-2.40068e-01,1.31220e-01,-4.26582e-02,2.73548e-02,5.42928e-01,2.94835e-02,-2.63163e-01,2.05738e-01,-3.58406e-02,7.50433e-02,3.73600e-02,1.79083e-01,-3.46402e-03,-1.38803e-01,1.68559e-01,-1.90950e-01,4.43774e-01,1.45867e-01,1.29486e-01,-3.59302e-02,1.83540e-01,-1.38875e-01,-1.42354e-01,4.24442e-01,-7.21657e-02,1.07567e-02,-2.34793e-01,-2.31450e-02,3.67118e-01,1.01512e-01,
3.64131e-01,-8.52829e-02,1.93638e-01,-2.17923e-01,1.62228e-01,-9.26907e-03,1.39494e-01,-2.07411e-01,-3.58834e-02,1.77201e-01,1.15363e-01,-2.06292e-02,5.42247e-02,1.64911e-01,-4.38088e-02,-1.65982e-01,2.05903e-01,4.81615e-03,-8.51547e-02,1.78787e-01,-5.21886e-01,2.29408e-01,2.22410e-01,1.55221e-01,-1.56600e-01,-2.80684e-01,5.92348e-02,5.22441e-02,5.78431e-02,1.86065e-01,1.13299e-01,-8.44856e-02,-2.97408e-03,2.42918e-01,3.41017e-01,-5.77322e-02,1.64782e-01,7.62670e-02,3.12972e-01,8.37370e-02,-4.86840e-01,-3.51196e-01,1.99541e-02,1.91172e-01,-2.08035e-01,-1.99837e-01,2.38160e-01,-1.38016e-01,1.07472e-01,-2.38946e-01,2.18463e-01,2.65251e-01,1.81113e-01,-3.66439e-02,-1.09145e-01,2.25127e-01,-1.95600e-01,-5.85766e-02,1.13494e-02,6.68635e-02,1.63219e-01,3.91952e-01,-1.85916e-01,2.75136e-01,
2.53145e-01,-5.75270e-02,-1.55083e-01,-1.24141e-02,7.84660e-02,-1.49154e-01,6.19662e-02,2.26226e-01,-5.07485e-02,-1.57874e-01,3.11768e-01,3.65747e-02,-3.34005e-01,5.09694e-02,-1.41477e-01,1.88807e-01,2.27799e-01,2.88121e-02,-2.03561e-02,-2.74727e-01,-2.37968e-01,-3.37178e-01,3.40371e-01,-3.81029e-01,-7.76832e-02,2.09657e-01,6.70230e-02,-3.19022e-01,-1.34676e-02,1.03348e-01,1.24752e-01,8.26666e-02,8.12705e-02,3.16293e-01,1.27468e-01,8.79384e-02,1.59170e-01,-5.34468e-02,-4.28292e-02,-2.13610e-01,1.39097e-01,5.83356e-02,3.96521e-01,9.41668e-02,-3.81806e-01,2.58701e-02,2.67656e-01,1.54048e-01,-5.12489e-02,-1.49615e-01,-3.37635e-02,7.84244e-02,1.26548e-01,-4.11432e-02,-3.61627e-01,3.39269e-01,-1.21058e-01,1.62283e-01,-1.76747e-01,1.71851e-01,-3.02626e-02,-1.07947e-01,-1.85431e-01,-1.10662e-01,
-2.06143e-01,5.18706e-02,-2.02428e-01,-1.64383e-01,5.44988e-01,-7.89230e-02,-4.65140e-02,-7.57820e-02,4.51269e-01,-2.52476e-01,8.87344e-02,2.16209e-01,-3.96083e-02,1.97239e-02,2.04773e-01,6.23518e-02,-1.08507e-01,1.34071e-01,7.15608e-02,-8.54641e-02,-6.28888e-02,-8.45975e-02,3.48498e-01,3.36507e-01,-3.56555e-02,4.37168e-01,4.05192e-01,-1.47179e-03,1.86733e-02,2.74269e-01,1.79282e-02,8.86829e-04,-1.04444e-01,8.40860e-02,2.03562e-01,-1.19637e-02,1.26038e-02,9.36769e-02,2.67487e-01,2.17198e-01,9.61830e-03,-1.47667e-01,9.08432e-03,-5.20585e-02,9.17379e-02,-2.51917e-02,1.96321e-01,2.14976e-02,-2.56739e-01,3.56574e-02,-3.75011e-01,1.73921e-01,-1.69861e-01,1.83585e-01,6.47438e-02,7.82167e-02,-1.28749e-01,-3.89694e-02,-3.44857e-01,1.10320e-01,9.16090e-02,1.25935e-01,2.62455e-02,1.96658e-01,
1.73036e-01,3.42387e-02,-4.11963e-02,1.62096e-01,-1.15450e-01,-1.84988e-01,3.77354e-03,-2.11010e-01,-4.34339e-02,-2.47451e-01,3.05084e-01,9.27070e-02,-3.35523e-02,-2.33745e-01,9.85284e-02,-1.25728e-01,-7.90140e-02,2.38206e-01,7.46600e-02,-2.05221e-01,4.60012e-02,-2.52818e-01,-1.40281e-01,1.67257e-01,-2.33161e-01,5.46939e-03,2.38034e-02,1.61501e-02,2.12087e-01,2.11847e-02,4.27734e-03,-6.36673e-02,-1.60590e-01,2.27339e-02,-9.61967e-02,-2.58846e-01,-1.30244e-01,-4.07187e-01,-3.33839e-01,1.82973e-02,3.31286e-02,-3.04106e-01,-1.20729e-01,-2.29297e-01,-1.95660e-01,1.42400e-01,1.14239e-01,-4.27842e-01,1.55313e-01,-4.22212e-02,1.64606e-01,-2.88236e-01,-9.02473e-03,2.28229e-02,1.88892e-01,1.91033e-01,-1.72060e-01,6.33018e-02,-9.76610e-02,-3.47127e-01,2.43190e-01,-1.63601e-02,1.63216e-02,1.67837e-01,
-9.87329e-02,-2.31781e-02,8.73529e-02,3.03573e-01,-3.97660e-01,3.45067e-02,-2.32303e-02,-1.01861e-01,5.16944e-02,6.28229e-02,-3.65549e-02,-1.27814e-01,-3.71103e-01,2.31975e-01,4.55290e-02,-1.95937e-01,-2.23852e-01,2.03862e-01,5.26487e-02,-1.68535e-01,-1.46832e-01,-4.60470e-03,-7.14368e-02,-2.90894e-01,-1.50010e-01,1.44075e-01,9.82815e-02,-2.33961e-02,9.06783e-03,2.54074e-01,-4.79475e-02,1.60029e-01,1.22713e-01,-1.13787e-01,3.17765e-02,-2.07735e-01,-1.35182e-01,1.38950e-01,4.33184e-02,3.36914e-01,-1.53361e-01,-1.57194e-01,-1.89483e-01,1.64159e-01,3.41078e-01,-2.74709e-01,1.04475e-01,2.45782e-01,-4.96448e-02,3.33145e-01,6.71819e-02,-2.38930e-01,3.71783e-01,8.35012e-03,-1.73767e-01,1.61058e-01,-2.70944e-01,2.57275e-03,-3.22186e-02,1.31979e-02,-7.76249e-02,-3.84928e-02,1.38052e-01,-6.62925e-02,
2.53327e-01,-1.60026e-01,-4.02997e-01,-3.04339e-01,2.25355e-01,-1.06640e-01,-8.34751e-02,2.19216e-01,-2.97192e-01,1.79311e-01,-1.06877e-01,2.67912e-02,-6.00348e-02,2.18211e-01,1.69780e-01,2.25039e-01,1.30617e-02,1.81994e-01,4.27572e-02,-1.55182e-01,-4.29931e-02,-2.00088e-01,3.68480e-01,3.38244e-01,-2.30014e-01,-2.09226e-01,1.88578e-01,7.94327e-02,-7.19712e-02,2.87927e-01,1.17961e-01,-1.09624e-02,3.32833e-02,5.58512e-03,2.38434e-01,-8.87037e-02,3.84494e-01,3.04438e-01,1.05588e-01,-2.94844e-01,-1.56373e-01,-9.46688e-02,-2.41360e-02,-1.05623e-01,1.40614e-01,2.45096e-01,1.15002e-01,-4.08145e-02,-5.21734e-01,-3.20414e-02,2.82013e-01,-2.17139e-01,4.47295e-01,6.63338e-02,2.17588e-01,3.95883e-02,-2.02119e-02,1.91462e-01,2.50632e-02,-4.09282e-02,-4.67973e-02,-9.00224e-02,1.14871e-01,-5.38950e-02,
1.65906e-01,8.23080e-02,6.50388e-02,-1.03242e-01,-1.59725e-01,7.98395e-03,1.45637e-01,-6.49871e-02,3.00935e-01,1.19082e-01,-4.31721e-01,2.13774e-01,-3.14374e-01,-9.03138e-02,1.33425e-01,1.18023e-01,-2.51556e-01,3.73282e-02,-1.44267e-01,-1.71542e-01,3.69427e-01,3.15893e-01,6.59328e-02,-1.82307e-01,1.82922e-01,3.63934e-01,-4.74843e-02,3.16160e-01,-3.52790e-01,1.61063e-01,2.20615e-01,-1.00651e-01,1.41386e-01,1.81571e-01,-1.72977e-01,-3.61131e-01,2.16624e-01,-1.57526e-01,-1.59283e-01,3.67566e-02,-8.00731e-02,6.90150e-04,1.42285e-01,-1.11897e-01,-1.17594e-01,1.31178e-02,1.14909e-01,-1.49012e-01,7.34438e-02,-1.87919e-01,1.94996e-01,1.49600e-01,3.39760e-02,2.95818e-01,4.65817e-03,-2.78926e-01,1.74760e-01,-1.28734e-01,-3.20947e-02,-1.02820e-01,3.59025e-02,1.93262e-02,-4.02061e-02,-2.64024e-01,
-1.26369e-01,3.66285e-02,-2.02688e-01,-2.00530e-01,-2.44049e-01,-3.87664e-01,-2.71693e-02,-5.28307e-01,1.36483e-01,-1.84207e-01,-1.67278e-01,3.77132e-02,-1.43849e-01,2.16284e-02,-3.43727e-02,1.93072e-01,6.87694e-02,-1.87813e-01,2.09424e-01,2.18996e-01,-5.87639e-02,2.22523e-01,2.16294e-01,1.99652e-01,-1.85307e-01,2.11116e-01,-2.59398e-01,-1.18186e-01,-1.05953e-01,-1.26003e-01,-6.96091e-02,1.00277e-01,-2.84288e-03,4.76257e-02,1.89467e-02,2.17005e-01,9.18563e-02,2.76176e-01,-1.56623e-01,-1.25533e-01,1.88543e-01,5.87265e-02,-3.66265e-02,8.68923e-03,2.20453e-01,-1.08841e-01,6.07841e-02,-1.19187e-01,2.84045e-01,-9.82828e-02,4.47477e-02,-3.01223e-01,-9.00442e-02,-1.39246e-01,-1.35282e-02,1.84141e-01,-1.88154e-01,6.38070e-04,2.78134e-01,9.61076e-02,1.97310e-01,-9.91089e-03,2.20615e-01,-2.20366e-01,
2.99787e-02,-2.40145e-02,-3.64642e-01,-2.69238e-01,2.15987e-02,2.00994e-01,1.64143e-01,-1.98633e-01,-2.09673e-01,6.42855e-02,-8.30076e-02,-2.18926e-01,-3.14629e-01,-2.12639e-01,-1.25008e-01,9.36177e-02,-1.87253e-01,4.49485e-02,-2.65006e-02,-4.49782e-02,-4.89755e-03,1.38623e-01,-2.64349e-01,5.94458e-02,2.45949e-01,2.90587e-01,2.84355e-01,-2.53736e-01,2.23638e-01,-9.27639e-02,-2.53836e-01,-9.29466e-02,-1.64963e-01,-1.92577e-01,2.25189e-01,-5.89260e-02,-8.68897e-03,-7.72176e-02,-7.73988e-02,-3.49272e-01,-6.46352e-02,-2.50037e-02,-1.04066e-01,4.72204e-02,-2.03633e-01,-2.15762e-01,7.17772e-02,6.12975e-02,-1.73768e-01,3.18297e-01,3.76100e-01,3.34785e-01,-2.43775e-01,2.51707e-02,5.77938e-03,2.49366e-01,1.23686e-03,5.65486e-02,1.79686e-01,-1.31165e-02,-7.95188e-02,8.38019e-02,9.33346e-02,-3.24784e-02,
-2.37512e-01,-1.11766e-01,-1.25425e-01,1.62052e-01,-1.70943e-01,-1.26279e-01,-3.14280e-01,3.33305e-02,-1.77506e-01,6.63207e-02,1.43926e-01,-3.48097e-01,-1.79958e-01,-2.62466e-01,1.80612e-02,2.84560e-01,2.12399e-01,4.19860e-02,-8.22280e-02,-4.83900e-02,8.22796e-02,-2.19320e-01,1.82602e-02,-1.33500e-02,2.76643e-02,-3.78116e-02,-1.37254e-01,5.97263e-02,-2.28875e-02,-2.16589e-03,-3.66230e-01,-2.98728e-01,5.18745e-02,-4.26270e-02,-4.98727e-02,-3.06317e-01,-6.18319e-02,4.98516e-01,6.74758e-02,6.09370e-02,-5.88645e-02,-4.20847e-01,-1.75953e-01,-3.98145e-02,-3.34123e-01,2.84143e-02,-1.59145e-01,5.60279e-02,-2.63912e-02,-1.84773e-01,1.47730e-01,-8.47536e-02,-2.26942e-01,-7.99975e-02,-5.63989e-02,-2.72407e-01,-1.23379e-01,-8.87886e-02,-2.29026e-01,3.64372e-01,8.20557e-02,1.45565e-01,-9.79429e-03,7.63214e-02,
6.57867e-02,1.99160e-01,1.19134e-01,1.18322e-01,-2.38951e-01,-1.14364e-01,-2.54161e-02,-2.33235e-01,1.90702e-01,1.15284e-01,-1.60171e-01,9.54523e-02,1.20632e-01,-1.27348e-01,2.48928e-01,8.10239e-02,1.69961e-01,3.17682e-01,-2.13708e-01,1.91744e-02,-1.94223e-01,-2.48099e-02,-3.48136e-02,1.59021e-01,1.45647e-02,1.27994e-01,-3.63094e-01,6.92302e-02,1.20430e-01,1.18445e-01,-2.92862e-01,9.07303e-02,-3.11208e-01,1.33139e-01,-2.26012e-02,8.19575e-02,5.31134e-02,-3.04212e-01,2.80037e-01,-2.95153e-02,1.12088e-01,1.19323e-01,-2.78854e-01,-9.04203e-02,-3.18083e-01,-1.25120e-01,-1.55059e-01,2.08547e-01,-5.31272e-01,-1.09797e-01,-2.07552e-02,-1.81823e-01,5.99598e-02,-1.69607e-01,-1.58602e-01,-2.79279e-02,2.02178e-02,1.59757e-01,3.15567e-02,3.58076e-02,-2.97236e-01,-5.73664e-02,-1.19331e-02,-1.49243e-01,
1.57750e-01,3.32828e-01,-1.09653e-01,1.57606e-01,1.80134e-01,-3.20033e-01,1.01011e-01,8.60733e-05,-1.17248e-01,2.51696e-02,-8.56764e-02,3.49086e-01,-2.17384e-01,-9.12012e-02,1.42831e-01,-8.26037e-02,-7.81751e-02,-4.58985e-01,-5.51428e-02,-4.18346e-02,3.42665e-01,1.34492e-01,7.03260e-02,1.19127e-01,1.17047e-01,4.38911e-02,-2.88299e-02,-1.08045e-01,-1.01474e-01,4.86385e-02,6.81690e-02,2.00705e-01,-1.32710e-02,1.96471e-01,-7.94845e-02,1.29593e-02,7.12917e-02,1.32808e-01,-8.45730e-02,1.22931e-01,2.98497e-02,5.97643e-02,-1.36297e-01,-6.59841e-02,1.18904e-01,1.49948e-01,1.59350e-01,1.85732e-01,-2.54909e-01,-2.80779e-02,1.23728e-01,2.41021e-01,3.19520e-01,-1.06005e-01,-5.69079e-02,5.90721e-02,-1.20265e-01,4.36785e-01,-4.00358e-02,1.20104e-01,4.08823e-02,1.66185e-01,-2.78157e-01,7.80723e-01,
-2.70328e-01,8.77107e-02,-1.35518e-01,2.24518e-01,2.39607e-03,-3.05197e-01,2.06053e-02,1.35551e-01,-2.17145e-01,-3.19891e-02,-4.78045e-01,-1.59513e-02,1.59638e-01,1.17275e-01,-2.84859e-01,1.80629e-01,9.63824e-02,2.35120e-01,-1.66039e-02,2.18905e-01,8.54287e-02,1.10534e-02,-2.07167e-01,3.03428e-02,-2.30973e-01,4.07986e-02,1.39108e-01,-7.10482e-02,-1.49931e-01,-2.98849e-02,1.69695e-01,-2.78972e-01,-3.49794e-01,-1.22102e-01,1.82445e-01,1.75132e-01,-5.53329e-02,-1.63662e-01,6.12581e-02,1.70182e-01,-6.83938e-02,-4.39233e-02,3.69782e-01,-1.81509e-01,-2.04225e-01,-6.31301e-02,1.61284e-01,1.73176e-01,9.50277e-02,9.26061e-02,1.17538e-01,-2.64627e-01,1.89812e-02,-1.27128e-01,-3.78904e-01,-1.13067e-01,1.21624e-01,-7.77431e-02,-1.24332e-01,-2.25536e-01,4.58772e-02,8.51066e-02,2.15619e-01,2.11480e-01,
-1.64784e-01,-2.81090e-02,4.34117e-02,2.11269e-02,1.11398e-01,-5.67593e-04,-3.34541e-01,-1.56444e-01,1.16701e-01,2.11949e-01,1.00118e-01,5.43087e-01,-2.90092e-01,1.21011e-01,-3.09095e-01,-4.54480e-02,-4.52874e-02,3.53182e-01,-2.17971e-01,1.24669e-01,5.48102e-02,-1.87890e-01,-8.30152e-02,1.92729e-01,3.06951e-01,4.76256e-02,-1.27421e-01,8.31231e-03,-2.90061e-01,-2.33839e-01,-2.58171e-01,4.90722e-02,6.98988e-02,-1.11333e-01,-1.33932e-01,1.66145e-01,6.16467e-02,-1.47509e-02,-4.40854e-02,-1.12196e-01,-2.50566e-01,-4.52545e-02,2.31882e-01,5.47345e-02,2.34433e-01,-1.49242e-01,-1.82245e-01,7.97595e-02,3.21391e-02,7.69113e-02,2.28198e-01,-1.57151e-01,-1.17509e-01,8.03605e-02,1.78035e-01,1.20024e-01,1.14861e-01,2.75083e-01,-2.86398e-01,-1.97571e-01,1.64616e-01,8.04573e-02,-3.44341e-01,-7.29774e-02,
-5.00965e-01,-9.95654e-02,-5.99093e-02,-2.83174e-01,-2.19104e-01,-1.87388e-01,2.73877e-01,1.99307e-01,8.20061e-03,2.51102e-01,7.18790e-02,7.54206e-02,1.90633e-02,-3.29340e-01,-1.99622e-01,-3.18050e-02,-1.02116e-01,-1.22670e-02,-4.18494e-01,-4.55495e-01,2.02023e-02,-1.00014e-01,-9.47293e-02,2.10437e-01,1.42764e-02,1.08228e-01,-3.96925e-01,-1.25579e-01,-3.95063e-03,3.80262e-01,1.11955e-01,6.11450e-02,4.11923e-02,3.91110e-02,-1.50669e-01,1.57827e-01,3.33876e-02,-1.04340e-01,5.83935e-02,-5.05603e-02,-3.42020e-01,1.99828e-01,-2.22231e-01,-8.86197e-03,8.54512e-02,1.97604e-01,1.11064e-01,1.20794e-01,8.59890e-02,1.27078e-01,4.74132e-02,-1.45697e-01,-1.75268e-01,-3.39589e-02,-4.06075e-02,1.91733e-01,1.77033e-01,-7.22936e-03,5.95602e-02,-1.28223e-02,2.80875e-01,-8.77380e-02,-3.51397e-02,2.10164e-02,
2.31862e-01,2.46104e-02,1.88482e-01,-1.10072e-01,7.50041e-02,1.77878e-01,-1.85837e-01,-3.46391e-01,8.80861e-02,-1.84123e-01,-1.26977e-01,-3.38375e-02,-1.36552e-02,-1.13446e-01,-6.30719e-02,2.48747e-01,1.88955e-01,-4.49941e-02,-3.34618e-01,6.73516e-02,2.72503e-01,-1.35364e-01,1.85668e-01,1.67643e-01,2.84403e-01,-1.02050e-01,3.13086e-01,8.72149e-02,2.24310e-01,1.64052e-01,2.06717e-01,1.36370e-02,-5.05006e-02,-3.41023e-01,3.65107e-02,4.33708e-02,1.50536e-01,4.85624e-02,1.32177e-01,7.34258e-02,-9.26065e-02,1.51659e-01,-5.13120e-02,-3.36657e-01,1.46416e-01,2.45079e-01,1.85615e-01,3.72829e-02,3.02680e-01,-8.89457e-02,9.42782e-02,2.03435e-01,3.48887e-01,2.24567e-02,-2.35513e-01,3.43656e-01,-2.82174e-01,1.85700e-01,-2.36643e-01,1.07588e-01,-1.49121e-01,-2.40001e-01,-1.39208e-01,-1.60024e-02,
-3.93635e-02,-1.77641e-02,-6.61585e-02,-2.64774e-01,-9.38470e-02,1.32983e-01,1.17493e-01,-1.18173e-01,1.17198e-01,9.87775e-02,3.61233e-02,-1.70012e-04,-2.86409e-01,2.22669e-01,1.12912e-01,1.99736e-01,-3.21575e-01,8.27151e-03,-5.87957e-02,-1.03324e-02,2.90289e-01,2.40180e-02,-3.19721e-01,-8.02680e-02,-4.92427e-01,-3.25056e-01,-1.56541e-01,3.52038e-02,6.22886e-02,-2.30298e-01,-1.09291e-01,-2.93297e-01,-9.50050e-02,5.38201e-02,-5.03221e-02,1.46219e-01,-1.50839e-01,1.35885e-01,2.38645e-01,1.08534e-01,5.00474e-02,1.28557e-01,5.68022e-02,3.34162e-01,-1.68489e-01,2.78937e-01,1.25792e-01,5.87646e-02,-1.90637e-01,-1.95256e-01,-1.39444e-01,7.84205e-02,-2.63214e-02,-6.51639e-02,1.00096e-01,3.48175e-01,-1.40660e-01,-1.11142e-01,-2.91946e-01,-8.98750e-02,1.92811e-02,-2.32660e-01,6.32959e-02,6.72743e-02,
-1.81265e-01,-5.46848e-02,2.80778e-01,-2.45974e-01,-2.00371e-01,2.19886e-02,-2.26664e-01,-9.43710e-03,-2.75973e-01,2.15094e-01,3.21375e-03,1.58036e-01,1.11166e-01,2.07961e-01,-2.68516e-01,-9.78986e-02,-7.15005e-02,-2.90208e-01,1.29707e-01,-2.74459e-01,6.95274e-02,1.62216e-01,-4.01112e-02,2.31358e-01,3.16460e-01,3.15764e-01,-2.09547e-01,-2.78299e-01,8.90419e-04,2.12461e-02,-1.63910e-01,1.84230e-01,-6.12448e-02,-2.53539e-01,-5.42239e-02,-1.89193e-01,-3.06014e-02,1.44697e-03,-7.49146e-02,5.23659e-02,3.11966e-01,2.05543e-02,1.46405e-01,-3.37097e-03,-4.90997e-02,1.33728e-01,-1.12433e-01,-1.25463e-01,-3.13525e-01,-3.80506e-01,9.89996e-02,-1.26244e-01,-1.33074e-02,9.05089e-02,-7.32006e-02,5.03042e-02,-1.67537e-01,-1.22594e-01,-3.83861e-01,-3.53614e-01,-1.03857e-01,1.92785e-01,2.87907e-01,-1.10547e-02,
1.42265e-01,1.58913e-01,1.25226e-01,-6.64680e-02,-1.18577e-01,-4.13911e-01,-2.54275e-01,1.31553e-01,-3.25363e-01,9.20191e-02,-1.92494e-01,-2.37670e-01,-8.26934e-02,-1.51578e-03,8.37318e-03,-4.77202e-01,-1.80110e-01,3.55307e-01,1.25962e-02,-1.48451e-01,-7.50458e-02,-1.76646e-01,5.87052e-02,-4.71666e-02,-1.60054e-01,5.43671e-02,1.37543e-02,3.13397e-02,-1.09256e-01,1.91896e-02,-1.74136e-01,-2.32218e-01,-1.29452e-01,1.07630e-01,-2.05219e-02,1.65936e-01,1.89763e-01,6.49377e-02,5.46929e-02,4.23606e-02,3.44595e-01,3.26507e-01,-1.43974e-01,-3.56887e-02,2.89541e-01,3.98041e-02,-6.52097e-02,-2.55654e-01,1.10367e-01,9.87509e-02,6.25012e-02,4.48430e-01,-2.32876e-01,-1.93257e-01,-3.27496e-02,-3.71118e-02,-6.10300e-02,-1.00399e-01,-1.54581e-01,3.01499e-02,4.92962e-02,3.96161e-03,-1.02548e-01,-1.23302e-01,
2.94691e-01,-1.54005e-01,3.25858e-01,1.62861e-01,3.71546e-01,-1.84488e-01,1.72618e-01,-5.10157e-02,1.58231e-01,-1.26544e-01,9.04653e-02,5.02231e-02,-1.82601e-01,4.72589e-02,3.40398e-01,3.20290e-01,-7.28417e-02,3.28547e-01,-2.14066e-01,1.19466e-01,2.94714e-01,8.45354e-02,2.24832e-01,-7.76247e-02,2.75839e-01,2.48858e-02,9.12998e-02,-2.37007e-01,3.26712e-01,3.47928e-01,1.95897e-01,1.92001e-02,-9.47497e-02,-1.14132e-01,8.11939e-02,1.76742e-01,5.48330e-01,3.32738e-01,-1.30909e-01,-1.74927e-01,7.18448e-03,1.38055e-01,2.13108e-02,5.01473e-01,1.80899e-02,3.40725e-01,1.95620e-02,-6.64954e-02,-1.31605e-02,3.37893e-02,-9.40253e-02,-3.23268e-02,1.58601e-01,5.20194e-02,2.07916e-02,2.29611e-01,6.48098e-03,7.59706e-02,5.87987e-02,-1.27694e-02,4.62377e-02,5.84963e-01,6.06932e-02,2.79523e-01,
2.97945e-01,8.88004e-02,-1.92402e-01,2.36937e-02,3.00539e-01,1.92542e-02,4.62340e-02,1.10122e-01,1.80679e-01,2.98395e-01,1.59928e-01,-6.19326e-02,-1.76660e-02,-3.15627e-01,-1.38093e-01,3.44369e-01,-2.34967e-01,1.56081e-01,2.30506e-01,-9.66213e-03,-2.51673e-01,3.96914e-03,-8.71770e-02,3.05583e-01,-6.22736e-02,-2.86370e-01,2.63282e-01,-2.50387e-01,1.15273e-02,-5.24515e-02,1.72992e-01,5.22791e-03,1.26759e-01,2.14553e-01,-6.72889e-02,-4.61839e-02,3.06829e-01,1.05594e-01,1.36399e-01,-1.97862e-01,1.77764e-01,-1.91199e-01,-4.14266e-01,3.12909e-02,8.39381e-02,-2.04133e-01,-1.86045e-02,-5.21491e-02,2.06564e-01,-1.53258e-01,-3.04516e-01,-1.59323e-02,4.38205e-01,-1.41233e-01,-2.84509e-01,1.20936e-01,1.10690e-01,-1.52432e-01,-2.83138e-01,8.77015e-02,-1.20090e-01,9.94214e-02,8.49298e-02,5.47535e-02,
-1.33099e-01,2.20321e-01,9.47596e-02,-3.52259e-02,3.94839e-02,-1.25471e-01,-1.52347e-01,6.34301e-02,6.23612e-02,1.66351e-01,4.61821e-03,4.87267e-02,1.91070e-01,4.17471e-01,1.95243e-01,1.02319e-01,-2.25007e-01,-1.35918e-01,-3.96448e-02,1.21236e-01,-1.55825e-01,1.66837e-01,2.75856e-01,-3.36081e-01,1.12755e-01,2.52296e-02,-1.27411e-01,-2.39592e-01,2.80652e-01,-1.19068e-01,-9.00004e-02,-2.28880e-01,-2.37580e-01,-1.83356e-02,-1.17344e-02,-2.97763e-01,-2.34036e-01,1.16640e-01,6.40186e-03,-3.45734e-01,-1.02751e-01,1.47078e-01,-3.61351e-01,-1.98369e-01,-6.82045e-02,2.86569e-02,3.34955e-01,-8.35816e-02,1.92087e-01,2.77858e-01,-3.37914e-02,-1.56381e-01,-1.32778e-02,1.30947e-01,-4.69142e-02,-8.51875e-02,1.64796e-01,4.97942e-02,-1.84986e-01,-1.35103e-01,1.45935e-01,-1.83739e-01,-2.32784e-01,-2.37383e-02,
2.72897e-03,2.88294e-01,-1.22085e-01,6.01536e-02,-1.72395e-01,-3.66487e-02,1.79050e-01,-2.21266e-01,-1.23891e-01,1.73008e-01,-1.09314e-01,3.23158e-02,-7.12414e-02,2.76749e-01,3.92030e-02,-8.64106e-02,1.36277e-01,-2.53363e-01,1.71252e-01,-6.45614e-02,1.69914e-01,-2.10474e-01,-3.82072e-01,1.22862e-01,4.29160e-01,1.40448e-01,-8.55467e-02,-9.33726e-02,-9.06105e-02,2.22830e-01,2.80487e-01,-4.13099e-01,8.63452e-02,1.25897e-01,2.70575e-01,2.40091e-01,-7.75382e-02,-1.18561e-01,-2.25198e-01,1.43544e-01,-2.00281e-01,7.15973e-02,-2.15951e-01,1.30872e-01,6.35538e-02,1.16332e-01,-5.97851e-02,-7.64802e-02,4.11237e-02,-1.38455e-01,-1.26773e-01,-2.71510e-01,-2.99525e-01,1.05989e-01,1.98245e-01,-1.00441e-01,-8.84522e-02,2.44961e-01,-2.36138e-01,8.20026e-02,-1.84798e-01,5.29071e-02,-6.75950e-02,-2.73313e-01,
1.52197e-01,3.83463e-02,-2.36407e-01,-1.89584e-01,2.18684e-01,1.11936e-01,-2.09609e-01,-4.78602e-02,-3.08355e-01,-2.72434e-02,-1.64426e-02,-8.27500e-02,-2.90083e-01,1.56171e-01,9.67532e-02,2.66266e-01,6.20618e-02,2.38205e-01,1.75419e-02,-1.42089e-01,-7.54145e-02,2.26428e-02,2.29611e-01,-2.40593e-02,-2.04987e-01,2.29731e-01,-1.10199e-01,-8.98709e-02,-7.93969e-02,6.24081e-02,-4.56899e-02,1.31912e-01,-1.41733e-01,4.49695e-02,-1.57753e-01,2.17362e-01,-2.00454e-01,-1.48365e-02,-2.24801e-01,7.86850e-02,-3.02681e-01,-2.83843e-01,-3.19129e-01,-1.51070e-02,2.02877e-01,2.87431e-01,-1.29365e-02,1.64830e-01,8.74789e-02,-3.25971e-01,-1.24248e-01,1.52222e-01,5.50194e-03,-1.15279e-01,-1.70763e-01,1.45119e-01,3.54006e-01,-2.21250e-01,1.96992e-01,-2.87374e-01,-4.49116e-01,1.14799e-01,-1.44618e-01,2.14399e-01,
-2.17208e-02,2.56962e-01,2.51637e-01,-7.53549e-02,2.37132e-02,-3.94499e-01,2.03926e-01,1.02314e-01,-1.03188e-01,3.17372e-02,2.62753e-01,2.74410e-01,-1.95620e-01,-1.90344e-01,1.62417e-02,3.61474e-01,-2.88915e-02,-1.37569e-02,-3.85571e-02,2.24658e-01,9.44745e-02,3.97922e-04,3.01070e-01,2.10236e-01,2.42505e-01,-5.78513e-02,2.51238e-01,-1.21154e-01,2.35018e-01,-2.58444e-02,-1.86230e-01,-1.62122e-01,6.00538e-02,3.42236e-01,6.12680e-02,-7.74160e-02,-1.59646e-02,-7.41671e-02,-1.87387e-01,4.47265e-01,-1.88294e-01,5.88422e-02,2.00389e-01,1.83541e-01,3.04333e-01,1.52773e-01,2.12411e-01,-1.85318e-01,-2.64322e-01,5.17104e-02,2.25889e-01,1.24105e-01,2.51948e-01,-4.15704e-02,3.58378e-02,2.25921e-01,3.66517e-01,1.25073e-01,-5.73725e-02,5.74755e-02,-3.05434e-01,-3.09100e-03,9.40982e-02,-1.39776e-01,
